{"learner":{"attributes":{"scikit_learn":"{\"_estimator_type\": \"regressor\"}"},"feature_names":[],"feature_types":[],"gradient_booster":{"model":{"gbtree_model_param":{"num_parallel_tree":"1","num_trees":"100"},"iteration_indptr":[0,1,2,3,4,5,6,7,8,9,10,11,12,13,14,15,16,17,18,19,20,21,22,23,24,25,26,27,28,29,30,31,32,33,34,35,36,37,38,39,40,41,42,43,44,45,46,47,48,49,50,51,52,53,54,55,56,57,58,59,60,61,62,63,64,65,66,67,68,69,70,71,72,73,74,75,76,77,78,79,80,81,82,83,84,85,86,87,88,89,90,91,92,93,94,95,96,97,98,99,100],"tree_info":[0,0,0,0,0,0,0,0,0,0,0,0,0,0,0,0,0,0,0,0,0,0,0,0,0,0,0,0,0,0,0,0,0,0,0,0,0,0,0,0,0,0,0,0,0,0,0,0,0,0,0,0,0,0,0,0,0,0,0,0,0,0,0,0,0,0,0,0,0,0,0,0,0,0,0,0,0,0,0,0,0,0,0,0,0,0,0,0,0,0,0,0,0,0,0,0,0,0,0,0],"trees":[{"base_weights":[2.1924512E-2,-2.0114176E4,8.074144E4,-3.722161E4,6.995397E4,5.96148E4,1.6737602E5,-5.3529812E4,5.326451E4,5.0113082E4,1.6497192E5,3.9336875E4,1.4229708E5,1.511776E5,3.113009E5,-7.28014E4,2.1688586E4,3.2916117E4,1.4903717E5,2.8849412E4,1.3271486E5,1.2038076E5,2.2403955E5,2.3946768E4,1.4318808E5,1.1119108E5,2.0062402E5,1.321568E5,2.613713E5,2.737958E5,4.2180994E5,-8.7553625E4,3.0302271E4,5.171448E2,1.083941E5,1.5972068E4,1.452232E5,1.3042292E5,2.6269834E5,1.0729068E4,1.3191794E5,1.0835561E5,2.2190156E5,9.673614E4,2.0973112E5,2.0395512E5,3.709953E5,2.4014387E3,1.0485107E5,1.0973384E5,2.0033034E5,7.796208E4,1.7509703E5,1.6035116E5,2.5549208E5,1.1675681E5,2.5856525E5,2.3372862E5,3.6520462E5,2.390806E5,3.8732966E5,3.4033753E5,1.5791848E5,-3.1858568E4,-1.6995134E3,3.2183213E3,3.8877246E4,-5.281073E3,2.6578877E4,2.5371006E4,6.0203535E4,-5.095814E1,3.7120438E4,3.566412E4,7.331563E4,2.8510602E4,5.80372E4,5.674982E4,9.3107945E4,-5.674351E2,4.5109625E4,2.9318982E4,6.861016E4,2.6329703E4,6.2022246E4,5.5110848E4,9.2071016E4,1.9679912E4,5.006455E4,3.7398816E4,7.1582984E4,5.4104465E4,8.945364E4,8.5894586E4,1.3144481E5,-6.415965E3,2.318227E4,2.3845768E4,5.4366605E4,2.6362104E4,6.3054414E4,5.6024582E4,1.1864047E5,1.9835139E4,8.524277E4,4.2808684E4,7.583659E4,4.4534797E4,1.1455012E5,6.851679E4,1.14647234E5,3.0499953E4,7.0161984E4,7.246509E4,1.2052151E5,5.9564027E4,9.238445E4,7.326586E4,1.2428537E5,2.715912E4,7.659846E4,4.2049062E4,1.2934691E5,1.3918041E4,1.0495762E5],"categories":[],"categories_nodes":[],"categories_segments":[],"categories_sizes":[],"default_left":[0,0,0,0,0,0,0,0,0,0,0,0,0,0,0,0,0,0,0,0,0,0,0,0,0,0,0,0,0,0,0,0,0,0,0,0,0,0,0,0,0,0,0,0,0,0,0,0,0,0,0,0,0,0,0,0,0,0,0,0,0,0,0,0,0,0,0,0,0,0,0,0,0,0,0,0,0,0,0,0,0,0,0,0,0,0,0,0,0,0,0,0,0,0,0,0,0,0,0,0,0,0,0,0,0,0,0,0,0,0,0,0,0,0,0,0,0,0,0,0,0,0,0,0,0],"id":0,"left_children":[1,3,5,7,9,11,13,15,17,19,21,23,25,27,29,31,33,35,37,39,41,43,45,47,49,51,53,55,57,59,61,63,65,67,69,71,73,75,77,79,81,83,85,87,89,91,93,95,97,99,101,103,105,107,109,111,113,115,117,119,121,123,-1,-1,-1,-1,-1,-1,-1,-1,-1,-1,-1,-1,-1,-1,-1,-1,-1,-1,-1,-1,-1,-1,-1,-1,-1,-1,-1,-1,-1,-1,-1,-1,-1,-1,-1,-1,-1,-1,-1,-1,-1,-1,-1,-1,-1,-1,-1,-1,-1,-1,-1,-1,-1,-1,-1,-1,-1,-1,-1,-1,-1,-1,-1],"loss_changes":[7.308545E13,5.551427E13,1.6416934E13,4.468158E13,1.0833751E13,1.2094605E13,4.0537948E12,3.718905E13,9.006437E12,8.354959E12,2.5884854E12,9.261807E12,2.555837E12,3.2833809E12,6.181156E11,3.1064693E13,9.606061E12,7.2573843E12,1.6794685E12,7.069459E12,2.091993E12,1.1796994E12,1.1816822E12,8.802454E12,1.4079303E12,1.9591091E12,1.0484124E12,2.601733E12,5.8053467E11,4.3947917E11,1.8724264E11,2.7272455E13,4.9682087E12,6.716171E12,2.24098E12,5.7681967E12,1.2770534E12,1.5385986E12,3.3731694E11,5.676598E12,1.8504305E12,1.5356029E12,6.1899014E11,9.740757E11,2.6014227E11,7.847973E11,1.5888128E11,7.1063526E12,2.042862E12,1.0223401E12,6.5498356E11,1.4782801E12,7.6191944E11,6.9986366E11,6.233459E11,2.1093805E12,2.5862812E11,4.2453697E11,1.7790612E11,2.3272568E11,2.6454157E11,5.9333673E10,0E0,0E0,0E0,0E0,0E0,0E0,0E0,0E0,0E0,0E0,0E0,0E0,0E0,0E0,0E0,0E0,0E0,0E0,0E0,0E0,0E0,0E0,0E0,0E0,0E0,0E0,0E0,0E0,0E0,0E0,0E0,0E0,0E0,0E0,0E0,0E0,0E0,0E0,0E0,0E0,0E0,0E0,0E0,0E0,0E0,0E0,0E0,0E0,0E0,0E0,0E0,0E0,0E0,0E0,0E0,0E0,0E0,0E0,0E0,0E0,0E0,0E0,0E0],"parents":[2147483647,0,0,1,1,2,2,3,3,4,4,5,5,6,6,7,7,8,8,9,9,10,10,11,11,12,12,13,13,14,14,15,15,16,16,17,17,18,18,19,19,20,20,21,21,22,22,23,23,24,24,25,25,26,26,27,27,28,28,29,29,30,30,31,31,32,32,33,33,34,34,35,35,36,36,37,37,38,38,39,39,40,40,41,41,42,42,43,43,44,44,45,45,46,46,47,47,48,48,49,49,50,50,51,51,52,52,53,53,54,54,55,55,56,56,57,57,58,58,59,59,60,60,61,61],"right_children":[2,4,6,8,10,12,14,16,18,20,22,24,26,28,30,32,34,36,38,40,42,44,46,48,50,52,54,56,58,60,62,64,66,68,70,72,74,76,78,80,82,84,86,88,90,92,94,96,98,100,102,104,106,108,110,112,114,116,118,120,122,124,-1,-1,-1,-1,-1,-1,-1,-1,-1,-1,-1,-1,-1,-1,-1,-1,-1,-1,-1,-1,-1,-1,-1,-1,-1,-1,-1,-1,-1,-1,-1,-1,-1,-1,-1,-1,-1,-1,-1,-1,-1,-1,-1,-1,-1,-1,-1,-1,-1,-1,-1,-1,-1,-1,-1,-1,-1,-1,-1,-1,-1,-1,-1],"split_conditions":[5.852041E0,5.9972897E0,6.7548976E0,6.022654E0,6.9168925E0,5.8677077E0,7.6920934E0,5.8233094E0,5.936443E0,5.8699207E0,5.178735E0,6.143552E0,5.3535876E0,6.088884E0,5.6809354E0,6.1532483E0,6.760137E0,7.056881E0,6.2236886E0,6.0625396E0,5.7916718E0,5.721118E0,6.4641857E0,5.846106E0,5.3466268E0,5.426299E0,5.306667E0,6.214369E0,6.7349195E0,5.885474E0,5.432898E0,5.883677E0,7.0730405E0,5.976579E0,7.412695E0,6.1360035E0,7.6683025E0,6.594292E0,6.337931E0,6.388651E0,5.6182656E0,5.975601E0,5.507173E0,5.567309E0,4.6035976E0,5.828211E0,5.0456295E0,5.710268E0,5.6493816E0,5.9454722E0,6.6742864E0,6.7019777E0,6.58447E0,6.6313024E0,6.0745273E0,6.218585E0,6.5090485E0,5.5347753E0,4.694939E0,3.415945E0,3.8628564E0,2.7579234E0,1.5791848E5,-3.1858568E4,-1.6995134E3,3.2183213E3,3.8877246E4,-5.281073E3,2.6578877E4,2.5371006E4,6.0203535E4,-5.095814E1,3.7120438E4,3.566412E4,7.331563E4,2.8510602E4,5.80372E4,5.674982E4,9.3107945E4,-5.674351E2,4.5109625E4,2.9318982E4,6.861016E4,2.6329703E4,6.2022246E4,5.5110848E4,9.2071016E4,1.9679912E4,5.006455E4,3.7398816E4,7.1582984E4,5.4104465E4,8.945364E4,8.5894586E4,1.3144481E5,-6.415965E3,2.318227E4,2.3845768E4,5.4366605E4,2.6362104E4,6.3054414E4,5.6024582E4,1.1864047E5,1.9835139E4,8.524277E4,4.2808684E4,7.583659E4,4.4534797E4,1.1455012E5,6.851679E4,1.14647234E5,3.0499953E4,7.0161984E4,7.246509E4,1.2052151E5,5.9564027E4,9.238445E4,7.326586E4,1.2428537E5,2.715912E4,7.659846E4,4.2049062E4,1.2934691E5,1.3918041E4,1.0495762E5],"split_indices":[0,3,0,1,3,6,0,5,9,13,1,8,5,13,11,11,5,1,8,10,9,5,6,2,13,3,13,10,13,8,9,6,11,13,5,10,1,9,1,1,12,6,6,10,6,4,12,3,5,4,3,10,6,9,1,4,4,11,11,1,12,6,0,0,0,0,0,0,0,0,0,0,0,0,0,0,0,0,0,0,0,0,0,0,0,0,0,0,0,0,0,0,0,0,0,0,0,0,0,0,0,0,0,0,0,0,0,0,0,0,0,0,0,0,0,0,0,0,0,0,0,0,0,0,0],"split_type":[0,0,0,0,0,0,0,0,0,0,0,0,0,0,0,0,0,0,0,0,0,0,0,0,0,0,0,0,0,0,0,0,0,0,0,0,0,0,0,0,0,0,0,0,0,0,0,0,0,0,0,0,0,0,0,0,0,0,0,0,0,0,0,0,0,0,0,0,0,0,0,0,0,0,0,0,0,0,0,0,0,0,0,0,0,0,0,0,0,0,0,0,0,0,0,0,0,0,0,0,0,0,0,0,0,0,0,0,0,0,0,0,0,0,0,0,0,0,0,0,0,0,0,0,0],"sum_hessian":[4.5E4,3.6026E4,8.974E3,3.0276E4,5.75E3,7.216E3,1.758E3,2.5653E4,4.623E3,4.758E3,9.92E2,5.796E3,1.42E3,1.582E3,1.76E2,2.0421E4,5.232E3,3.814E3,8.09E2,3.785E3,9.73E2,5.67E2,4.25E2,5.049E3,7.47E2,9.28E2,4.92E2,1.351E3,2.31E2,1.34E2,4.2E1,1.7865E4,2.556E3,4.206E3,1.026E3,3.315E3,4.99E2,6.97E2,1.12E2,3.22E3,5.65E2,7.66E2,2.07E2,4.5E2,1.17E2,3.76E2,4.9E1,3.988E3,1.061E3,4.73E2,2.74E2,6.12E2,3.16E2,2.86E2,2.06E2,1.206E3,1.45E2,1.85E2,4.6E1,1.05E2,2.9E1,2.6E1,1.6E1,1.4552E4,3.313E3,2.136E3,4.2E2,3.489E3,7.17E2,8.17E2,2.09E2,2.884E3,4.31E2,3.96E2,1.03E2,4.48E2,2.49E2,4.6E1,6.6E1,2.954E3,2.66E2,4.19E2,1.46E2,6.35E2,1.31E2,1.45E2,6.2E1,3.13E2,1.37E2,3.1E1,8.6E1,3.03E2,7.3E1,2.4E1,2.5E1,3.027E3,9.61E2,7.98E2,2.63E2,3.9E2,8.3E1,2.58E2,1.6E1,5.8E2,3.2E1,2.25E2,9.1E1,2.73E2,1.3E1,1.72E2,3.4E1,1.07E3,1.36E2,1.32E2,1.3E1,1.28E2,5.7E1,1.5E1,3.1E1,1.1E1,9.4E1,5E0,2.4E1,1E0,2.5E1],"tree_param":{"num_deleted":"0","num_feature":"15","num_nodes":"125","size_leaf_vector":"1"}},{"base_weights":[7.857708E1,-2.0914984E4,6.4320688E4,-4.0565645E4,4.7230934E4,4.497159E4,1.5578316E5,-5.991436E4,2.9353832E4,3.1126758E4,1.4399081E5,2.6769291E4,1.2600902E5,1.3400997E5,2.5197944E5,-7.825443E4,1.2894705E4,9.603766E3,1.1077434E5,1.7805318E4,1.4328255E5,1.2516116E5,2.6890128E5,1.06358E4,1.061627E5,1.074104E5,2.1039412E5,1.1208862E5,2.196389E5,2.3476425E5,4.0811247E5,-9.871586E4,-1.0597892E4,-2.2416865E3,1.13445734E5,-6.757444E3,9.678272E4,9.5548414E4,2.4613889E5,3.955098E3,1.2026726E5,1.25885984E5,2.7273953E5,9.455422E4,1.9514089E5,2.439678E5,4.0755047E5,-1.5024631E3,1.1257377E5,8.892217E4,1.9113267E5,9.558756E4,2.3391627E5,1.6778302E5,2.7188772E5,9.099307E4,2.0323627E5,1.8525939E5,3.1598906E5,2.1783689E5,3.4282978E5,5.4748137E4,4.3211184E5,-3.5243926E4,-6.684464E3,-9.645103E3,1.6542777E4,-6.901988E3,2.1307389E4,2.7691553E4,6.607476E4,-9.717826E3,1.4699418E4,2.1177125E4,5.257771E4,2.620641E4,9.795005E4,6.218232E4,1.0659894E5,-6.575989E3,1.7335584E4,2.9785963E4,7.3107016E4,2.763826E4,6.0060824E4,6.651469E4,1.0318238E5,1.9610371E4,4.5474195E4,5.0762215E4,8.761533E4,6.1330395E4,9.51251E4,3.774164E4,1.2955989E5,-6.003962E3,2.0649018E4,2.5139855E4,5.1685625E4,1.6405918E4,4.1946527E4,5.142344E4,1.0870179E5,2.1838312E4,4.5997934E4,6.433349E4,1.26244445E5,4.3229027E4,7.874145E4,6.961481E4,1.00469664E5,1.8881914E4,4.129735E4,5.5611605E4,1.0818456E5,3.7926117E4,7.058886E4,7.925815E4,1.1197283E5,6.026099E4,9.7427E4,1.0561299E5,3.1711963E4,4.21885E4,1.343729E5],"categories":[],"categories_nodes":[],"categories_segments":[],"categories_sizes":[],"default_left":[0,0,0,0,0,0,0,0,0,0,0,0,0,0,0,0,0,0,0,0,0,0,0,0,0,0,0,0,0,0,0,0,0,0,0,0,0,0,0,0,0,0,0,0,0,0,0,0,0,0,0,0,0,0,0,0,0,0,0,0,0,0,0,0,0,0,0,0,0,0,0,0,0,0,0,0,0,0,0,0,0,0,0,0,0,0,0,0,0,0,0,0,0,0,0,0,0,0,0,0,0,0,0,0,0,0,0,0,0,0,0,0,0,0,0,0,0,0,0,0,0,0,0,0,0],"id":1,"left_children":[1,3,5,7,9,11,13,15,17,19,21,23,25,27,29,31,33,35,37,39,41,43,45,47,49,51,53,55,57,59,61,63,65,67,69,71,73,75,77,79,81,83,85,87,89,91,93,95,97,99,101,103,105,107,109,111,113,115,117,119,121,-1,123,-1,-1,-1,-1,-1,-1,-1,-1,-1,-1,-1,-1,-1,-1,-1,-1,-1,-1,-1,-1,-1,-1,-1,-1,-1,-1,-1,-1,-1,-1,-1,-1,-1,-1,-1,-1,-1,-1,-1,-1,-1,-1,-1,-1,-1,-1,-1,-1,-1,-1,-1,-1,-1,-1,-1,-1,-1,-1,-1,-1,-1,-1],"loss_changes":[6.0692875E13,4.542192E13,1.9608526E13,3.561829E13,1.1825659E13,1.3493493E13,4.0190911E12,2.7536721E13,9.176137E12,9.723887E12,2.5135856E12,9.570984E12,2.6109354E12,2.9412012E12,8.6106964E11,2.2801956E13,6.3164703E12,6.55332E12,2.2724917E12,8.258805E12,1.5218707E12,2.0013268E12,3.8800877E11,7.686587E12,1.8317417E12,2.0371609E12,7.4571475E11,2.4042474E12,1.00476335E12,5.1616992E11,1.0524243E11,1.813576E13,5.4227113E12,5.490738E12,1.2057009E12,5.5315855E12,1.479903E12,1.8695103E12,4.0163764E11,7.1438487E12,1.7703287E12,1.5144436E12,2.180152E11,1.0852615E12,6.693658E11,2.8781838E11,8.268625E10,7.2295656E12,1.1212638E12,1.8238129E12,6.536875E11,1.6483814E12,3.355396E11,3.681283E11,2.2853924E11,1.3331674E12,5.966555E11,6.7389725E11,1.475252E11,4.4634315E11,5.4545875E10,0E0,7.515511E10,0E0,0E0,0E0,0E0,0E0,0E0,0E0,0E0,0E0,0E0,0E0,0E0,0E0,0E0,0E0,0E0,0E0,0E0,0E0,0E0,0E0,0E0,0E0,0E0,0E0,0E0,0E0,0E0,0E0,0E0,0E0,0E0,0E0,0E0,0E0,0E0,0E0,0E0,0E0,0E0,0E0,0E0,0E0,0E0,0E0,0E0,0E0,0E0,0E0,0E0,0E0,0E0,0E0,0E0,0E0,0E0,0E0,0E0,0E0,0E0,0E0,0E0],"parents":[2147483647,0,0,1,1,2,2,3,3,4,4,5,5,6,6,7,7,8,8,9,9,10,10,11,11,12,12,13,13,14,14,15,15,16,16,17,17,18,18,19,19,20,20,21,21,22,22,23,23,24,24,25,25,26,26,27,27,28,28,29,29,30,30,31,31,32,32,33,33,34,34,35,35,36,36,37,37,38,38,39,39,40,40,41,41,42,42,43,43,44,44,45,45,46,46,47,47,48,48,49,49,50,50,51,51,52,52,53,53,54,54,55,55,56,56,57,57,58,58,59,59,60,60,62,62],"right_children":[2,4,6,8,10,12,14,16,18,20,22,24,26,28,30,32,34,36,38,40,42,44,46,48,50,52,54,56,58,60,62,64,66,68,70,72,74,76,78,80,82,84,86,88,90,92,94,96,98,100,102,104,106,108,110,112,114,116,118,120,122,-1,124,-1,-1,-1,-1,-1,-1,-1,-1,-1,-1,-1,-1,-1,-1,-1,-1,-1,-1,-1,-1,-1,-1,-1,-1,-1,-1,-1,-1,-1,-1,-1,-1,-1,-1,-1,-1,-1,-1,-1,-1,-1,-1,-1,-1,-1,-1,-1,-1,-1,-1,-1,-1,-1,-1,-1,-1,-1,-1,-1,-1,-1,-1],"split_conditions":[5.680081E0,5.749676E0,6.7048526E0,5.779748E0,6.84563E0,5.885474E0,7.4257884E0,5.8432646E0,6.7117105E0,6.219342E0,7.669297E0,5.9465337E0,6.8591313E0,5.8694444E0,6.428864E0,5.757349E0,6.9344454E0,6.0092382E0,7.6917014E0,6.1894913E0,7.2529416E0,5.542227E0,6.097541E0,6.2407136E0,5.961078E0,6.454947E0,5.168762E0,5.887478E0,5.6230435E0,6.030369E0,3.5227E0,5.856292E0,6.5939374E0,5.7806964E0,7.6671677E0,5.485259E0,5.7502594E0,6.8127847E0,5.54085E0,5.4514184E0,7.1492796E0,5.5812263E0,5.393492E0,5.3834467E0,5.976625E0,5.422296E0,3.7360063E0,5.81947E0,5.434186E0,5.25415E0,7.2529416E0,5.5748167E0,6.408634E0,5.8885093E0,5.4558334E0,5.2646933E0,6.370114E0,4.9534855E0,5.223095E0,6.2078996E0,6.0508738E0,5.4748137E4,3.419309E0,-3.5243926E4,-6.684464E3,-9.645103E3,1.6542777E4,-6.901988E3,2.1307389E4,2.7691553E4,6.607476E4,-9.717826E3,1.4699418E4,2.1177125E4,5.257771E4,2.620641E4,9.795005E4,6.218232E4,1.0659894E5,-6.575989E3,1.7335584E4,2.9785963E4,7.3107016E4,2.763826E4,6.0060824E4,6.651469E4,1.0318238E5,1.9610371E4,4.5474195E4,5.0762215E4,8.761533E4,6.1330395E4,9.51251E4,3.774164E4,1.2955989E5,-6.003962E3,2.0649018E4,2.5139855E4,5.1685625E4,1.6405918E4,4.1946527E4,5.142344E4,1.0870179E5,2.1838312E4,4.5997934E4,6.433349E4,1.26244445E5,4.3229027E4,7.874145E4,6.961481E4,1.00469664E5,1.8881914E4,4.129735E4,5.5611605E4,1.0818456E5,3.7926117E4,7.058886E4,7.925815E4,1.1197283E5,6.026099E4,9.7427E4,1.0561299E5,3.1711963E4,4.21885E4,1.343729E5],"split_indices":[12,10,12,9,10,8,12,4,9,7,10,7,8,1,4,7,4,7,9,2,7,13,2,4,4,4,10,10,6,10,9,8,7,11,4,2,13,2,4,8,2,11,3,3,4,9,12,2,10,11,7,3,7,7,7,9,9,5,2,2,14,0,5,0,0,0,0,0,0,0,0,0,0,0,0,0,0,0,0,0,0,0,0,0,0,0,0,0,0,0,0,0,0,0,0,0,0,0,0,0,0,0,0,0,0,0,0,0,0,0,0,0,0,0,0,0,0,0,0,0,0,0,0,0,0],"split_type":[0,0,0,0,0,0,0,0,0,0,0,0,0,0,0,0,0,0,0,0,0,0,0,0,0,0,0,0,0,0,0,0,0,0,0,0,0,0,0,0,0,0,0,0,0,0,0,0,0,0,0,0,0,0,0,0,0,0,0,0,0,0,0,0,0,0,0,0,0,0,0,0,0,0,0,0,0,0,0,0,0,0,0,0,0,0,0,0,0,0,0,0,0,0,0,0,0,0,0,0,0,0,0,0,0,0,0,0,0,0,0,0,0,0,0,0,0,0,0,0,0,0,0,0,0],"sum_hessian":[4.5E4,3.3917E4,1.1083E4,2.6326E4,7.591E3,9.149E3,1.934E3,2.062E4,5.706E3,6.509E3,1.082E3,7.472E3,1.677E3,1.579E3,3.55E2,1.6471E4,4.149E3,4.593E3,1.113E3,5.819E3,6.9E2,9.42E2,1.4E2,6.211E3,1.261E3,1.376E3,3.01E2,1.259E3,3.2E2,3.22E2,3.3E1,1.2646E4,3.825E3,3.607E3,5.42E2,3.868E3,7.25E2,1.002E3,1.11E2,5.127E3,6.92E2,6.1E2,8E1,6.57E2,2.85E2,1.21E2,1.9E1,5.551E3,6.6E2,1.05E3,2.11E2,1.26E3,1.16E2,1.8E2,1.21E2,1.024E3,2.35E2,2.38E2,8.2E1,2.81E2,4.1E1,4E0,2.9E1,1.0153E4,2.493E3,2.881E3,9.44E2,2.811E3,7.96E2,4.54E2,8.8E1,2.65E3,1.218E3,5.45E2,1.8E2,9.69E2,3.3E1,8.4E1,2.7E1,3.463E3,1.664E3,5.93E2,9.9E1,4.21E2,1.89E2,4.9E1,3.1E1,4.36E2,2.21E2,2.27E2,5.8E1,8.1E1,4E1,2E0,1.7E1,4.395E3,1.156E3,4.47E2,2.13E2,6.29E2,4.21E2,1.91E2,2E1,9.05E2,3.55E2,1.07E2,9E0,1.46E2,3.4E1,7.7E1,4.4E1,6.41E2,3.83E2,2.13E2,2.2E1,1.11E2,1.27E2,4.6E1,3.6E1,2.45E2,3.6E1,3.9E1,2E0,2E0,2.7E1],"tree_param":{"num_deleted":"0","num_feature":"15","num_nodes":"125","size_leaf_vector":"1"}},{"base_weights":[1.27305466E2,-2.125204E4,5.4696266E4,-4.1133797E4,3.376111E4,3.790017E4,1.30878766E5,-5.300926E4,4.5491867E4,1.2268721E4,9.3788125E4,2.0990912E4,1.0796515E5,1.1111492E5,2.3854022E5,-7.670411E4,-1.01072295E4,2.4409635E4,1.3123283E5,-1.0427626E4,6.4898742E4,6.989624E4,1.527144E5,-5.713725E3,6.2551344E4,8.678123E4,1.813763E5,9.627685E4,1.9394031E5,1.8380784E5,2.8754544E5,-9.079461E4,-1.8205814E3,-2.2431865E4,7.870661E4,4.9918296E3,9.448273E4,1.02630625E5,1.8942853E5,-3.2723102E4,4.510797E4,5.3624555E4,1.8268297E5,5.7146113E4,1.61187E5,1.2815098E5,2.23857E5,-3.1478484E4,3.431169E4,4.2441863E4,1.2402471E5,6.2212445E4,1.430142E5,1.3600045E5,2.1448888E5,6.971144E4,1.3965889E5,1.5121562E5,2.3311706E5,1.2321879E5,2.2202384E5,2.5382427E5,3.9631453E5,-3.4336027E4,-1.4616766E4,-7.2748643E3,1.7428822E4,-9.811483E3,2.260173E4,1.7106059E4,5.2725832E4,-3.4872825E3,2.255954E4,2.269443E4,5.6802367E4,2.5759889E4,7.07695E4,5.0302273E4,7.852329E4,-1.6227628E4,7.5434126E3,1.0366205E4,5.2898402E4,6.2254316E3,2.7195533E4,4.1187258E4,6.928017E4,1.0587187E4,3.2407484E4,4.06164E4,8.55893E4,2.942655E4,5.739259E4,5.1780824E4,8.468453E4,-1.3453577E4,1.33002705E4,7.244286E3,4.9438402E4,9.121998E3,4.0453453E4,3.2710084E4,6.863147E4,1.393922E4,4.239201E4,3.8948402E4,7.18777E4,3.580586E4,7.1501625E4,5.846317E4,8.777041E4,8.518378E3,3.1429307E4,2.9666115E4,5.1796117E4,-2.9513277E4,4.7731777E4,6.3130973E4,1.0021926E5,3.2331748E4,8.88863E4,6.1707695E4,1.1707478E5,5.7139824E4,8.626955E4,4.236022E4,1.2369545E5],"categories":[],"categories_nodes":[],"categories_segments":[],"categories_sizes":[],"default_left":[0,0,0,0,0,0,0,0,0,0,0,0,0,0,0,0,0,0,0,0,0,0,0,0,0,0,0,0,0,0,0,0,0,0,0,0,0,0,0,0,0,0,0,0,0,0,0,0,0,0,0,0,0,0,0,0,0,0,0,0,0,0,0,0,0,0,0,0,0,0,0,0,0,0,0,0,0,0,0,0,0,0,0,0,0,0,0,0,0,0,0,0,0,0,0,0,0,0,0,0,0,0,0,0,0,0,0,0,0,0,0,0,0,0,0,0,0,0,0,0,0,0,0,0,0,0,0],"id":2,"left_children":[1,3,5,7,9,11,13,15,17,19,21,23,25,27,29,31,33,35,37,39,41,43,45,47,49,51,53,55,57,59,61,63,65,67,69,71,73,75,77,79,81,83,85,87,89,91,93,95,97,99,101,103,105,107,109,111,113,115,117,119,121,123,125,-1,-1,-1,-1,-1,-1,-1,-1,-1,-1,-1,-1,-1,-1,-1,-1,-1,-1,-1,-1,-1,-1,-1,-1,-1,-1,-1,-1,-1,-1,-1,-1,-1,-1,-1,-1,-1,-1,-1,-1,-1,-1,-1,-1,-1,-1,-1,-1,-1,-1,-1,-1,-1,-1,-1,-1,-1,-1,-1,-1,-1,-1,-1,-1],"loss_changes":[5.2501512E13,3.5366963E13,1.6204614E13,2.4435541E13,1.1073273E13,1.2296592E13,4.841913E12,2.1233073E13,5.173794E12,7.552364E12,3.1753146E12,9.283195E12,3.122523E12,2.359384E12,8.9663524E11,1.4197887E13,8.1379144E12,3.1290588E12,9.210146E11,5.471811E12,2.5198933E12,1.8671054E12,1.1106874E12,5.2532116E12,4.039574E12,2.1574137E12,6.4846247E11,1.8837594E12,4.5517636E11,3.6627284E11,5.779531E11,1.1267041E13,2.8665363E12,6.5592434E12,1.8967314E12,2.1030164E12,8.77203E11,8.3095375E11,2.4715041E11,3.9002862E12,1.7471785E12,2.1160473E12,3.318701E11,1.5707543E12,5.92155E11,9.0588945E11,4.4836743E11,3.1424252E12,2.641866E12,2.7394226E12,1.240694E12,1.3548824E12,5.7508E11,3.0036512E11,3.395824E11,1.475715E12,8.210235E11,2.9727103E11,2.7542002E11,1.4985101E11,2.0270914E11,2.5306543E11,1.13255645E11,0E0,0E0,0E0,0E0,0E0,0E0,0E0,0E0,0E0,0E0,0E0,0E0,0E0,0E0,0E0,0E0,0E0,0E0,0E0,0E0,0E0,0E0,0E0,0E0,0E0,0E0,0E0,0E0,0E0,0E0,0E0,0E0,0E0,0E0,0E0,0E0,0E0,0E0,0E0,0E0,0E0,0E0,0E0,0E0,0E0,0E0,0E0,0E0,0E0,0E0,0E0,0E0,0E0,0E0,0E0,0E0,0E0,0E0,0E0,0E0,0E0,0E0,0E0,0E0],"parents":[2147483647,0,0,1,1,2,2,3,3,4,4,5,5,6,6,7,7,8,8,9,9,10,10,11,11,12,12,13,13,14,14,15,15,16,16,17,17,18,18,19,19,20,20,21,21,22,22,23,23,24,24,25,25,26,26,27,27,28,28,29,29,30,30,31,31,32,32,33,33,34,34,35,35,36,36,37,37,38,38,39,39,40,40,41,41,42,42,43,43,44,44,45,45,46,46,47,47,48,48,49,49,50,50,51,51,52,52,53,53,54,54,55,55,56,56,57,57,58,58,59,59,60,60,61,61,62,62],"right_children":[2,4,6,8,10,12,14,16,18,20,22,24,26,28,30,32,34,36,38,40,42,44,46,48,50,52,54,56,58,60,62,64,66,68,70,72,74,76,78,80,82,84,86,88,90,92,94,96,98,100,102,104,106,108,110,112,114,116,118,120,122,124,126,-1,-1,-1,-1,-1,-1,-1,-1,-1,-1,-1,-1,-1,-1,-1,-1,-1,-1,-1,-1,-1,-1,-1,-1,-1,-1,-1,-1,-1,-1,-1,-1,-1,-1,-1,-1,-1,-1,-1,-1,-1,-1,-1,-1,-1,-1,-1,-1,-1,-1,-1,-1,-1,-1,-1,-1,-1,-1,-1,-1,-1,-1,-1,-1],"split_conditions":[5.577468E0,5.6288123E0,6.6083026E0,6.1634936E0,5.6278214E0,5.8614063E0,7.3796964E0,5.3650737E0,6.980963E0,5.5370245E0,6.4548454E0,5.2866592E0,6.715954E0,5.9466133E0,4.867086E0,6.022468E0,6.715954E0,5.749095E0,7.4096375E0,5.5869827E0,6.350239E0,6.2125773E0,6.4700637E0,5.284394E0,5.7218385E0,5.487872E0,4.8830967E0,5.250166E0,4.979178E0,4.8576207E0,5.912462E0,5.359919E0,5.615737E0,6.307281E0,7.402742E0,5.908485E0,5.857994E0,6.1540766E0,5.6549296E0,5.619571E0,6.4641857E0,5.100376E0,5.0138273E0,5.507141E0,6.115962E0,5.492725E0,5.001364E0,6.013266E0,6.5065713E0,6.1820445E0,6.682749E0,5.962458E0,6.841926E0,6.008902E0,6.077272E0,4.850712E0,4.8994923E0,3.318357E0,6.8591313E0,6.533065E0,6.5619473E0,4.7306423E0,3.629269E0,-3.4336027E4,-1.4616766E4,-7.2748643E3,1.7428822E4,-9.811483E3,2.260173E4,1.7106059E4,5.2725832E4,-3.4872825E3,2.255954E4,2.269443E4,5.6802367E4,2.5759889E4,7.07695E4,5.0302273E4,7.852329E4,-1.6227628E4,7.5434126E3,1.0366205E4,5.2898402E4,6.2254316E3,2.7195533E4,4.1187258E4,6.928017E4,1.0587187E4,3.2407484E4,4.06164E4,8.55893E4,2.942655E4,5.739259E4,5.1780824E4,8.468453E4,-1.3453577E4,1.33002705E4,7.244286E3,4.9438402E4,9.121998E3,4.0453453E4,3.2710084E4,6.863147E4,1.393922E4,4.239201E4,3.8948402E4,7.18777E4,3.580586E4,7.1501625E4,5.846317E4,8.777041E4,8.518378E3,3.1429307E4,2.9666115E4,5.1796117E4,-2.9513277E4,4.7731777E4,6.3130973E4,1.0021926E5,3.2331748E4,8.88863E4,6.1707695E4,1.1707478E5,5.7139824E4,8.626955E4,4.236022E4,1.2369545E5],"split_indices":[13,11,13,6,5,2,13,2,6,0,11,11,2,8,0,4,2,1,6,8,3,3,5,0,1,7,5,6,4,6,6,9,10,8,2,2,10,10,12,3,6,4,7,8,9,0,8,10,3,6,11,8,7,8,6,0,11,3,8,2,7,12,5,0,0,0,0,0,0,0,0,0,0,0,0,0,0,0,0,0,0,0,0,0,0,0,0,0,0,0,0,0,0,0,0,0,0,0,0,0,0,0,0,0,0,0,0,0,0,0,0,0,0,0,0,0,0,0,0,0,0,0,0,0,0,0,0],"split_type":[0,0,0,0,0,0,0,0,0,0,0,0,0,0,0,0,0,0,0,0,0,0,0,0,0,0,0,0,0,0,0,0,0,0,0,0,0,0,0,0,0,0,0,0,0,0,0,0,0,0,0,0,0,0,0,0,0,0,0,0,0,0,0,0,0,0,0,0,0,0,0,0,0,0,0,0,0,0,0,0,0,0,0,0,0,0,0,0,0,0,0,0,0,0,0,0,0,0,0,0,0,0,0,0,0,0,0,0,0,0,0,0,0,0,0,0,0,0,0,0,0,0,0,0,0,0,0],"sum_hessian":[4.5E4,3.2333E4,1.2667E4,2.375E4,8.583E3,1.038E4,2.287E3,2.0887E4,2.863E3,6.321E3,2.262E3,8.363E3,2.017E3,1.934E3,3.53E2,1.3455E4,7.432E3,2.299E3,5.64E2,4.417E3,1.904E3,1.611E3,6.51E2,5.092E3,3.271E3,1.567E3,4.5E2,1.642E3,2.92E2,1.69E2,1.84E2,1.1324E4,2.131E3,6.527E3,9.05E2,1.801E3,4.98E2,3.8E2,1.84E2,3.152E3,1.265E3,1.739E3,1.65E2,1.415E3,1.96E2,4.86E2,1.65E2,3.098E3,1.994E3,2.466E3,8.05E2,1.092E3,4.75E2,1.92E2,2.58E2,1.02E3,6.22E2,1.42E2,1.5E2,6.7E1,1.02E2,1.43E2,4.1E1,7.247E3,4.077E3,1.551E3,5.8E2,5.907E3,6.2E2,7.41E2,1.64E2,1.457E3,3.44E2,4.17E2,8.1E1,3.39E2,4.1E1,1.44E2,4E1,2.302E3,8.5E2,1.172E3,9.3E1,9.22E2,8.17E2,8.7E1,7.8E1,9.91E2,4.24E2,1.64E2,3.2E1,3.31E2,1.55E2,9E1,7.5E1,2.634E3,4.64E2,1.851E3,1.43E2,2.183E3,2.83E2,7.06E2,9.9E1,9.12E2,1.8E2,4.2E2,5.5E1,1.67E2,2.5E1,2.09E2,4.9E1,4.69E2,5.51E2,2.8E2,3.42E2,4E0,1.38E2,1.25E2,2.5E1,6.3E1,4E0,9.5E1,7E0,5.2E1,9.1E1,3E0,3.8E1],"tree_param":{"num_deleted":"0","num_feature":"15","num_nodes":"127","size_leaf_vector":"1"}},{"base_weights":[1.4464693E2,-1.9389963E4,4.3081355E4,-3.025962E4,5.4241188E4,2.9830547E4,1.2230849E5,-5.27759E4,4.469107E3,3.894043E4,1.2379787E5,1.5874569E4,9.56902E4,1.0155344E5,1.725409E5,-7.46662E4,-1.3802032E4,-7.5483228E3,7.198747E4,1.8073709E4,8.810461E4,9.5462484E4,1.8737614E5,-3.839955E3,6.0900426E4,5.463872E4,1.2111212E5,8.5806234E4,1.6179588E5,1.4708505E5,2.3801119E5,-9.988926E4,-4.144119E4,-2.409405E4,7.584283E4,-1.9209273E4,6.105023E4,4.8185363E4,1.3779192E5,9.8204565E2,8.920977E4,5.543275E4,1.2405096E5,7.300741E4,1.7309411E5,1.7365611E5,3.4099438E5,-2.745351E4,3.565725E4,4.469481E4,1.358813E5,2.8691414E4,1.0319934E5,1.0857031E5,2.1883097E5,7.039354E4,1.448509E5,1.30432875E5,2.0708542E5,1.353699E5,2.9721244E5,2.1866473E5,3.5206497E5,-3.274713E4,-3.559423E3,-2.0165371E4,-2.0068131E3,-1.3958089E4,4.6426953E3,1.5736697E4,4.455337E4,-9.037705E3,1.79209E4,1.4319437E4,4.1895992E4,7.2097583E3,2.801074E4,3.2333795E4,5.5469613E4,-3.906139E3,2.4664074E4,2.1493533E4,5.3689652E4,1.2200119E4,4.3469285E4,3.1299232E4,5.7788637E4,1.0428754E4,3.580748E4,3.9340676E4,6.596574E4,4.7887156E4,1.01946305E5,1.0619738E5,1.9956703E4,-1.5561761E4,2.406846E3,6.021152E3,2.8479184E4,7.9192134E3,3.0121697E4,3.1298947E4,5.6860098E4,-1.8164069E3,2.2544654E4,2.5381592E4,5.3419707E4,2.895945E4,6.2366637E4,5.5893758E4,9.642817E4,1.7765707E4,4.58597E4,3.3807746E4,6.1604168E4,2.8727264E4,5.1383934E4,4.965195E4,8.225914E4,3.6575484E4,6.4531086E4,5.0073902E4,9.888351E4,6.2597457E4,1.08057695E5,2.167816E4,1.0858441E5],"categories":[],"categories_nodes":[],"categories_segments":[],"categories_sizes":[],"default_left":[0,0,0,0,0,0,0,0,0,0,0,0,0,0,0,0,0,0,0,0,0,0,0,0,0,0,0,0,0,0,0,0,0,0,0,0,0,0,0,0,0,0,0,0,0,0,0,0,0,0,0,0,0,0,0,0,0,0,0,0,0,0,0,0,0,0,0,0,0,0,0,0,0,0,0,0,0,0,0,0,0,0,0,0,0,0,0,0,0,0,0,0,0,0,0,0,0,0,0,0,0,0,0,0,0,0,0,0,0,0,0,0,0,0,0,0,0,0,0,0,0,0,0,0,0,0,0],"id":3,"left_children":[1,3,5,7,9,11,13,15,17,19,21,23,25,27,29,31,33,35,37,39,41,43,45,47,49,51,53,55,57,59,61,63,65,67,69,71,73,75,77,79,81,83,85,87,89,91,93,95,97,99,101,103,105,107,109,111,113,115,117,119,121,123,125,-1,-1,-1,-1,-1,-1,-1,-1,-1,-1,-1,-1,-1,-1,-1,-1,-1,-1,-1,-1,-1,-1,-1,-1,-1,-1,-1,-1,-1,-1,-1,-1,-1,-1,-1,-1,-1,-1,-1,-1,-1,-1,-1,-1,-1,-1,-1,-1,-1,-1,-1,-1,-1,-1,-1,-1,-1,-1,-1,-1,-1,-1,-1,-1],"loss_changes":[3.774551E13,2.475632E13,1.4769463E13,2.107567E13,4.2299094E12,1.1080503E13,2.0843132E12,1.3948821E13,8.602976E12,3.3459027E12,1.2737996E12,8.832485E12,2.1933085E12,1.341739E12,9.449536E11,8.770105E12,5.428717E12,7.201292E12,2.5025488E12,2.7866033E12,1.1346735E12,8.554886E11,4.0446722E11,6.4559833E12,3.675714E12,1.015133E12,1.5707081E12,1.0226966E12,3.920112E11,7.089999E11,2.826814E11,4.8535144E12,4.0485095E12,4.684921E12,1.0221118E12,6.632509E12,1.3626754E12,1.2833267E12,5.8093575E11,2.1042064E12,6.87157E11,6.691439E11,6.04697E11,6.8365215E11,1.8909233E11,4.214164E11,3.7095473E10,3.7532166E12,2.3909402E12,2.5386277E12,8.9095825E11,8.527603E11,3.761056E11,1.3609395E12,4.3054583E11,8.222173E11,4.3209772E11,2.3429802E11,2.8668015E11,3.9957614E11,7.1631634E10,1.25943415E11,3.4682438E10,0E0,0E0,0E0,0E0,0E0,0E0,0E0,0E0,0E0,0E0,0E0,0E0,0E0,0E0,0E0,0E0,0E0,0E0,0E0,0E0,0E0,0E0,0E0,0E0,0E0,0E0,0E0,0E0,0E0,0E0,0E0,0E0,0E0,0E0,0E0,0E0,0E0,0E0,0E0,0E0,0E0,0E0,0E0,0E0,0E0,0E0,0E0,0E0,0E0,0E0,0E0,0E0,0E0,0E0,0E0,0E0,0E0,0E0,0E0,0E0,0E0,0E0,0E0,0E0],"parents":[2147483647,0,0,1,1,2,2,3,3,4,4,5,5,6,6,7,7,8,8,9,9,10,10,11,11,12,12,13,13,14,14,15,15,16,16,17,17,18,18,19,19,20,20,21,21,22,22,23,23,24,24,25,25,26,26,27,27,28,28,29,29,30,30,31,31,32,32,33,33,34,34,35,35,36,36,37,37,38,38,39,39,40,40,41,41,42,42,43,43,44,44,45,45,46,46,47,47,48,48,49,49,50,50,51,51,52,52,53,53,54,54,55,55,56,56,57,57,58,58,59,59,60,60,61,61,62,62],"right_children":[2,4,6,8,10,12,14,16,18,20,22,24,26,28,30,32,34,36,38,40,42,44,46,48,50,52,54,56,58,60,62,64,66,68,70,72,74,76,78,80,82,84,86,88,90,92,94,96,98,100,102,104,106,108,110,112,114,116,118,120,122,124,126,-1,-1,-1,-1,-1,-1,-1,-1,-1,-1,-1,-1,-1,-1,-1,-1,-1,-1,-1,-1,-1,-1,-1,-1,-1,-1,-1,-1,-1,-1,-1,-1,-1,-1,-1,-1,-1,-1,-1,-1,-1,-1,-1,-1,-1,-1,-1,-1,-1,-1,-1,-1,-1,-1,-1,-1,-1,-1,-1,-1,-1,-1,-1,-1],"split_conditions":[5.487821E0,6.1366124E0,6.048233E0,5.2839627E0,6.9817905E0,6.6033998E0,5.632166E0,5.3556914E0,6.5619473E0,5.570809E0,5.5074153E0,5.4963956E0,4.710422E0,6.540814E0,6.760137E0,5.1850314E0,6.3019643E0,6.0453787E0,7.1370764E0,5.868944E0,5.0472245E0,5.6802416E0,6.538376E0,5.322293E0,6.6098437E0,5.4394445E0,6.13382E0,6.9094768E0,5.1443205E0,7.056881E0,6.349485E0,6.2833405E0,5.2027254E0,5.3720636E0,5.828211E0,6.1982594E0,7.0524673E0,5.394942E0,5.2817554E0,6.0243974E0,6.8693957E0,6.0625396E0,5.7454967E0,5.066044E0,5.2939334E0,6.707432E0,5.403621E0,5.2085557E0,5.7855043E0,5.643772E0,5.379828E0,5.2434125E0,5.887478E0,6.350239E0,5.944892E0,6.191945E0,5.4284406E0,4.954403E0,5.4854784E0,6.0938344E0,4.176475E0,6.5294514E0,2.3611617E0,-3.274713E4,-3.559423E3,-2.0165371E4,-2.0068131E3,-1.3958089E4,4.6426953E3,1.5736697E4,4.455337E4,-9.037705E3,1.79209E4,1.4319437E4,4.1895992E4,7.2097583E3,2.801074E4,3.2333795E4,5.5469613E4,-3.906139E3,2.4664074E4,2.1493533E4,5.3689652E4,1.2200119E4,4.3469285E4,3.1299232E4,5.7788637E4,1.0428754E4,3.580748E4,3.9340676E4,6.596574E4,4.7887156E4,1.01946305E5,1.0619738E5,1.9956703E4,-1.5561761E4,2.406846E3,6.021152E3,2.8479184E4,7.9192134E3,3.0121697E4,3.1298947E4,5.6860098E4,-1.8164069E3,2.2544654E4,2.5381592E4,5.3419707E4,2.895945E4,6.2366637E4,5.5893758E4,9.642817E4,1.7765707E4,4.58597E4,3.3807746E4,6.1604168E4,2.8727264E4,5.1383934E4,4.965195E4,8.225914E4,3.6575484E4,6.4531086E4,5.0073902E4,9.888351E4,6.2597457E4,1.08057695E5,2.167816E4,1.0858441E5],"split_indices":[1,9,5,7,9,1,3,6,7,12,7,4,6,1,5,0,3,10,7,4,0,4,4,0,4,0,0,5,13,1,13,8,5,10,4,5,10,4,4,8,4,10,7,12,3,6,1,7,3,7,9,3,10,3,13,0,13,7,4,6,11,7,8,0,0,0,0,0,0,0,0,0,0,0,0,0,0,0,0,0,0,0,0,0,0,0,0,0,0,0,0,0,0,0,0,0,0,0,0,0,0,0,0,0,0,0,0,0,0,0,0,0,0,0,0,0,0,0,0,0,0,0,0,0,0,0,0],"split_type":[0,0,0,0,0,0,0,0,0,0,0,0,0,0,0,0,0,0,0,0,0,0,0,0,0,0,0,0,0,0,0,0,0,0,0,0,0,0,0,0,0,0,0,0,0,0,0,0,0,0,0,0,0,0,0,0,0,0,0,0,0,0,0,0,0,0,0,0,0,0,0,0,0,0,0,0,0,0,0,0,0,0,0,0,0,0,0,0,0,0,0,0,0,0,0,0,0,0,0,0,0,0,0,0,0,0,0,0,0,0,0,0,0,0,0,0,0,0,0,0,0,0,0,0,0,0,0],"sum_hessian":[4.5E4,3.0929E4,1.4071E4,2.6951E4,3.978E3,1.2056E4,2.015E3,1.635E4,1.0601E4,3.262E3,7.16E2,9.949E3,2.107E3,1.428E3,5.87E2,1.0469E4,5.881E3,9E3,1.601E3,2.291E3,9.71E2,4.97E2,2.19E2,6.92E3,3.029E3,8.07E2,1.3E3,1.134E3,2.94E2,4.25E2,1.62E2,5.95E3,4.519E3,5.276E3,6.05E2,7.693E3,1.307E3,1.177E3,4.24E2,1.848E3,4.43E2,5.1E2,4.61E2,3.87E2,1.1E2,2.03E2,1.6E1,4.331E3,2.589E3,2.492E3,5.37E2,5.27E2,2.8E2,1.154E3,1.46E2,9.01E2,2.33E2,1.76E2,1.18E2,3.96E2,2.9E1,1.41E2,2.1E1,5.383E3,5.67E2,2.594E3,1.925E3,3.367E3,1.909E3,4.59E2,1.46E2,6.759E3,9.34E2,1.119E3,1.88E2,7.68E2,4.09E2,2.61E2,1.63E2,1.577E3,2.71E2,3.72E2,7.1E1,4.39E2,7.1E1,3.6E2,1.01E2,2.13E2,1.74E2,6E1,5E1,1.89E2,1.4E1,1.5E1,1E0,2.565E3,1.766E3,2.051E3,5.38E2,1.877E3,6.15E2,3.4E2,1.97E2,3.02E2,2.25E2,2.26E2,5.4E1,1.031E3,1.23E2,1.13E2,3.3E1,7.95E2,1.06E2,1.54E2,7.9E1,9.7E1,7.9E1,7.5E1,4.3E1,3.41E2,5.5E1,7E0,2.2E1,1.34E2,7E0,1E0,2E1],"tree_param":{"num_deleted":"0","num_feature":"15","num_nodes":"127","size_leaf_vector":"1"}},{"base_weights":[1.5150652E2,-2.2120824E4,3.065399E4,-3.3384516E4,4.4811918E4,2.1581844E4,1.0292114E5,-5.101938E4,6.905622E3,2.0176762E4,8.66665E4,1.0176157E4,7.876517E4,8.971428E4,1.832794E5,-6.0495992E4,2.7734361E4,-9.414188E3,5.2569797E4,-1.2163014E3,6.4268582E4,6.8714164E4,1.5045469E5,3.9843005E3,1.20604695E5,6.888978E4,1.6656278E5,7.71321E4,1.5697484E5,1.6570964E5,2.9246166E5,-7.718503E4,-1.9246352E4,6.1363286E3,9.507937E4,-1.7423344E4,8.930507E4,3.240478E4,1.01430016E5,-2.6620104E4,3.4899934E4,4.6893938E4,1.2064508E5,5.592408E4,1.4625952E5,1.3520916E5,2.7581647E5,-1.4733031E4,3.893696E4,1.0724832E5,2.590939E5,6.1928754E4,1.8698377E5,1.3227003E5,2.0885064E5,5.5555758E4,1.1360085E5,1.1490355E5,1.9653017E5,1.5768648E5,1.11316305E5,2.1614625E5,3.5796978E5,-2.8715654E4,-1.1174446E4,-1.0043002E4,9.949775E3,-1.7596989E3,2.576826E4,2.4096148E4,5.5608297E4,-1.1562501E4,5.003051E3,1.9178584E4,4.9027773E4,3.4184727E3,2.1409053E4,2.6651363E4,6.2605082E4,-9.810523E3,4.5476145E4,7.0840073E3,3.665068E4,9.268975E3,3.569012E4,3.068858E4,6.2878793E4,9.4476045E3,2.6563111E4,2.8810424E4,5.3288992E4,3.6183047E4,6.931091E4,3.4883414E4,8.833647E4,-7.4060996E3,1.6266562E4,8.140463E3,3.0792184E4,3.060469E4,8.0203516E4,5.1131387E4,8.402667E4,1.5973554E4,4.116513E4,4.3784242E4,7.325337E4,2.9266271E4,4.91038E4,5.1424902E4,7.359477E4,1.4280024E4,5.127458E4,2.8344506E4,5.2897797E4,8.807105E3,4.192464E4,4.3540895E4,7.220986E4,3.724429E4,5.6992164E4,1.709911E4,6.6376164E4,1.756128E4,1.1119454E5],"categories":[],"categories_nodes":[],"categories_segments":[],"categories_sizes":[],"default_left":[0,0,0,0,0,0,0,0,0,0,0,0,0,0,0,0,0,0,0,0,0,0,0,0,0,0,0,0,0,0,0,0,0,0,0,0,0,0,0,0,0,0,0,0,0,0,0,0,0,0,0,0,0,0,0,0,0,0,0,0,0,0,0,0,0,0,0,0,0,0,0,0,0,0,0,0,0,0,0,0,0,0,0,0,0,0,0,0,0,0,0,0,0,0,0,0,0,0,0,0,0,0,0,0,0,0,0,0,0,0,0,0,0,0,0,0,0,0,0,0,0,0,0,0,0],"id":4,"left_children":[1,3,5,7,9,11,13,15,17,19,21,23,25,27,29,31,33,35,37,39,41,43,45,47,49,51,53,55,57,59,61,63,65,67,69,71,73,75,77,79,81,83,85,87,89,91,93,95,97,99,101,103,105,107,109,111,113,115,117,119,-1,121,123,-1,-1,-1,-1,-1,-1,-1,-1,-1,-1,-1,-1,-1,-1,-1,-1,-1,-1,-1,-1,-1,-1,-1,-1,-1,-1,-1,-1,-1,-1,-1,-1,-1,-1,-1,-1,-1,-1,-1,-1,-1,-1,-1,-1,-1,-1,-1,-1,-1,-1,-1,-1,-1,-1,-1,-1,-1,-1,-1,-1,-1,-1],"loss_changes":[3.057262E13,1.961069E13,1.2449279E13,1.5819172E13,3.8617602E12,1.1005328E13,2.2313488E12,1.1559166E13,5.0524135E12,2.2261696E12,1.5791261E12,9.61999E12,2.4214283E12,1.528978E12,5.231912E11,9.514498E12,2.4197372E12,3.9508918E12,1.7554153E12,1.4597376E12,7.495533E11,1.06793586E12,5.4371444E11,8.7174084E12,1.3539486E12,2.0632861E12,3.827727E11,1.2023088E12,4.5336284E11,3.681954E11,1.2259741E11,7.280578E12,2.971805E12,1.2076002E12,5.2342397E11,3.3284038E12,6.948989E11,1.03461224E12,6.8509866E11,1.01721945E12,6.442392E11,6.777352E11,2.7399343E11,7.407796E11,2.240044E11,3.540564E11,6.0914926E10,5.957699E12,3.4909952E12,5.4490143E11,7.324906E10,1.5519418E12,2.929475E11,1.5740568E11,1.2858006E11,8.7934134E11,6.669148E11,2.955823E11,2.9649063E11,2.4821891E11,0E0,4.4594627E9,5.423104E10,0E0,0E0,0E0,0E0,0E0,0E0,0E0,0E0,0E0,0E0,0E0,0E0,0E0,0E0,0E0,0E0,0E0,0E0,0E0,0E0,0E0,0E0,0E0,0E0,0E0,0E0,0E0,0E0,0E0,0E0,0E0,0E0,0E0,0E0,0E0,0E0,0E0,0E0,0E0,0E0,0E0,0E0,0E0,0E0,0E0,0E0,0E0,0E0,0E0,0E0,0E0,0E0,0E0,0E0,0E0,0E0,0E0,0E0,0E0,0E0,0E0,0E0],"parents":[2147483647,0,0,1,1,2,2,3,3,4,4,5,5,6,6,7,7,8,8,9,9,10,10,11,11,12,12,13,13,14,14,15,15,16,16,17,17,18,18,19,19,20,20,21,21,22,22,23,23,24,24,25,25,26,26,27,27,28,28,29,29,30,30,31,31,32,32,33,33,34,34,35,35,36,36,37,37,38,38,39,39,40,40,41,41,42,42,43,43,44,44,45,45,46,46,47,47,48,48,49,49,50,50,51,51,52,52,53,53,54,54,55,55,56,56,57,57,58,58,59,59,61,61,62,62],"right_children":[2,4,6,8,10,12,14,16,18,20,22,24,26,28,30,32,34,36,38,40,42,44,46,48,50,52,54,56,58,60,62,64,66,68,70,72,74,76,78,80,82,84,86,88,90,92,94,96,98,100,102,104,106,108,110,112,114,116,118,120,-1,122,124,-1,-1,-1,-1,-1,-1,-1,-1,-1,-1,-1,-1,-1,-1,-1,-1,-1,-1,-1,-1,-1,-1,-1,-1,-1,-1,-1,-1,-1,-1,-1,-1,-1,-1,-1,-1,-1,-1,-1,-1,-1,-1,-1,-1,-1,-1,-1,-1,-1,-1,-1,-1,-1,-1,-1,-1,-1,-1,-1,-1,-1,-1],"split_conditions":[5.203571E0,6.0792785E0,6.2311654E0,5.5036745E0,5.33656E0,5.9697814E0,7.1513305E0,6.2236886E0,6.3718953E0,5.451249E0,6.8634744E0,6.6319876E0,7.153837E0,6.030232E0,6.1858473E0,5.560844E0,6.920034E0,6.4548454E0,5.576186E0,5.2715755E0,5.7104435E0,6.022468E0,6.3564754E0,5.3650737E0,7.701555E0,6.5495048E0,5.138974E0,5.4123363E0,5.067841E0,6.9094768E0,5.8661146E0,5.4963956E0,6.540042E0,6.1043167E0,7.701555E0,5.291142E0,7.0730405E0,5.359919E0,6.3772187E0,7.6440725E0,6.239113E0,6.0320926E0,5.90423E0,5.1836333E0,4.661927E0,7.6440725E0,3.495611E0,6.5993624E0,6.01407E0,6.9252667E0,3.9972582E0,6.337838E0,6.9734607E0,4.872274E0,5.0913982E0,6.588167E0,5.746452E0,4.2762175E0,5.060164E0,4.9600887E0,1.11316305E5,3.0187805E0,3.3526287E0,-2.8715654E4,-1.1174446E4,-1.0043002E4,9.949775E3,-1.7596989E3,2.576826E4,2.4096148E4,5.5608297E4,-1.1562501E4,5.003051E3,1.9178584E4,4.9027773E4,3.4184727E3,2.1409053E4,2.6651363E4,6.2605082E4,-9.810523E3,4.5476145E4,7.0840073E3,3.665068E4,9.268975E3,3.569012E4,3.068858E4,6.2878793E4,9.4476045E3,2.6563111E4,2.8810424E4,5.3288992E4,3.6183047E4,6.931091E4,3.4883414E4,8.833647E4,-7.4060996E3,1.6266562E4,8.140463E3,3.0792184E4,3.060469E4,8.0203516E4,5.1131387E4,8.402667E4,1.5973554E4,4.116513E4,4.3784242E4,7.325337E4,2.9266271E4,4.91038E4,5.1424902E4,7.359477E4,1.4280024E4,5.127458E4,2.8344506E4,5.2897797E4,8.807105E3,4.192464E4,4.3540895E4,7.220986E4,3.724429E4,5.6992164E4,1.709911E4,6.6376164E4,1.756128E4,1.1119454E5],"split_indices":[3,2,0,12,11,12,0,8,12,4,2,8,12,11,8,0,8,11,8,6,8,4,6,2,8,10,10,7,5,5,3,4,0,13,8,10,11,9,10,2,12,5,7,9,7,2,10,3,11,2,5,5,10,5,4,12,5,2,4,11,0,4,13,0,0,0,0,0,0,0,0,0,0,0,0,0,0,0,0,0,0,0,0,0,0,0,0,0,0,0,0,0,0,0,0,0,0,0,0,0,0,0,0,0,0,0,0,0,0,0,0,0,0,0,0,0,0,0,0,0,0,0,0,0,0],"split_type":[0,0,0,0,0,0,0,0,0,0,0,0,0,0,0,0,0,0,0,0,0,0,0,0,0,0,0,0,0,0,0,0,0,0,0,0,0,0,0,0,0,0,0,0,0,0,0,0,0,0,0,0,0,0,0,0,0,0,0,0,0,0,0,0,0,0,0,0,0,0,0,0,0,0,0,0,0,0,0,0,0,0,0,0,0,0,0,0,0,0,0,0,0,0,0,0,0,0,0,0,0,0,0,0,0,0,0,0,0,0,0,0,0,0,0,0,0,0,0,0,0,0,0,0,0],"sum_hessian":[4.5E4,2.6009E4,1.8991E4,2.2263E4,3.746E3,1.6874E4,2.117E3,1.5485E4,6.778E3,2.359E3,1.387E3,1.4069E4,2.805E3,1.82E3,2.97E2,1.3822E4,1.663E3,4.994E3,1.784E3,1.589E3,7.7E2,1.084E3,3.03E2,1.3323E4,7.46E2,2.523E3,2.82E2,1.535E3,2.85E2,2.58E2,3.9E1,9.84E3,3.982E3,1.26E3,4.03E2,4.62E3,3.74E2,1.264E3,5.2E2,9.33E2,6.56E2,5.9E2,1.8E2,9.32E2,1.52E2,2.72E2,3.1E1,8.677E3,4.646E3,6.82E2,6.4E1,2.384E3,1.39E2,1.58E2,1.24E2,9.66E2,5.69E2,1.4E2,1.45E2,2.5E2,8E0,2E1,1.9E1,6.72E3,3.12E3,3.132E3,8.5E2,1.096E3,1.64E2,3.48E2,5.5E1,2.853E3,1.767E3,2.8E2,9.4E1,8.22E2,4.42E2,4.67E2,5.3E1,9.03E2,3E1,5.82E2,7.4E1,4.84E2,1.06E2,1.51E2,2.9E1,5.34E2,3.98E2,6E1,9.2E1,2.38E2,3.4E1,4E0,2.7E1,7.583E3,1.094E3,3.921E3,7.25E2,6.62E2,2E1,1.4E1,5E1,2.139E3,2.45E2,8.3E1,5.6E1,7.7E1,8.1E1,6.4E1,6E1,9.05E2,6.1E1,4.38E2,1.31E2,3.2E1,1.08E2,6.9E1,7.6E1,1.25E2,1.25E2,1E0,1.9E1,1E0,1.8E1],"tree_param":{"num_deleted":"0","num_feature":"15","num_nodes":"125","size_leaf_vector":"1"}},{"base_weights":[1.5508855E2,-1.0641925E4,5.3620348E4,-3.2649246E4,1.5648555E4,4.4935234E4,1.3788595E5,-5.431541E4,-5.1632227E3,-5.329088E2,5.187265E4,3.7228074E4,1.1999146E5,1.1582502E5,2.0218922E5,-7.647762E4,-2.6006357E4,-1.7068127E4,4.409976E4,-1.0852355E4,5.2974812E4,4.0639625E4,1.14466016E5,2.0725299E4,7.114792E4,9.742826E4,1.8792127E5,9.650742E4,1.6045164E5,1.916341E5,1.0842221E5,-8.831425E4,-2.5970127E4,-3.790101E4,4.54312E4,-4.3853945E4,2.9348616E3,3.6721156E4,1.5161812E5,-2.276834E4,3.2899125E4,3.7261582E4,1.1134047E5,2.2679537E4,8.002263E4,9.541954E4,1.7438208E5,-1.4926545E3,4.7471867E4,6.0447523E4,1.4117194E5,9.134324E4,2.2636934E5,1.6481478E5,2.988921E5,8.8610164E4,2.2390892E5,1.3337925E5,2.0361753E5,1.750568E5,2.5279458E5,-2.903756E4,-5.257089E3,-1.3642552E4,1.1707025E4,-1.7218693E4,-1.6654353E3,8.969051E3,3.6208004E4,-1.9986674E4,-5.2146606E3,-3.8022695E3,1.202891E4,7.1343857E3,2.8376922E4,1.830561E4,5.2303754E4,-1.3565505E4,3.078404E2,3.8425251E3,1.9948293E4,5.2379663E3,2.2475973E4,2.7580002E4,5.179421E4,5.707058E2,1.5450345E4,2.1145295E4,4.9387043E4,2.4193594E4,4.94718E4,4.872847E4,9.7944914E4,-7.385744E3,8.071386E3,9.315304E3,2.8195398E4,1.43831045E4,3.4126105E4,3.804435E4,7.419279E4,2.2951803E4,4.156683E4,2.7265018E4,7.5870695E4,3.1540906E4,5.7647887E4,4.7005754E4,9.758685E4,1.7969021E4,3.652183E4,6.93076E3,6.9838234E4,2.7566244E4,4.9696914E4,4.9935496E4,8.569437E4,3.904379E4,5.889864E4,4.5617965E4,8.830823E4],"categories":[],"categories_nodes":[],"categories_segments":[],"categories_sizes":[],"default_left":[0,0,0,0,0,0,0,0,0,0,0,0,0,0,0,0,0,0,0,0,0,0,0,0,0,0,0,0,0,0,0,0,0,0,0,0,0,0,0,0,0,0,0,0,0,0,0,0,0,0,0,0,0,0,0,0,0,0,0,0,0,0,0,0,0,0,0,0,0,0,0,0,0,0,0,0,0,0,0,0,0,0,0,0,0,0,0,0,0,0,0,0,0,0,0,0,0,0,0,0,0,0,0,0,0,0,0,0,0,0,0,0,0,0,0,0,0,0,0,0,0],"id":5,"left_children":[1,3,5,7,9,11,13,15,17,19,21,23,25,27,29,31,33,35,37,39,41,43,45,47,49,51,53,55,57,59,-1,61,63,65,67,69,71,73,75,77,79,81,83,85,87,89,91,93,95,97,99,101,103,105,107,109,111,113,115,117,119,-1,-1,-1,-1,-1,-1,-1,-1,-1,-1,-1,-1,-1,-1,-1,-1,-1,-1,-1,-1,-1,-1,-1,-1,-1,-1,-1,-1,-1,-1,-1,-1,-1,-1,-1,-1,-1,-1,-1,-1,-1,-1,-1,-1,-1,-1,-1,-1,-1,-1,-1,-1,-1,-1,-1,-1,-1,-1,-1,-1],"loss_changes":[2.5978076E13,2.1663238E13,5.527371E12,1.2136946E13,1.0000483E13,3.9615233E12,9.781054E11,7.1483817E12,5.270196E12,6.512869E12,3.6993478E12,3.479746E12,9.595624E11,4.3969308E11,2.3156333E11,3.8190941E12,4.2554446E12,3.877687E12,1.3819765E12,5.155779E12,1.7447854E12,3.1585007E12,8.974531E11,2.487024E12,1.5162619E12,3.5671926E11,3.5587306E11,3.5343093E11,1.5748117E11,1.28105054E11,0E0,3.1058066E12,1.5420325E12,2.7064003E12,8.323334E11,1.8636467E12,2.4042663E12,1.224304E12,2.1998286E11,4.1517415E12,1.4280192E12,1.1202226E12,4.6480386E11,1.8383161E12,1.1173185E12,6.12932E11,2.9606334E11,1.5026022E12,1.4474991E12,1.172308E12,3.7855586E11,3.1233383E11,5.2507116E10,1.9683947E11,4.6632534E10,3.2659866E11,3.2090096E10,1.1870182E11,1.3232872E11,1.0533077E11,9.7602896E10,0E0,0E0,0E0,0E0,0E0,0E0,0E0,0E0,0E0,0E0,0E0,0E0,0E0,0E0,0E0,0E0,0E0,0E0,0E0,0E0,0E0,0E0,0E0,0E0,0E0,0E0,0E0,0E0,0E0,0E0,0E0,0E0,0E0,0E0,0E0,0E0,0E0,0E0,0E0,0E0,0E0,0E0,0E0,0E0,0E0,0E0,0E0,0E0,0E0,0E0,0E0,0E0,0E0,0E0,0E0,0E0,0E0,0E0,0E0,0E0],"parents":[2147483647,0,0,1,1,2,2,3,3,4,4,5,5,6,6,7,7,8,8,9,9,10,10,11,11,12,12,13,13,14,14,15,15,16,16,17,17,18,18,19,19,20,20,21,21,22,22,23,23,24,24,25,25,26,26,27,27,28,28,29,29,31,31,32,32,33,33,34,34,35,35,36,36,37,37,38,38,39,39,40,40,41,41,42,42,43,43,44,44,45,45,46,46,47,47,48,48,49,49,50,50,51,51,52,52,53,53,54,54,55,55,56,56,57,57,58,58,59,59,60,60],"right_children":[2,4,6,8,10,12,14,16,18,20,22,24,26,28,30,32,34,36,38,40,42,44,46,48,50,52,54,56,58,60,-1,62,64,66,68,70,72,74,76,78,80,82,84,86,88,90,92,94,96,98,100,102,104,106,108,110,112,114,116,118,120,-1,-1,-1,-1,-1,-1,-1,-1,-1,-1,-1,-1,-1,-1,-1,-1,-1,-1,-1,-1,-1,-1,-1,-1,-1,-1,-1,-1,-1,-1,-1,-1,-1,-1,-1,-1,-1,-1,-1,-1,-1,-1,-1,-1,-1,-1,-1,-1,-1,-1,-1,-1,-1,-1,-1,-1,-1,-1,-1,-1],"split_conditions":[5.961544E0,5.107281E0,7.113594E0,5.152222E0,5.508245E0,6.310059E0,7.6496663E0,5.164895E0,5.868944E0,6.4426656E0,6.041691E0,5.471118E0,6.980963E0,5.5867686E0,6.7667665E0,5.857994E0,6.1107917E0,4.8356442E0,7.2632284E0,5.7874155E0,7.139133E0,5.4887004E0,6.7931547E0,5.100376E0,6.760137E0,6.8127847E0,7.6413727E0,6.6408906E0,5.5515933E0,6.005517E0,1.0842221E5,6.2411866E0,5.7656255E0,5.311374E0,6.484463E0,5.1141763E0,5.507173E0,5.975601E0,4.022849E0,5.016627E0,5.3044105E0,5.3556914E0,7.677673E0,5.180097E0,6.403E0,5.9976144E0,7.139133E0,5.128438E0,5.672078E0,5.9071546E0,7.677673E0,5.7768755E0,3.8145728E0,4.391984E0,4.436533E0,5.102849E0,3.7691584E0,4.73568E0,6.438851E0,4.7555394E0,4.495066E0,-2.903756E4,-5.257089E3,-1.3642552E4,1.1707025E4,-1.7218693E4,-1.6654353E3,8.969051E3,3.6208004E4,-1.9986674E4,-5.2146606E3,-3.8022695E3,1.202891E4,7.1343857E3,2.8376922E4,1.830561E4,5.2303754E4,-1.3565505E4,3.078404E2,3.8425251E3,1.9948293E4,5.2379663E3,2.2475973E4,2.7580002E4,5.179421E4,5.707058E2,1.5450345E4,2.1145295E4,4.9387043E4,2.4193594E4,4.94718E4,4.872847E4,9.7944914E4,-7.385744E3,8.071386E3,9.315304E3,2.8195398E4,1.43831045E4,3.4126105E4,3.804435E4,7.419279E4,2.2951803E4,4.156683E4,2.7265018E4,7.5870695E4,3.1540906E4,5.7647887E4,4.7005754E4,9.758685E4,1.7969021E4,3.652183E4,6.93076E3,6.9838234E4,2.7566244E4,4.9696914E4,4.9935496E4,8.569437E4,3.904379E4,5.889864E4,4.5617965E4,8.830823E4],"split_indices":[13,5,13,8,9,6,13,11,4,5,6,5,6,6,2,10,6,1,4,1,5,10,6,4,5,2,6,1,7,4,0,7,9,10,11,0,6,6,0,12,7,6,5,8,4,10,5,7,8,11,5,10,0,8,2,9,11,1,6,11,6,0,0,0,0,0,0,0,0,0,0,0,0,0,0,0,0,0,0,0,0,0,0,0,0,0,0,0,0,0,0,0,0,0,0,0,0,0,0,0,0,0,0,0,0,0,0,0,0,0,0,0,0,0,0,0,0,0,0,0,0],"split_type":[0,0,0,0,0,0,0,0,0,0,0,0,0,0,0,0,0,0,0,0,0,0,0,0,0,0,0,0,0,0,0,0,0,0,0,0,0,0,0,0,0,0,0,0,0,0,0,0,0,0,0,0,0,0,0,0,0,0,0,0,0,0,0,0,0,0,0,0,0,0,0,0,0,0,0,0,0,0,0,0,0,0,0,0,0,0,0,0,0,0,0,0,0,0,0,0,0,0,0,0,0,0,0,0,0,0,0,0,0,0,0,0,0,0,0,0,0,0,0,0,0],"sum_hessian":[4.5E4,3.744E4,7.56E3,2.038E4,1.706E4,6.855E3,7.05E2,1.1396E4,8.984E3,1.1793E4,5.267E3,6.218E3,6.37E2,5.27E2,1.78E2,6.391E3,5.005E3,7.236E3,1.748E3,9.887E3,1.906E3,4.467E3,8E2,4.184E3,2.034E3,4.8E2,1.57E2,3.7E2,1.57E2,1.69E2,9E0,5.177E3,1.214E3,4.291E3,7.14E2,3.093E3,4.143E3,1.637E3,1.11E2,7.771E3,2.116E3,1.503E3,4.03E2,3.069E3,1.398E3,6.09E2,1.91E2,2.286E3,1.898E3,1.766E3,2.68E2,4.6E2,2E1,1.32E2,2.5E1,3.5E2,2E1,9.9E1,5.8E1,1.36E2,3.3E1,4.623E3,5.54E2,9.34E2,2.8E2,2.677E3,1.614E3,5.93E2,1.21E2,1.662E3,1.431E3,2.918E3,1.225E3,1.339E3,2.98E2,2.3E1,8.8E1,3.998E3,3.773E3,1.325E3,7.91E2,9.86E2,5.17E2,3.08E2,9.5E1,1.784E3,1.285E3,1.258E3,1.4E2,5.04E2,1.05E2,1.79E2,1.2E1,1.26E3,1.026E3,1.404E3,4.94E2,1.432E3,3.34E2,2.38E2,3E1,3.52E2,1.08E2,4E0,1.6E1,4.3E1,8.9E1,5E0,2E1,1.89E2,1.61E2,1E0,1.9E1,4.5E1,5.4E1,4.2E1,1.6E1,4.6E1,9E1,1.1E1,2.2E1],"tree_param":{"num_deleted":"0","num_feature":"15","num_nodes":"121","size_leaf_vector":"1"}},{"base_weights":[1.4830743E2,-6.2306235E3,7.150144E4,-2.2809705E4,2.013268E4,5.9003574E4,1.4630586E5,-3.5751953E4,1.0069386E4,1.057995E4,7.363703E4,5.305029E4,1.6232384E5,1.3720242E5,2.457934E5,-5.615561E4,-1.4685825E4,1.3117826E3,7.905423E4,-3.798194E3,4.252354E4,6.2030895E4,1.5057014E5,3.2503469E4,8.003455E4,1.19736805E5,2.145425E5,1.16452805E5,1.7760533E5,4.863514E4,2.6623722E5,-7.386801E4,-3.0383195E4,-3.5145656E4,8.00314E3,-1.0954783E4,4.721209E4,6.4695465E4,1.7549189E5,-2.3177012E4,2.0540982E4,3.1275445E4,9.276238E4,5.025226E4,1.2021445E5,1.28648516E5,2.1694183E5,7.074167E3,5.780523E4,6.879838E4,1.370569E5,7.160028E4,1.6542972E5,1.7088297E5,2.458173E5,1.02005586E5,1.954524E5,1.2636379E5,2.2201505E5,1.4209191E4,2.7159688E5,-2.7851232E4,-1.4378775E4,-1.5095905E4,-3.023869E2,-1.2917638E4,6.614302E3,-6.249555E3,7.4001147E3,-5.603979E3,1.5098939E4,1.1095522E4,3.2030387E4,1.6065121E4,4.3248516E4,4.7594668E4,1.0069544E5,-1.1187603E4,3.1937688E3,3.7549766E3,2.526195E4,8.23928E2,1.529452E4,2.4961082E4,5.3238777E4,1.0533385E4,2.5879496E4,1.7834975E4,4.1869168E4,2.935095E4,4.8896617E4,5.1757555E4,7.5520164E4,-3.2849602E3,1.2201281E4,1.4972319E4,4.8405617E4,1.8083193E4,3.8919652E4,3.298578E4,5.059878E4,1.1170846E4,3.0930121E4,4.044957E4,6.6033234E4,5.5413766E4,1.5288894E4,1.3669899E4,7.801586E4,1.8724303E4,3.835943E4,4.834044E4,7.8749E4,3.1388043E4,5.525091E4,3.9576887E4,7.175716E4,3.0356545E4,8.387535E4],"categories":[],"categories_nodes":[],"categories_segments":[],"categories_sizes":[],"default_left":[0,0,0,0,0,0,0,0,0,0,0,0,0,0,0,0,0,0,0,0,0,0,0,0,0,0,0,0,0,0,0,0,0,0,0,0,0,0,0,0,0,0,0,0,0,0,0,0,0,0,0,0,0,0,0,0,0,0,0,0,0,0,0,0,0,0,0,0,0,0,0,0,0,0,0,0,0,0,0,0,0,0,0,0,0,0,0,0,0,0,0,0,0,0,0,0,0,0,0,0,0,0,0,0,0,0,0,0,0,0,0,0,0,0,0,0,0,0,0],"id":6,"left_children":[1,3,5,7,9,11,13,15,17,19,21,23,25,27,29,31,33,35,37,39,41,43,45,47,49,51,53,55,57,-1,59,61,63,65,67,69,71,73,75,77,79,81,83,85,87,89,91,93,95,97,99,101,103,105,107,109,111,113,115,-1,117,-1,-1,-1,-1,-1,-1,-1,-1,-1,-1,-1,-1,-1,-1,-1,-1,-1,-1,-1,-1,-1,-1,-1,-1,-1,-1,-1,-1,-1,-1,-1,-1,-1,-1,-1,-1,-1,-1,-1,-1,-1,-1,-1,-1,-1,-1,-1,-1,-1,-1,-1,-1,-1,-1,-1,-1,-1,-1],"loss_changes":[2.0482953E13,1.8055772E13,3.4439367E12,1.0792207E13,8.1509566E12,1.9387793E12,4.4447354E11,7.82115E12,4.327969E12,6.216186E12,2.1478978E12,1.6579481E12,3.5681154E11,3.8675258E11,3.0396645E10,4.2175593E12,4.157304E12,3.58032E12,1.1061198E12,4.402992E12,2.371048E12,1.4338228E12,4.3186232E11,1.09466826E12,8.196535E11,2.0150655E11,6.176768E10,3.498524E11,3.428723E11,0E0,2.5847923E10,2.6909627E12,2.2060519E12,2.1321414E12,2.0412127E12,2.376624E12,8.12826E11,6.15782E11,2.2729641E11,2.481498E12,2.1129555E12,1.9304583E12,6.070306E11,9.506448E11,4.067463E11,2.3799556E11,7.556117E10,5.1516224E11,6.8949744E11,5.544959E11,1.6306484E11,4.9202135E10,5.2304937E10,4.8631906E10,1.0787907E11,2.7458745E11,7.044189E10,7.873993E10,1.0151946E11,0E0,1.5266218E10,0E0,0E0,0E0,0E0,0E0,0E0,0E0,0E0,0E0,0E0,0E0,0E0,0E0,0E0,0E0,0E0,0E0,0E0,0E0,0E0,0E0,0E0,0E0,0E0,0E0,0E0,0E0,0E0,0E0,0E0,0E0,0E0,0E0,0E0,0E0,0E0,0E0,0E0,0E0,0E0,0E0,0E0,0E0,0E0,0E0,0E0,0E0,0E0,0E0,0E0,0E0,0E0,0E0,0E0,0E0,0E0,0E0,0E0],"parents":[2147483647,0,0,1,1,2,2,3,3,4,4,5,5,6,6,7,7,8,8,9,9,10,10,11,11,12,12,13,13,14,14,15,15,16,16,17,17,18,18,19,19,20,20,21,21,22,22,23,23,24,24,25,25,26,26,27,27,28,28,30,30,31,31,32,32,33,33,34,34,35,35,36,36,37,37,38,38,39,39,40,40,41,41,42,42,43,43,44,44,45,45,46,46,47,47,48,48,49,49,50,50,51,51,52,52,53,53,54,54,55,55,56,56,57,57,58,58,60,60],"right_children":[2,4,6,8,10,12,14,16,18,20,22,24,26,28,30,32,34,36,38,40,42,44,46,48,50,52,54,56,58,-1,60,62,64,66,68,70,72,74,76,78,80,82,84,86,88,90,92,94,96,98,100,102,104,106,108,110,112,114,116,-1,118,-1,-1,-1,-1,-1,-1,-1,-1,-1,-1,-1,-1,-1,-1,-1,-1,-1,-1,-1,-1,-1,-1,-1,-1,-1,-1,-1,-1,-1,-1,-1,-1,-1,-1,-1,-1,-1,-1,-1,-1,-1,-1,-1,-1,-1,-1,-1,-1,-1,-1,-1,-1,-1,-1,-1,-1,-1,-1],"split_conditions":[6.39772E0,5.292805E0,7.2686462E0,5.576186E0,6.572193E0,6.6224504E0,6.460133E0,5.02365E0,6.8591313E0,5.4970565E0,7.4132953E0,5.2087045E0,7.051299E0,7.654153E0,4.421667E0,5.2469187E0,5.083371E0,5.822518E0,7.701555E0,5.123462E0,5.922975E0,5.9598308E0,5.749676E0,5.024799E0,6.013266E0,5.118649E0,5.024799E0,6.12105E0,4.9159393E0,4.863514E4,3.137438E0,5.198671E0,5.2194686E0,6.5740542E0,4.6700163E0,6.2078996E0,6.841926E0,6.1894913E0,6.665597E0,5.495705E0,6.214369E0,4.7274175E0,6.7928605E0,5.5491405E0,4.357715E0,5.012689E0,5.212918E0,5.4186516E0,6.64207E0,6.2552586E0,5.233359E0,4.845117E0,5.8137016E0,6.1216316E0,6.4269323E0,4.8054414E0,5.5893736E0,5.709758E0,3.8402114E0,1.4209191E4,3.9237897E0,-2.7851232E4,-1.4378775E4,-1.5095905E4,-3.023869E2,-1.2917638E4,6.614302E3,-6.249555E3,7.4001147E3,-5.603979E3,1.5098939E4,1.1095522E4,3.2030387E4,1.6065121E4,4.3248516E4,4.7594668E4,1.0069544E5,-1.1187603E4,3.1937688E3,3.7549766E3,2.526195E4,8.23928E2,1.529452E4,2.4961082E4,5.3238777E4,1.0533385E4,2.5879496E4,1.7834975E4,4.1869168E4,2.935095E4,4.8896617E4,5.1757555E4,7.5520164E4,-3.2849602E3,1.2201281E4,1.4972319E4,4.8405617E4,1.8083193E4,3.8919652E4,3.298578E4,5.059878E4,1.1170846E4,3.0930121E4,4.044957E4,6.6033234E4,5.5413766E4,1.5288894E4,1.3669899E4,7.801586E4,1.8724303E4,3.835943E4,4.834044E4,7.8749E4,3.1388043E4,5.525091E4,3.9576887E4,7.175716E4,3.0356545E4,8.387535E4],"split_indices":[11,4,11,8,4,6,10,2,8,7,4,1,6,11,5,1,9,7,8,12,9,6,10,13,10,10,13,4,8,0,4,10,6,2,0,2,7,2,12,2,10,10,7,0,2,9,5,2,4,3,9,2,1,14,11,1,13,5,1,0,0,0,0,0,0,0,0,0,0,0,0,0,0,0,0,0,0,0,0,0,0,0,0,0,0,0,0,0,0,0,0,0,0,0,0,0,0,0,0,0,0,0,0,0,0,0,0,0,0,0,0,0,0,0,0,0,0,0,0],"split_type":[0,0,0,0,0,0,0,0,0,0,0,0,0,0,0,0,0,0,0,0,0,0,0,0,0,0,0,0,0,0,0,0,0,0,0,0,0,0,0,0,0,0,0,0,0,0,0,0,0,0,0,0,0,0,0,0,0,0,0,0,0,0,0,0,0,0,0,0,0,0,0,0,0,0,0,0,0,0,0,0,0,0,0,0,0,0,0,0,0,0,0,0,0,0,0,0,0,0,0,0,0,0,0,0,0,0,0,0,0,0,0,0,0,0,0,0,0,0,0],"sum_hessian":[4.5E4,4.1308E4,3.692E3,2.536E4,1.5948E4,3.165E3,5.27E2,1.8197E4,7.163E3,1.3533E4,2.415E3,2.994E3,1.71E2,4.85E2,4.2E1,9.243E3,8.954E3,6.357E3,8.06E2,9.333E3,4.2E3,2.1E3,3.15E2,1.701E3,1.293E3,9.6E1,7.5E1,3.23E2,1.62E2,1E1,3.2E1,5.477E3,3.766E3,4.708E3,4.246E3,5.017E3,1.34E3,7.03E2,1.03E2,5.196E3,4.137E3,3.433E3,7.67E2,1.748E3,3.52E2,2.39E2,7.6E1,8.49E2,8.52E2,1.082E3,2.11E2,4.8E1,4.8E1,3.4E1,4.1E1,2.75E2,4.8E1,7.7E1,8.5E1,1E0,3.1E1,3.162E3,2.315E3,2.243E3,1.523E3,4.136E3,5.72E2,1.555E3,2.691E3,4.456E3,5.61E2,1.145E3,1.95E2,6.18E2,8.5E1,9.5E1,8E0,3.666E3,1.53E3,3.675E3,4.62E2,1.403E3,2.03E3,6.91E2,7.6E1,1.232E3,5.16E2,8.6E1,2.66E2,1.28E2,1.11E2,3.6E1,4E1,5.53E2,2.96E2,7.93E2,5.9E1,9.51E2,1.31E2,1.16E2,9.5E1,2.4E1,2.4E1,3.3E1,1.5E1,3E1,4E0,3E0,3.8E1,1.1E2,1.65E2,3.4E1,1.4E1,5.8E1,1.9E1,1.5E1,7E1,2E0,2.9E1],"tree_param":{"num_deleted":"0","num_feature":"15","num_nodes":"119","size_leaf_vector":"1"}},{"base_weights":[1.415372E2,-1.344171E4,2.843205E4,-1.9370027E4,5.2880047E4,2.0586066E4,9.2880945E4,-3.0329174E4,1.4882189E4,4.0891312E4,1.25752125E5,1.5268575E3,4.357705E4,8.2146555E4,1.7720903E5,-4.908509E4,-1.037689E4,1.018664E4,1.4767539E5,2.8487262E4,7.823594E4,1.03924914E5,1.6761611E5,-1.1891607E4,3.4767457E4,3.3889516E4,8.7769586E4,6.850419E4,1.1950769E5,1.3914666E5,2.313127E5,-6.902864E4,-2.9007697E4,-3.0301145E4,9.156662E3,4.0103763E2,4.967553E4,1.07184984E5,1.8689275E5,1.1242127E4,6.083261E4,5.4616438E4,1.0694226E5,8.907982E4,1.830985E5,1.4476667E5,2.4377888E5,-3.5701156E4,7.1568735E3,2.4705055E4,9.0224266E4,2.5034748E4,7.9737234E4,7.329748E4,1.361252E5,4.1670324E4,9.6154E4,1.0802839E5,2.0128858E5,1.18262234E5,1.7872997E5,1.5196088E5,2.5689239E5,-2.2777518E4,-2.8590854E3,-1.1119493E4,8.295099E3,-1.5704827E4,-4.0765002E3,1.3978801E2,1.5719667E4,-1.3256271E3,2.3273713E4,1.2283282E4,3.3724227E4,1.9204107E4,4.0392066E4,4.1927434E4,7.152666E4,-6.049451E3,8.864967E3,1.0996886E4,2.4916562E4,1.4192266E4,4.748933E4,2.5948057E4,4.927647E4,2.0768025E4,3.954964E4,2.9649977E4,6.3512082E4,3.1720316E4,5.310012E4,4.100549E4,7.883059E4,-1.5180589E4,-2.3080583E2,4.826502E2,2.5165965E4,3.7607588E3,1.9900182E4,2.3502053E4,4.4180906E4,5.544643E3,2.4524637E4,2.0137254E4,4.5505098E4,1.5373051E4,3.0532246E4,3.514419E4,6.1073895E4,8.877381E3,3.522735E4,2.5179055E4,4.606236E4,2.9901861E4,5.6561918E4,4.314993E4,8.384433E4,2.3765764E4,4.223858E4,1.0386509E5,4.7426344E4,1.4596561E4,5.2423906E4,3.580026E4,8.062058E4],"categories":[],"categories_nodes":[],"categories_segments":[],"categories_sizes":[],"default_left":[0,0,0,0,0,0,0,0,0,0,0,0,0,0,0,0,0,0,0,0,0,0,0,0,0,0,0,0,0,0,0,0,0,0,0,0,0,0,0,0,0,0,0,0,0,0,0,0,0,0,0,0,0,0,0,0,0,0,0,0,0,0,0,0,0,0,0,0,0,0,0,0,0,0,0,0,0,0,0,0,0,0,0,0,0,0,0,0,0,0,0,0,0,0,0,0,0,0,0,0,0,0,0,0,0,0,0,0,0,0,0,0,0,0,0,0,0,0,0,0,0,0,0,0,0,0,0],"id":7,"left_children":[1,3,5,7,9,11,13,15,17,19,21,23,25,27,29,31,33,35,37,39,41,43,45,47,49,51,53,55,57,59,61,63,65,67,69,71,73,75,77,79,81,83,85,87,89,91,93,95,97,99,101,103,105,107,109,111,113,115,117,119,121,123,125,-1,-1,-1,-1,-1,-1,-1,-1,-1,-1,-1,-1,-1,-1,-1,-1,-1,-1,-1,-1,-1,-1,-1,-1,-1,-1,-1,-1,-1,-1,-1,-1,-1,-1,-1,-1,-1,-1,-1,-1,-1,-1,-1,-1,-1,-1,-1,-1,-1,-1,-1,-1,-1,-1,-1,-1,-1,-1,-1,-1,-1,-1,-1,-1],"loss_changes":[1.7293233E13,1.1955162E13,7.3797846E12,1.0477168E13,2.1746003E12,5.7029763E12,1.4192959E12,7.9124433E12,4.2173478E12,9.909253E11,3.0422912E11,3.1748645E12,2.5224848E12,7.089527E11,3.343715E11,4.362116E12,3.9883228E12,2.525638E12,3.4677876E11,8.9793154E11,3.562267E11,2.5871883E11,1.718021E11,2.3001353E12,1.1400556E12,1.9629023E12,7.318185E11,7.6242905E11,3.303009E11,6.7317006E10,1.0710784E11,2.2425266E12,2.4812407E12,1.8686322E12,1.944768E12,1.949157E12,7.064241E11,1.288734E11,2.4842181E11,6.054865E11,2.9782167E11,2.1606079E11,2.6706628E11,1.5977782E11,6.586145E10,9.9551674E10,1.6959406E10,1.173195E12,1.1994856E12,8.7759526E11,2.0133393E11,1.5065426E12,7.003633E11,5.0850877E11,2.8722594E11,4.7783576E11,3.4346998E11,2.0387594E11,1.6196777E11,5.3068562E10,6.6272625E10,3.857508E10,5.4272197E10,0E0,0E0,0E0,0E0,0E0,0E0,0E0,0E0,0E0,0E0,0E0,0E0,0E0,0E0,0E0,0E0,0E0,0E0,0E0,0E0,0E0,0E0,0E0,0E0,0E0,0E0,0E0,0E0,0E0,0E0,0E0,0E0,0E0,0E0,0E0,0E0,0E0,0E0,0E0,0E0,0E0,0E0,0E0,0E0,0E0,0E0,0E0,0E0,0E0,0E0,0E0,0E0,0E0,0E0,0E0,0E0,0E0,0E0,0E0,0E0,0E0,0E0,0E0,0E0],"parents":[2147483647,0,0,1,1,2,2,3,3,4,4,5,5,6,6,7,7,8,8,9,9,10,10,11,11,12,12,13,13,14,14,15,15,16,16,17,17,18,18,19,19,20,20,21,21,22,22,23,23,24,24,25,25,26,26,27,27,28,28,29,29,30,30,31,31,32,32,33,33,34,34,35,35,36,36,37,37,38,38,39,39,40,40,41,41,42,42,43,43,44,44,45,45,46,46,47,47,48,48,49,49,50,50,51,51,52,52,53,53,54,54,55,55,56,56,57,57,58,58,59,59,60,60,61,61,62,62],"right_children":[2,4,6,8,10,12,14,16,18,20,22,24,26,28,30,32,34,36,38,40,42,44,46,48,50,52,54,56,58,60,62,64,66,68,70,72,74,76,78,80,82,84,86,88,90,92,94,96,98,100,102,104,106,108,110,112,114,116,118,120,122,124,126,-1,-1,-1,-1,-1,-1,-1,-1,-1,-1,-1,-1,-1,-1,-1,-1,-1,-1,-1,-1,-1,-1,-1,-1,-1,-1,-1,-1,-1,-1,-1,-1,-1,-1,-1,-1,-1,-1,-1,-1,-1,-1,-1,-1,-1,-1,-1,-1,-1,-1,-1,-1,-1,-1,-1,-1,-1,-1,-1,-1,-1,-1,-1,-1],"split_conditions":[5.4516983E0,6.3772187E0,6.7931547E0,5.710268E0,7.235951E0,5.125119E0,7.6413727E0,5.0149965E0,7.434247E0,5.6925154E0,7.669297E0,5.564933E0,6.3928485E0,5.6288123E0,5.235406E0,5.0027566E0,4.9852257E0,5.8757358E0,7.6973577E0,5.364071E0,5.2469187E0,6.2273464E0,5.6549296E0,4.875646E0,6.077999E0,5.993723E0,7.056158E0,5.0770807E0,6.307281E0,5.403896E0,4.422551E0,6.258664E0,6.108983E0,4.8325076E0,5.9810467E0,6.604569E0,6.9654636E0,4.7950964E0,5.102849E0,4.711221E0,4.970349E0,6.4269323E0,6.470425E0,5.348626E0,4.573737E0,4.777813E0,4.4982057E0,5.514096E0,6.4451246E0,5.777638E0,7.0500674E0,6.265779E0,6.9654636E0,5.123462E0,7.6920934E0,6.097507E0,6.093257E0,6.2999387E0,5.561623E0,4.8928657E0,5.5477114E0,3.938943E0,3.836666E0,-2.2777518E4,-2.8590854E3,-1.1119493E4,8.295099E3,-1.5704827E4,-4.0765002E3,1.3978801E2,1.5719667E4,-1.3256271E3,2.3273713E4,1.2283282E4,3.3724227E4,1.9204107E4,4.0392066E4,4.1927434E4,7.152666E4,-6.049451E3,8.864967E3,1.0996886E4,2.4916562E4,1.4192266E4,4.748933E4,2.5948057E4,4.927647E4,2.0768025E4,3.954964E4,2.9649977E4,6.3512082E4,3.1720316E4,5.310012E4,4.100549E4,7.883059E4,-1.5180589E4,-2.3080583E2,4.826502E2,2.5165965E4,3.7607588E3,1.9900182E4,2.3502053E4,4.4180906E4,5.544643E3,2.4524637E4,2.0137254E4,4.5505098E4,1.5373051E4,3.0532246E4,3.514419E4,6.1073895E4,8.877381E3,3.522735E4,2.5179055E4,4.606236E4,2.9901861E4,5.6561918E4,4.314993E4,8.384433E4,2.3765764E4,4.223858E4,1.0386509E5,4.7426344E4,1.4596561E4,5.2423906E4,3.580026E4,8.062058E4],"split_indices":[6,10,6,3,10,0,6,13,3,9,10,1,0,11,13,0,9,7,3,5,1,2,12,13,9,7,0,13,8,5,10,12,7,0,0,5,7,8,9,0,11,11,9,12,8,11,8,5,9,8,9,5,7,12,0,3,1,9,4,3,5,1,9,0,0,0,0,0,0,0,0,0,0,0,0,0,0,0,0,0,0,0,0,0,0,0,0,0,0,0,0,0,0,0,0,0,0,0,0,0,0,0,0,0,0,0,0,0,0,0,0,0,0,0,0,0,0,0,0,0,0,0,0,0,0,0,0],"split_type":[0,0,0,0,0,0,0,0,0,0,0,0,0,0,0,0,0,0,0,0,0,0,0,0,0,0,0,0,0,0,0,0,0,0,0,0,0,0,0,0,0,0,0,0,0,0,0,0,0,0,0,0,0,0,0,0,0,0,0,0,0,0,0,0,0,0,0,0,0,0,0,0,0,0,0,0,0,0,0,0,0,0,0,0,0,0,0,0,0,0,0,0,0,0,0,0,0,0,0,0,0,0,0,0,0,0,0,0,0,0,0,0,0,0,0,0,0,0,0,0,0,0,0,0,0,0,0],"sum_hessian":[4.5E4,3.0403E4,1.4597E4,2.7909E4,2.494E3,1.3014E4,1.583E3,2.1144E4,6.765E3,2.143E3,3.51E2,7.116E3,5.898E3,1.406E3,1.77E2,1.0898E4,1.0246E4,6.535E3,2.3E2,1.61E3,5.33E2,2.33E2,1.18E2,5.07E3,2.046E3,4.839E3,1.059E3,1.032E3,3.74E2,1.06E2,7.1E1,5.466E3,5.432E3,5.072E3,5.174E3,5.238E3,1.297E3,1.15E2,1.15E2,1.051E3,5.59E2,2.94E2,2.39E2,1.98E2,3.5E1,9.3E1,2.5E1,2.253E3,2.817E3,1.733E3,3.13E2,4.057E3,7.82E2,8.17E2,2.42E2,5.25E2,5.07E2,3.3E2,4.4E1,7.2E1,3.4E1,1.9E1,5.2E1,4.898E3,5.68E2,4.756E3,6.76E2,2.186E3,2.886E3,4.309E3,8.65E2,4.931E3,3.07E2,1.14E3,1.57E2,4.6E1,6.9E1,6.2E1,5.3E1,3.87E2,6.64E2,2.69E2,2.9E2,2.76E2,1.8E1,1.78E2,6.1E1,1.37E2,6.1E1,1E1,2.5E1,4.4E1,4.9E1,5E0,2E1,1.579E3,6.74E2,2.628E3,1.89E2,1.342E3,3.91E2,2.61E2,5.2E1,3.638E3,4.19E2,6.67E2,1.15E2,4.62E2,3.55E2,1.91E2,5.1E1,4.54E2,7.1E1,4.2E2,8.7E1,3.01E2,2.9E1,2.7E1,1.7E1,2.8E1,4.4E1,2E0,3.2E1,4E0,1.5E1,5E0,4.7E1],"tree_param":{"num_deleted":"0","num_feature":"15","num_nodes":"127","size_leaf_vector":"1"}},{"base_weights":[1.3932405E2,-1.4778526E4,2.0245105E4,-3.2280682E4,4.5510317E3,1.4494144E4,7.824194E4,-4.3408152E4,-1.5353231E3,-8.339873E1,8.085114E4,1.9858569E3,4.0296805E4,6.62261E4,1.3479945E5,-6.117862E4,-2.4448402E4,-1.6268492E4,2.3428525E4,-7.7656157E3,4.1393824E4,6.135136E4,1.2958634E5,-1.2407995E4,2.4153518E4,2.977145E4,7.6975234E4,6.062001E4,1.4792633E5,1.124565E5,1.9437148E5,-6.481383E4,3.4880344E4,-4.3684477E4,-6.416354E3,-2.3828053E4,3.724437E4,7.8661772E3,5.2628664E4,-2.7074344E4,8.273374E3,3.373156E4,9.518625E4,3.939798E4,9.5648516E4,9.478905E4,1.5448183E5,-2.6585146E4,1.1953743E4,1.0793646E4,4.9141633E4,2.1062447E4,7.340617E4,7.017628E4,1.7085503E5,4.325265E4,8.317396E4,1.13568414E5,2.021861E5,1.000727E5,2.0603792E5,1.1186071E5,2.2324228E5,-2.4998342E4,-1.428869E4,1.3901726E3,2.888225E4,-1.5508098E4,1.7996841E2,-3.54639E3,1.8761883E4,-1.279554E4,-5.0491602E2,9.311213E3,6.0705066E4,-3.987367E3,9.136646E3,1.3783708E4,4.4400066E4,-9.728461E3,1.05798545E4,-3.271591E3,7.43057E3,8.262174E3,2.82319E4,2.4079426E4,4.9951066E4,5.3445806E3,2.081259E4,1.5844028E4,3.2419258E4,2.3210113E4,4.5645773E4,3.7744836E4,5.4145223E4,-9.7092295E3,9.080421E3,1.706183E3,2.1408652E4,1.4436562E3,2.2407945E4,7.23235E3,1.8704459E4,1.9118699E3,1.3612464E4,1.7893467E4,4.5106055E4,1.7709318E4,3.4494074E4,1.0737204E4,5.4755207E4,1.0917838E4,3.673472E4,2.0442305E4,3.4271027E4,2.1832957E4,4.476449E4,3.5968402E4,6.4661406E4,2.7435436E4,5.2944227E4,3.7526473E4,6.750522E4,-1.9185816E4,3.6827754E4,4.030921E4,7.514639E4],"categories":[],"categories_nodes":[],"categories_segments":[],"categories_sizes":[],"default_left":[0,0,0,0,0,0,0,0,0,0,0,0,0,0,0,0,0,0,0,0,0,0,0,0,0,0,0,0,0,0,0,0,0,0,0,0,0,0,0,0,0,0,0,0,0,0,0,0,0,0,0,0,0,0,0,0,0,0,0,0,0,0,0,0,0,0,0,0,0,0,0,0,0,0,0,0,0,0,0,0,0,0,0,0,0,0,0,0,0,0,0,0,0,0,0,0,0,0,0,0,0,0,0,0,0,0,0,0,0,0,0,0,0,0,0,0,0,0,0,0,0,0,0,0,0,0,0],"id":8,"left_children":[1,3,5,7,9,11,13,15,17,19,21,23,25,27,29,31,33,35,37,39,41,43,45,47,49,51,53,55,57,59,61,63,65,67,69,71,73,75,77,79,81,83,85,87,89,91,93,95,97,99,101,103,105,107,109,111,113,115,117,119,121,123,125,-1,-1,-1,-1,-1,-1,-1,-1,-1,-1,-1,-1,-1,-1,-1,-1,-1,-1,-1,-1,-1,-1,-1,-1,-1,-1,-1,-1,-1,-1,-1,-1,-1,-1,-1,-1,-1,-1,-1,-1,-1,-1,-1,-1,-1,-1,-1,-1,-1,-1,-1,-1,-1,-1,-1,-1,-1,-1,-1,-1,-1,-1,-1,-1],"loss_changes":[1.3497676E13,8.7400194E12,6.392113E12,4.6383707E12,4.3412465E12,5.628629E12,1.1660773E12,3.3525785E12,1.32592E12,3.6885454E12,6.6012945E11,3.7485093E12,2.1958975E12,6.450834E11,3.8010775E11,1.7964204E12,1.6709192E12,9.1796544E11,6.0760365E11,3.0249905E12,7.4240806E11,3.7571265E11,1.5861573E11,2.4604597E12,1.54347E12,1.6803997E12,7.9799255E11,5.2050107E11,1.4668503E11,2.3665574E11,1.6798214E11,1.571245E12,3.486594E11,8.267938E11,9.280248E11,8.282128E11,2.816916E11,4.1811657E11,2.8957475E11,1.4803783E12,1.6883452E12,5.898481E11,2.260718E11,1.9868448E11,9.8530755E10,7.417581E10,6.3010243E10,1.480449E12,9.7534253E11,1.1520104E12,5.311103E11,1.3179098E12,7.7037804E11,5.849429E11,1.2735637E11,4.0734687E11,2.6352262E11,7.3477915E10,1.1515593E10,1.142898E11,1.0262479E10,5.1920994E10,1.0921496E11,0E0,0E0,0E0,0E0,0E0,0E0,0E0,0E0,0E0,0E0,0E0,0E0,0E0,0E0,0E0,0E0,0E0,0E0,0E0,0E0,0E0,0E0,0E0,0E0,0E0,0E0,0E0,0E0,0E0,0E0,0E0,0E0,0E0,0E0,0E0,0E0,0E0,0E0,0E0,0E0,0E0,0E0,0E0,0E0,0E0,0E0,0E0,0E0,0E0,0E0,0E0,0E0,0E0,0E0,0E0,0E0,0E0,0E0,0E0,0E0,0E0,0E0,0E0,0E0],"parents":[2147483647,0,0,1,1,2,2,3,3,4,4,5,5,6,6,7,7,8,8,9,9,10,10,11,11,12,12,13,13,14,14,15,15,16,16,17,17,18,18,19,19,20,20,21,21,22,22,23,23,24,24,25,25,26,26,27,27,28,28,29,29,30,30,31,31,32,32,33,33,34,34,35,35,36,36,37,37,38,38,39,39,40,40,41,41,42,42,43,43,44,44,45,45,46,46,47,47,48,48,49,49,50,50,51,51,52,52,53,53,54,54,55,55,56,56,57,57,58,58,59,59,60,60,61,61,62,62],"right_children":[2,4,6,8,10,12,14,16,18,20,22,24,26,28,30,32,34,36,38,40,42,44,46,48,50,52,54,56,58,60,62,64,66,68,70,72,74,76,78,80,82,84,86,88,90,92,94,96,98,100,102,104,106,108,110,112,114,116,118,120,122,124,126,-1,-1,-1,-1,-1,-1,-1,-1,-1,-1,-1,-1,-1,-1,-1,-1,-1,-1,-1,-1,-1,-1,-1,-1,-1,-1,-1,-1,-1,-1,-1,-1,-1,-1,-1,-1,-1,-1,-1,-1,-1,-1,-1,-1,-1,-1,-1,-1,-1,-1,-1,-1,-1,-1,-1,-1,-1,-1,-1,-1,-1,-1,-1,-1],"split_conditions":[5.1948957E0,5.0456295E0,6.3403373E0,5.6278214E0,6.920205E0,5.454203E0,7.1492796E0,5.019212E0,5.311374E0,6.0092382E0,7.4257884E0,5.2611766E0,5.749095E0,6.588167E0,7.6440725E0,6.8044405E0,4.9507027E0,6.126708E0,5.3931184E0,4.8856106E0,7.0478716E0,5.192863E0,4.9113483E0,5.356207E0,5.381604E0,6.594292E0,7.162017E0,5.168211E0,5.292805E0,6.3019643E0,4.4147E0,4.964046E0,5.417331E0,6.0452476E0,6.7349195E0,5.05343E0,6.781983E0,5.0212917E0,6.5294514E0,6.4775867E0,4.9219837E0,6.3657303E0,7.628066E0,5.254393E0,4.2112E0,5.672078E0,7.688903E0,6.3152432E0,6.3307166E0,6.329623E0,4.584525E0,5.3247957E0,7.393915E0,5.9505315E0,3.4921157E0,6.5076723E0,5.4571457E0,5.039346E0,4.283836E0,6.3928485E0,4.33741E0,3.1118975E0,4.3192954E0,-2.4998342E4,-1.428869E4,1.3901726E3,2.888225E4,-1.5508098E4,1.7996841E2,-3.54639E3,1.8761883E4,-1.279554E4,-5.0491602E2,9.311213E3,6.0705066E4,-3.987367E3,9.136646E3,1.3783708E4,4.4400066E4,-9.728461E3,1.05798545E4,-3.271591E3,7.43057E3,8.262174E3,2.82319E4,2.4079426E4,4.9951066E4,5.3445806E3,2.081259E4,1.5844028E4,3.2419258E4,2.3210113E4,4.5645773E4,3.7744836E4,5.4145223E4,-9.7092295E3,9.080421E3,1.706183E3,2.1408652E4,1.4436562E3,2.2407945E4,7.23235E3,1.8704459E4,1.9118699E3,1.3612464E4,1.7893467E4,4.5106055E4,1.7709318E4,3.4494074E4,1.0737204E4,5.4755207E4,1.0917838E4,3.673472E4,2.0442305E4,3.4271027E4,2.1832957E4,4.476449E4,3.5968402E4,6.4661406E4,2.7435436E4,5.2944227E4,3.7526473E4,6.750522E4,-1.9185816E4,3.6827754E4,4.030921E4,7.514639E4],"split_indices":[11,12,2,5,12,9,2,10,10,7,12,5,1,12,2,3,13,7,1,9,7,2,1,13,10,9,1,4,4,3,9,7,0,2,13,3,13,4,7,1,1,2,7,0,5,8,12,1,4,8,8,4,9,10,7,13,10,8,13,0,5,1,8,0,0,0,0,0,0,0,0,0,0,0,0,0,0,0,0,0,0,0,0,0,0,0,0,0,0,0,0,0,0,0,0,0,0,0,0,0,0,0,0,0,0,0,0,0,0,0,0,0,0,0,0,0,0,0,0,0,0,0,0,0,0,0,0],"split_type":[0,0,0,0,0,0,0,0,0,0,0,0,0,0,0,0,0,0,0,0,0,0,0,0,0,0,0,0,0,0,0,0,0,0,0,0,0,0,0,0,0,0,0,0,0,0,0,0,0,0,0,0,0,0,0,0,0,0,0,0,0,0,0,0,0,0,0,0,0,0,0,0,0,0,0,0,0,0,0,0,0,0,0,0,0,0,0,0,0,0,0,0,0,0,0,0,0,0,0,0,0,0,0,0,0,0,0,0,0,0,0,0,0,0,0,0,0,0,0,0,0,0,0,0,0,0,0],"sum_hessian":[4.5E4,2.5833E4,1.9167E4,1.3557E4,1.2276E4,1.7439E4,1.728E3,9.954E3,3.603E3,1.1574E4,7.02E2,1.1746E4,5.693E3,1.427E3,3.01E2,5.137E3,4.817E3,2.266E3,1.337E3,9.766E3,1.808E3,5.03E2,1.99E2,7.122E3,4.624E3,4.425E3,1.268E3,1.337E3,9E1,2.21E2,8E1,4.95E3,1.87E2,2.33E3,2.487E3,1.986E3,2.8E2,8.73E2,4.64E2,4.431E3,5.335E3,1.584E3,2.24E2,3.08E2,1.95E2,8.5E1,1.14E2,4.502E3,2.62E3,3.014E3,1.61E3,3.69E3,7.35E2,1.184E3,8.4E1,7.57E2,5.8E2,5.7E1,3.3E1,1.97E2,2.4E1,2.2E1,5.8E1,2.381E3,2.569E3,1.26E2,6.1E1,1.973E3,3.57E2,2.307E3,1.8E2,1.073E3,9.13E2,2.71E2,9E0,4.51E2,4.22E2,4.35E2,2.9E1,4.081E3,3.5E2,2.467E3,2.868E3,1.438E3,1.46E2,1.87E2,3.7E1,1.8E2,1.28E2,4.5E1,1.5E2,6.7E1,1.8E1,5.7E1,5.7E1,4.087E3,4.15E2,2.371E3,2.49E2,2.757E3,2.57E2,5.57E2,1.053E3,2.301E3,1.389E3,6.25E2,1.1E2,9.5E2,2.34E2,7E0,7.7E1,6.98E2,5.9E1,3.93E2,1.87E2,2.8E1,2.9E1,6E0,2.7E1,1.79E2,1.8E1,6E0,1.8E1,1E0,2.1E1,1.5E1,4.3E1],"tree_param":{"num_deleted":"0","num_feature":"15","num_nodes":"127","size_leaf_vector":"1"}},{"base_weights":[1.2682043E2,-5.0299434E3,4.9883582E4,-2.3307855E4,9.183685E3,3.9198344E4,1.0337561E5,-4.0303043E4,-5.623819E3,3.7465361E3,5.637059E4,3.2750656E4,9.092732E4,8.840796E4,1.4735627E5,-4.523718E4,1.3336704E4,-8.820747E3,8.627983E4,-1.3602695E3,5.276047E4,4.7125418E4,1.0589942E5,2.4934303E4,7.428779E4,8.156834E4,1.9667905E5,8.34854E4,2.1562766E5,1.224339E5,1.7230397E5,-5.106425E4,6.8287714E2,4.785929E3,9.334888E4,-2.5717977E4,6.4603247E3,7.129106E4,1.423633E5,-5.9885503E3,5.3033258E4,3.122184E4,6.93032E4,3.433572E4,7.422989E4,7.1183414E4,1.2583521E5,1.692506E4,6.759047E4,6.073105E4,1.0798929E5,6.66834E4,1.0617518E5,-1.2452532E3,2.0351173E5,7.5662555E4,1.6057919E5,3.1827836E4,2.4716919E5,9.112235E4,1.645313E5,1.9282297E5,1.1126223E5,-1.7489746E4,-4.138449E3,-1.4214073E3,1.7448832E4,-2.5665728E3,1.1989439E4,2.0701754E4,3.995041E4,-1.2509577E4,-2.26938E3,-1.778355E3,8.741667E3,1.9185246E4,5.7346754E4,5.3312355E4,2.830815E4,-6.8429434E3,2.7819768E3,1.0072045E4,2.1742111E4,3.6409114E3,1.616559E4,1.6412793E4,2.956235E4,6.109273E3,1.7825846E4,2.0871709E4,5.0988074E4,1.3229299E4,2.9768418E4,3.6381438E4,7.2051875E4,2.6520947E3,1.8556195E4,1.846574E4,6.759164E4,8.841957E3,2.2772912E4,2.4326307E4,4.5337848E4,1.334605E4,2.8328447E4,2.2211424E4,3.4908426E4,3.4366406E4,6.383745E4,1.8899754E4,3.2630799E4,2.969387E4,5.6157777E4,1.2573356E4,7.7920305E4,6.2816255E3,2.9786682E4,5.5397516E4,2.6912896E4,3.709561E4,6.1062316E4,2.053391E4,4.9307938E4],"categories":[],"categories_nodes":[],"categories_segments":[],"categories_sizes":[],"default_left":[0,0,0,0,0,0,0,0,0,0,0,0,0,0,0,0,0,0,0,0,0,0,0,0,0,0,0,0,0,0,0,0,0,0,0,0,0,0,0,0,0,0,0,0,0,0,0,0,0,0,0,0,0,0,0,0,0,0,0,0,0,0,0,0,0,0,0,0,0,0,0,0,0,0,0,0,0,0,0,0,0,0,0,0,0,0,0,0,0,0,0,0,0,0,0,0,0,0,0,0,0,0,0,0,0,0,0,0,0,0,0,0,0,0,0,0,0,0,0,0,0,0,0],"id":9,"left_children":[1,3,5,7,9,11,13,15,17,19,21,23,25,27,29,31,33,35,37,39,41,43,45,47,49,51,53,55,57,59,61,63,65,67,69,71,73,75,77,79,81,83,85,87,89,91,93,95,97,99,101,103,105,-1,107,109,111,-1,113,115,117,119,121,-1,-1,-1,-1,-1,-1,-1,-1,-1,-1,-1,-1,-1,-1,-1,-1,-1,-1,-1,-1,-1,-1,-1,-1,-1,-1,-1,-1,-1,-1,-1,-1,-1,-1,-1,-1,-1,-1,-1,-1,-1,-1,-1,-1,-1,-1,-1,-1,-1,-1,-1,-1,-1,-1,-1,-1,-1,-1,-1,-1],"loss_changes":[1.1546782E13,1.0593632E13,2.4114239E12,5.360869E12,5.88507E12,1.1723898E12,4.4974893E11,2.4080055E12,2.5695368E12,5.148838E12,1.0802383E12,1.0159847E12,3.6995098E11,3.1203053E11,8.89549E10,2.2289716E12,5.2430864E11,2.1820216E12,2.3699351E11,4.6903926E12,6.894298E11,6.904207E11,2.4850045E11,9.007952E11,2.2005573E11,1.2477766E11,4.338313E10,2.9482444E11,3.942023E10,1.0627593E11,8.6262415E10,1.9923783E12,2.9286125E11,3.2605503E11,6.254022E10,1.1638643E12,1.247011E12,1.9365704E11,8.672628E10,4.4081427E12,5.5027276E11,3.648446E11,4.6269412E11,4.7541178E11,2.7353049E11,1.00450435E11,9.349916E10,8.0729657E11,3.8323408E11,1.6666762E11,1.5136902E11,1.3559451E11,3.5250504E10,0E0,3.8862848E8,1.8767649E11,5.688302E10,0E0,2.522153E10,2.9444866E10,4.0660173E10,2.15388E10,4.3312185E10,0E0,0E0,0E0,0E0,0E0,0E0,0E0,0E0,0E0,0E0,0E0,0E0,0E0,0E0,0E0,0E0,0E0,0E0,0E0,0E0,0E0,0E0,0E0,0E0,0E0,0E0,0E0,0E0,0E0,0E0,0E0,0E0,0E0,0E0,0E0,0E0,0E0,0E0,0E0,0E0,0E0,0E0,0E0,0E0,0E0,0E0,0E0,0E0,0E0,0E0,0E0,0E0,0E0,0E0,0E0,0E0,0E0,0E0,0E0,0E0],"parents":[2147483647,0,0,1,1,2,2,3,3,4,4,5,5,6,6,7,7,8,8,9,9,10,10,11,11,12,12,13,13,14,14,15,15,16,16,17,17,18,18,19,19,20,20,21,21,22,22,23,23,24,24,25,25,26,26,27,27,28,28,29,29,30,30,31,31,32,32,33,33,34,34,35,35,36,36,37,37,38,38,39,39,40,40,41,41,42,42,43,43,44,44,45,45,46,46,47,47,48,48,49,49,50,50,51,51,52,52,54,54,55,55,56,56,58,58,59,59,60,60,61,61,62,62],"right_children":[2,4,6,8,10,12,14,16,18,20,22,24,26,28,30,32,34,36,38,40,42,44,46,48,50,52,54,56,58,60,62,64,66,68,70,72,74,76,78,80,82,84,86,88,90,92,94,96,98,100,102,104,106,-1,108,110,112,-1,114,116,118,120,122,-1,-1,-1,-1,-1,-1,-1,-1,-1,-1,-1,-1,-1,-1,-1,-1,-1,-1,-1,-1,-1,-1,-1,-1,-1,-1,-1,-1,-1,-1,-1,-1,-1,-1,-1,-1,-1,-1,-1,-1,-1,-1,-1,-1,-1,-1,-1,-1,-1,-1,-1,-1,-1,-1,-1,-1,-1,-1,-1,-1],"split_conditions":[6.316467E0,4.833737E0,7.1513305E0,5.033872E0,6.284413E0,6.1982594E0,7.6920934E0,6.345759E0,7.1515603E0,6.3005133E0,7.16671E0,5.9697814E0,7.2624245E0,6.7451973E0,4.8625016E0,6.192013E0,7.393915E0,4.9374905E0,5.8031034E0,6.427967E0,4.8615046E0,5.4947443E0,4.6791167E0,5.991104E0,5.54085E0,5.336772E0,2.7056556E0,6.2850714E0,4.4055467E0,5.235406E0,5.497097E0,5.9691086E0,6.403E0,5.5204315E0,5.4516983E0,5.057583E0,5.375298E0,6.6313024E0,5.1438236E0,4.934084E0,5.0228624E0,5.029573E0,6.828972E0,5.3682923E0,6.914689E0,5.19968E0,7.059476E0,6.0797334E0,6.8591313E0,4.521174E0,6.5195956E0,5.1828594E0,4.340639E0,-1.2452532E3,3.8952093E0,5.6340737E0,4.45266E0,3.1827836E4,3.6224751E0,3.636213E0,5.553956E0,4.31842E0,4.9826202E0,-1.7489746E4,-4.138449E3,-1.4214073E3,1.7448832E4,-2.5665728E3,1.1989439E4,2.0701754E4,3.995041E4,-1.2509577E4,-2.26938E3,-1.778355E3,8.741667E3,1.9185246E4,5.7346754E4,5.3312355E4,2.830815E4,-6.8429434E3,2.7819768E3,1.0072045E4,2.1742111E4,3.6409114E3,1.616559E4,1.6412793E4,2.956235E4,6.109273E3,1.7825846E4,2.0871709E4,5.0988074E4,1.3229299E4,2.9768418E4,3.6381438E4,7.2051875E4,2.6520947E3,1.8556195E4,1.846574E4,6.759164E4,8.841957E3,2.2772912E4,2.4326307E4,4.5337848E4,1.334605E4,2.8328447E4,2.2211424E4,3.4908426E4,3.4366406E4,6.383745E4,1.8899754E4,3.2630799E4,2.969387E4,5.6157777E4,1.2573356E4,7.7920305E4,6.2816255E3,2.9786682E4,5.5397516E4,2.6912896E4,3.709561E4,6.1062316E4,2.053391E4,4.9307938E4],"split_indices":[0,2,0,3,4,5,0,9,3,13,4,12,5,6,12,13,9,9,6,12,5,8,6,1,4,12,1,5,1,13,14,5,4,1,6,8,13,9,14,6,7,10,13,7,1,7,3,3,8,10,12,2,9,0,9,2,8,0,12,3,6,1,6,0,0,0,0,0,0,0,0,0,0,0,0,0,0,0,0,0,0,0,0,0,0,0,0,0,0,0,0,0,0,0,0,0,0,0,0,0,0,0,0,0,0,0,0,0,0,0,0,0,0,0,0,0,0,0,0,0,0,0,0],"split_type":[0,0,0,0,0,0,0,0,0,0,0,0,0,0,0,0,0,0,0,0,0,0,0,0,0,0,0,0,0,0,0,0,0,0,0,0,0,0,0,0,0,0,0,0,0,0,0,0,0,0,0,0,0,0,0,0,0,0,0,0,0,0,0,0,0,0,0,0,0,0,0,0,0,0,0,0,0,0,0,0,0,0,0,0,0,0,0,0,0,0,0,0,0,0,0,0,0,0,0,0,0,0,0,0,0,0,0,0,0,0,0,0,0,0,0,0,0,0,0,0,0,0,0],"sum_hessian":[4.5E4,4.0775E4,4.225E3,1.7837E4,2.2938E4,3.523E3,7.02E2,9.095E3,8.742E3,2.0569E4,2.369E3,3.134E3,3.89E2,5.26E2,1.76E2,8.329E3,7.66E2,8.449E3,2.93E2,1.8629E4,1.94E3,1.998E3,3.71E2,2.639E3,4.95E2,3.59E2,3E1,5.08E2,1.8E1,9.1E1,8.5E1,7.391E3,9.38E2,6.93E2,7.3E1,4.012E3,4.437E3,2.33E2,6E1,1.7169E4,1.46E3,8.44E2,1.096E3,1.359E3,6.39E2,1.37E2,2.34E2,2.223E3,4.16E2,3.55E2,1.4E2,2.26E2,1.33E2,1E0,2.9E1,4.63E2,4.5E1,5E0,1.3E1,5.4E1,3.7E1,6.2E1,2.3E1,6.189E3,1.202E3,8.58E2,8E1,5.03E2,1.9E2,4.7E1,2.6E1,2.133E3,1.879E3,2.87E3,1.567E3,2.21E2,1.2E1,3.3E1,2.7E1,8.167E3,9.002E3,7.31E2,7.29E2,4.59E2,3.85E2,7.33E2,3.63E2,8.74E2,4.85E2,6.11E2,2.8E1,7.1E1,6.6E1,2.27E2,7E0,1.885E3,3.38E2,4.02E2,1.4E1,1.17E2,2.38E2,8.8E1,5.2E1,1.27E2,9.9E1,3.4E1,9.9E1,4E0,2.5E1,3.37E2,1.26E2,1.5E1,3E1,1E0,1.2E1,6E0,4.8E1,2.8E1,9E0,1E1,5.2E1,1.4E1,9E0],"tree_param":{"num_deleted":"0","num_feature":"15","num_nodes":"123","size_leaf_vector":"1"}},{"base_weights":[1.222317E2,-1.1115066E4,1.947414E4,-2.8368703E4,2.4686743E3,1.5361423E4,9.25193E4,-4.169036E4,-1.0652364E4,-8.3214905E2,7.6382164E4,1.123139E4,6.690068E4,7.064054E4,1.2504434E5,-5.695124E4,-2.5308408E4,-1.6514191E4,4.017628E4,-5.9583467E3,4.390165E4,6.0657223E4,1.5406097E5,-4.0783337E3,2.5054096E4,5.5243535E4,1.213156E5,5.0863043E4,9.201495E4,1.0407252E5,1.5734975E5,-6.1886277E4,-6.122739E3,-3.2234791E4,2.245918E4,-2.1048924E4,3.8340613E4,2.8626848E4,9.749145E4,-1.5015858E4,1.8028383E4,3.3603008E4,1.20240984E5,4.5635887E4,9.413007E4,8.341715E4,1.7004736E5,-1.7174338E4,1.4588143E4,2.2074371E4,1.03626555E5,3.2775832E4,7.450648E4,1.0799767E5,1.716284E5,3.1137305E4,8.4400945E4,8.270741E4,1.56001E5,7.963957E4,1.2937587E5,1.4108173E5,2.318485E5,-1.9723822E4,-1.00917816E3,-4.780593E3,2.2255E4,-1.1567396E4,4.496168E3,3.5432395E3,2.6804143E4,-1.0891697E4,-1.603657E3,7.697399E3,2.7644092E4,4.324732E3,1.9424887E4,1.783821E4,3.4940176E4,-5.6990327E3,1.0404676E4,-9.5301044E2,9.218786E3,4.956181E3,1.4931582E4,2.7985533E4,4.3203598E4,1.12729E4,3.5410508E4,2.2127904E4,4.1888613E4,5.462871E3,3.324221E4,3.790037E4,5.8048176E4,-6.679316E3,8.923892E3,-7.9208575E2,9.95479E3,-1.6523312E2,9.726339E3,2.6816053E4,3.971357E4,7.060936E3,2.216741E4,2.1399883E4,7.350116E4,2.2430807E4,3.8717703E4,3.577399E4,5.6757504E4,4.8903082E2,1.5045024E4,1.8791055E4,4.6929773E4,1.6727666E4,2.9218074E4,4.9460434E4,1.647932E4,1.4361014E4,3.2071445E4,2.8885854E4,4.4477227E4,3.8065695E4,7.570732E4,4.9854316E4,8.6513516E4],"categories":[],"categories_nodes":[],"categories_segments":[],"categories_sizes":[],"default_left":[0,0,0,0,0,0,0,0,0,0,0,0,0,0,0,0,0,0,0,0,0,0,0,0,0,0,0,0,0,0,0,0,0,0,0,0,0,0,0,0,0,0,0,0,0,0,0,0,0,0,0,0,0,0,0,0,0,0,0,0,0,0,0,0,0,0,0,0,0,0,0,0,0,0,0,0,0,0,0,0,0,0,0,0,0,0,0,0,0,0,0,0,0,0,0,0,0,0,0,0,0,0,0,0,0,0,0,0,0,0,0,0,0,0,0,0,0,0,0,0,0,0,0,0,0,0,0],"id":10,"left_children":[1,3,5,7,9,11,13,15,17,19,21,23,25,27,29,31,33,35,37,39,41,43,45,47,49,51,53,55,57,59,61,63,65,67,69,71,73,75,77,79,81,83,85,87,89,91,93,95,97,99,101,103,105,107,109,111,113,115,117,119,121,123,125,-1,-1,-1,-1,-1,-1,-1,-1,-1,-1,-1,-1,-1,-1,-1,-1,-1,-1,-1,-1,-1,-1,-1,-1,-1,-1,-1,-1,-1,-1,-1,-1,-1,-1,-1,-1,-1,-1,-1,-1,-1,-1,-1,-1,-1,-1,-1,-1,-1,-1,-1,-1,-1,-1,-1,-1,-1,-1,-1,-1,-1,-1,-1,-1],"loss_changes":[9.786277E12,6.672554E12,4.965024E12,2.9593688E12,3.8865912E12,3.3309154E12,6.180931E11,1.7880811E12,1.6048196E12,3.4973045E12,8.224928E11,3.0669254E12,7.297465E11,2.1894555E11,2.2278255E11,9.289859E11,1.1435028E12,1.2017811E12,3.6591967E11,2.9730404E12,1.2287072E12,2.812986E11,1.1455981E11,1.6813763E12,1.7808034E12,4.1217504E11,1.1815721E11,1.8062403E11,1.3777227E11,1.23853865E11,1.3332749E11,7.625884E11,2.6043703E11,9.014359E11,3.109096E11,1.0683444E12,2.4944325E11,2.377713E11,6.0189573E10,1.9658435E12,1.0103309E12,3.8116825E11,1.0574889E11,2.254656E11,1.5189541E11,3.906139E10,6.984722E10,9.6600615E11,9.086112E11,1.7180553E12,1.01986075E11,1.6692845E11,2.6117905E11,1.0512315E11,1.5159394E10,9.865668E10,1.5010732E11,8.282636E10,1.8725732E10,9.276352E10,5.132714E10,1.4964307E11,3.74571E10,0E0,0E0,0E0,0E0,0E0,0E0,0E0,0E0,0E0,0E0,0E0,0E0,0E0,0E0,0E0,0E0,0E0,0E0,0E0,0E0,0E0,0E0,0E0,0E0,0E0,0E0,0E0,0E0,0E0,0E0,0E0,0E0,0E0,0E0,0E0,0E0,0E0,0E0,0E0,0E0,0E0,0E0,0E0,0E0,0E0,0E0,0E0,0E0,0E0,0E0,0E0,0E0,0E0,0E0,0E0,0E0,0E0,0E0,0E0,0E0,0E0,0E0,0E0,0E0],"parents":[2147483647,0,0,1,1,2,2,3,3,4,4,5,5,6,6,7,7,8,8,9,9,10,10,11,11,12,12,13,13,14,14,15,15,16,16,17,17,18,18,19,19,20,20,21,21,22,22,23,23,24,24,25,25,26,26,27,27,28,28,29,29,30,30,31,31,32,32,33,33,34,34,35,35,36,36,37,37,38,38,39,39,40,40,41,41,42,42,43,43,44,44,45,45,46,46,47,47,48,48,49,49,50,50,51,51,52,52,53,53,54,54,55,55,56,56,57,57,58,58,59,59,60,60,61,61,62,62],"right_children":[2,4,6,8,10,12,14,16,18,20,22,24,26,28,30,32,34,36,38,40,42,44,46,48,50,52,54,56,58,60,62,64,66,68,70,72,74,76,78,80,82,84,86,88,90,92,94,96,98,100,102,104,106,108,110,112,114,116,118,120,122,124,126,-1,-1,-1,-1,-1,-1,-1,-1,-1,-1,-1,-1,-1,-1,-1,-1,-1,-1,-1,-1,-1,-1,-1,-1,-1,-1,-1,-1,-1,-1,-1,-1,-1,-1,-1,-1,-1,-1,-1,-1,-1,-1,-1,-1,-1,-1,-1,-1,-1,-1,-1,-1,-1,-1,-1,-1,-1,-1,-1,-1,-1,-1,-1,-1],"split_conditions":[5.3329563E0,4.8632293E0,7.072056E0,5.1784673E0,6.9654636E0,6.445054E0,7.447315E0,5.050052E0,6.7019777E0,6.2492514E0,7.628066E0,4.910308E0,7.269811E0,5.031452E0,5.2724366E0,6.337838E0,6.1894913E0,6.4641857E0,7.409574E0,5.592142E0,7.269811E0,5.487821E0,4.2014976E0,5.223459E0,7.0524673E0,4.7937016E0,5.8885093E0,5.362094E0,6.077272E0,4.979178E0,5.9546475E0,6.569136E0,7.2624245E0,6.1974545E0,7.1492796E0,5.0054464E0,7.2605968E0,5.724137E0,4.723639E0,6.446787E0,4.7014422E0,4.9307675E0,5.0437946E0,6.3602924E0,5.54085E0,4.360745E0,4.814554E0,6.322335E0,5.001768E0,4.495528E0,5.5414762E0,5.9916954E0,7.2801824E0,4.795335E0,4.9276495E0,4.8325076E0,5.717093E0,4.6281943E0,6.331567E0,4.868254E0,4.6247797E0,6.175381E0,4.7838254E0,-1.9723822E4,-1.00917816E3,-4.780593E3,2.2255E4,-1.1567396E4,4.496168E3,3.5432395E3,2.6804143E4,-1.0891697E4,-1.603657E3,7.697399E3,2.7644092E4,4.324732E3,1.9424887E4,1.783821E4,3.4940176E4,-5.6990327E3,1.0404676E4,-9.5301044E2,9.218786E3,4.956181E3,1.4931582E4,2.7985533E4,4.3203598E4,1.12729E4,3.5410508E4,2.2127904E4,4.1888613E4,5.462871E3,3.324221E4,3.790037E4,5.8048176E4,-6.679316E3,8.923892E3,-7.9208575E2,9.95479E3,-1.6523312E2,9.726339E3,2.6816053E4,3.971357E4,7.060936E3,2.216741E4,2.1399883E4,7.350116E4,2.2430807E4,3.8717703E4,3.577399E4,5.6757504E4,4.8903082E2,1.5045024E4,1.8791055E4,4.6929773E4,1.6727666E4,2.9218074E4,4.9460434E4,1.647932E4,1.4361014E4,3.2071445E4,2.8885854E4,4.4477227E4,3.8065695E4,7.570732E4,4.9854316E4,8.6513516E4],"split_indices":[8,7,8,10,7,1,8,1,10,1,7,10,1,4,7,5,2,6,10,10,1,1,11,5,10,5,7,10,6,4,3,3,5,9,2,12,6,6,5,2,0,13,3,5,4,13,10,9,4,0,6,13,3,13,9,0,7,5,14,11,10,9,5,0,0,0,0,0,0,0,0,0,0,0,0,0,0,0,0,0,0,0,0,0,0,0,0,0,0,0,0,0,0,0,0,0,0,0,0,0,0,0,0,0,0,0,0,0,0,0,0,0,0,0,0,0,0,0,0,0,0,0,0,0,0,0,0],"split_type":[0,0,0,0,0,0,0,0,0,0,0,0,0,0,0,0,0,0,0,0,0,0,0,0,0,0,0,0,0,0,0,0,0,0,0,0,0,0,0,0,0,0,0,0,0,0,0,0,0,0,0,0,0,0,0,0,0,0,0,0,0,0,0,0,0,0,0,0,0,0,0,0,0,0,0,0,0,0,0,0,0,0,0,0,0,0,0,0,0,0,0,0,0,0,0,0,0,0,0,0,0,0,0,0,0,0,0,0,0,0,0,0,0,0,0,0,0,0,0,0,0,0,0,0,0,0,0],"sum_hessian":[4.5E4,2.8469E4,1.6531E4,1.254E4,1.5929E4,1.5651E4,8.8E2,7.157E3,5.383E3,1.5249E4,6.8E2,1.4491E4,1.16E3,5.28E2,3.52E2,3.704E3,3.453E3,4.827E3,5.56E2,1.3682E4,1.567E3,5.67E2,1.13E2,6.876E3,7.615E3,9.57E2,2.03E2,2.76E2,2.52E2,2.16E2,1.36E2,3.376E3,3.28E2,3.016E3,4.37E2,4.459E3,3.68E2,4.64E2,9.2E1,9.932E3,3.75E3,1.382E3,1.85E2,3.93E2,1.74E2,2.2E1,9.1E1,4.041E3,2.835E3,7.338E3,2.77E2,4.43E2,5.14E2,1.63E2,4E1,1.75E2,1.01E2,2.22E2,3E1,1.12E2,1.04E2,1.14E2,2.2E1,3.167E3,2.09E2,2.93E2,3.5E1,2.66E3,3.56E2,3.78E2,5.9E1,2.261E3,2.198E3,2.99E2,6.9E1,3.34E2,1.3E2,3.2E1,6E1,9.196E3,7.36E2,1.405E3,2.345E3,6.73E2,7.09E2,8.9E1,9.6E1,3.55E2,3.8E1,1.22E2,5.2E1,7E0,1.5E1,3.4E1,5.7E1,3.646E3,3.95E2,1.472E3,1.363E3,2.303E3,5.035E3,1.88E2,8.9E1,3.63E2,8E1,5.06E2,8E0,6.5E1,9.8E1,1.2E1,2.8E1,6.9E1,1.06E2,7.9E1,2.2E1,8E1,1.42E2,2.7E1,3E0,5.3E1,5.9E1,4E1,6.4E1,1.03E2,1.1E1,1.2E1,1E1],"tree_param":{"num_deleted":"0","num_feature":"15","num_nodes":"127","size_leaf_vector":"1"}},{"base_weights":[1.16615685E2,-1.4752234E4,1.206007E4,-1.8944625E4,3.5147777E4,7.8612686E3,5.2888098E4,-3.439315E4,-6.51492E3,2.7099068E4,1.0761903E5,4.631498E3,6.2866617E4,4.4625812E4,1.09648586E5,-4.7287348E4,-1.9839617E4,-2.3768262E4,5.224077E3,1.8606793E4,6.608911E4,8.431626E4,1.3858725E5,-5.8479803E2,3.832104E4,5.4816582E4,1.1462599E5,2.2722375E4,5.5666094E4,1.01327984E5,2.1338753E5,-5.066345E4,1.853092E4,-3.2182164E4,-1.4043185E3,-2.9088979E4,2.1275639E4,9.03083E2,5.569967E4,1.4825952E3,3.4550496E4,5.1173777E4,1.0087187E5,3.4872242E4,1.0463058E5,9.313067E4,1.6126273E5,-7.429648E3,2.4137977E4,3.537222E4,1.35562E5,4.986353E4,1.0272546E5,5.865603E4,1.2686258E5,1.6851592E4,9.670947E4,4.832291E4,8.7970766E4,9.1726836E4,1.5388755E5,9.4493125E4,2.4463622E5,-1.685306E4,-3.7956917E3,1.4046609E3,1.7544352E4,-1.0457404E4,1.6309024E4,-1.9946494E3,1.7134725E4,-9.78715E3,1.0765978E4,3.707555E3,2.0195973E4,-2.9031055E3,6.2180366E3,1.2737103E4,2.7227025E4,-2.3328105E3,1.0664436E4,8.537179E3,2.569485E4,2.3977126E3,2.0017213E4,2.5016389E4,5.2949176E4,-1.3912013E4,1.9248713E4,1.6286207E4,3.60842E4,4.732335E4,1.8848742E4,4.0469626E3,5.049424E4,-7.1748823E3,1.0766545E3,5.821381E3,2.6527234E4,7.0501616E3,1.681803E4,3.7796973E4,5.8138957E4,8.6190205E3,1.8692031E4,2.7821693E4,5.071911E4,8.118235E3,2.5482713E4,1.1211336E4,3.9418164E4,2.3306134E2,1.0997775E4,6.7148896E3,3.1900861E4,1.1022447E4,2.1971645E4,2.4586586E4,4.8184938E4,1.5325524E4,3.2188947E4,3.6760566E4,5.6142406E4,9.568869E3,3.5345258E4,4.5445445E4,8.561357E4],"categories":[],"categories_nodes":[],"categories_segments":[],"categories_sizes":[],"default_left":[0,0,0,0,0,0,0,0,0,0,0,0,0,0,0,0,0,0,0,0,0,0,0,0,0,0,0,0,0,0,0,0,0,0,0,0,0,0,0,0,0,0,0,0,0,0,0,0,0,0,0,0,0,0,0,0,0,0,0,0,0,0,0,0,0,0,0,0,0,0,0,0,0,0,0,0,0,0,0,0,0,0,0,0,0,0,0,0,0,0,0,0,0,0,0,0,0,0,0,0,0,0,0,0,0,0,0,0,0,0,0,0,0,0,0,0,0,0,0,0,0,0,0,0,0,0,0],"id":11,"left_children":[1,3,5,7,9,11,13,15,17,19,21,23,25,27,29,31,33,35,37,39,41,43,45,47,49,51,53,55,57,59,61,63,65,67,69,71,73,75,77,79,81,83,85,87,89,91,93,95,97,99,101,103,105,107,109,111,113,115,117,119,121,123,125,-1,-1,-1,-1,-1,-1,-1,-1,-1,-1,-1,-1,-1,-1,-1,-1,-1,-1,-1,-1,-1,-1,-1,-1,-1,-1,-1,-1,-1,-1,-1,-1,-1,-1,-1,-1,-1,-1,-1,-1,-1,-1,-1,-1,-1,-1,-1,-1,-1,-1,-1,-1,-1,-1,-1,-1,-1,-1,-1,-1,-1,-1,-1,-1],"loss_changes":[7.9916994E12,4.194295E12,4.2777615E12,3.5508128E12,9.035321E11,4.0200343E12,1.0864034E12,1.5462868E12,2.0759252E12,4.6233007E11,1.0016981E11,3.7565254E12,5.1663077E11,4.9035556E11,2.3301299E11,9.722145E11,8.816664E11,9.9523206E11,1.3303887E12,3.1419836E11,1.2453714E11,8.775369E10,5.198027E10,3.132679E12,8.1701844E11,2.5305468E11,1.0761876E11,2.9503973E11,3.1623243E11,1.24658385E11,5.490475E10,8.706861E11,1.18123766E11,5.3939877E11,4.7762355E11,8.537398E11,1.7941368E11,1.1789213E12,2.194507E11,1.7563886E11,1.831321E11,1.1831902E11,8.312704E10,6.9606875E10,4.389431E10,3.707858E10,4.149366E10,2.6337608E12,1.219706E12,6.82187E11,2.2407545E10,2.5802283E11,5.1232375E10,2.4278163E10,5.0645172E10,2.0183872E11,3.3395933E10,3.1559254E11,9.564927E10,1.4322146E11,1.9814482E10,5.002277E9,1.7492738E10,0E0,0E0,0E0,0E0,0E0,0E0,0E0,0E0,0E0,0E0,0E0,0E0,0E0,0E0,0E0,0E0,0E0,0E0,0E0,0E0,0E0,0E0,0E0,0E0,0E0,0E0,0E0,0E0,0E0,0E0,0E0,0E0,0E0,0E0,0E0,0E0,0E0,0E0,0E0,0E0,0E0,0E0,0E0,0E0,0E0,0E0,0E0,0E0,0E0,0E0,0E0,0E0,0E0,0E0,0E0,0E0,0E0,0E0,0E0,0E0,0E0,0E0,0E0,0E0],"parents":[2147483647,0,0,1,1,2,2,3,3,4,4,5,5,6,6,7,7,8,8,9,9,10,10,11,11,12,12,13,13,14,14,15,15,16,16,17,17,18,18,19,19,20,20,21,21,22,22,23,23,24,24,25,25,26,26,27,27,28,28,29,29,30,30,31,31,32,32,33,33,34,34,35,35,36,36,37,37,38,38,39,39,40,40,41,41,42,42,43,43,44,44,45,45,46,46,47,47,48,48,49,49,50,50,51,51,52,52,53,53,54,54,55,55,56,56,57,57,58,58,59,59,60,60,61,61,62,62],"right_children":[2,4,6,8,10,12,14,16,18,20,22,24,26,28,30,32,34,36,38,40,42,44,46,48,50,52,54,56,58,60,62,64,66,68,70,72,74,76,78,80,82,84,86,88,90,92,94,96,98,100,102,104,106,108,110,112,114,116,118,120,122,124,126,-1,-1,-1,-1,-1,-1,-1,-1,-1,-1,-1,-1,-1,-1,-1,-1,-1,-1,-1,-1,-1,-1,-1,-1,-1,-1,-1,-1,-1,-1,-1,-1,-1,-1,-1,-1,-1,-1,-1,-1,-1,-1,-1,-1,-1,-1,-1,-1,-1,-1,-1,-1,-1,-1,-1,-1,-1,-1,-1,-1,-1,-1,-1,-1],"split_conditions":[4.863536E0,6.419756E0,6.322335E0,4.8615046E0,7.434247E0,6.609368E0,7.2490544E0,5.050626E0,4.741338E0,5.923392E0,5.102849E0,6.0868535E0,7.4221263E0,4.626859E0,6.4775867E0,6.723441E0,5.30757E0,6.2613125E0,6.713584E0,4.9606957E0,5.622161E0,4.7052283E0,4.6818056E0,5.788689E0,7.688903E0,6.3019643E0,4.1809473E0,6.408634E0,5.9199495E0,6.079561E0,4.101695E0,6.1380916E0,7.2686462E0,6.908555E0,6.8022237E0,6.609368E0,7.1370764E0,5.3851156E0,7.2624245E0,5.69715E0,6.269083E0,4.361624E0,5.9214997E0,4.633906E0,4.0775E0,4.2731667E0,3.0151458E0,4.7449183E0,7.1492796E0,5.3326797E0,6.64207E0,4.747018E0,7.2801824E0,5.139149E0,3.6336117E0,5.111508E0,3.7264378E0,5.550157E0,6.408634E0,4.412021E0,5.485259E0,5.499222E0,4.9660077E0,-1.685306E4,-3.7956917E3,1.4046609E3,1.7544352E4,-1.0457404E4,1.6309024E4,-1.9946494E3,1.7134725E4,-9.78715E3,1.0765978E4,3.707555E3,2.0195973E4,-2.9031055E3,6.2180366E3,1.2737103E4,2.7227025E4,-2.3328105E3,1.0664436E4,8.537179E3,2.569485E4,2.3977126E3,2.0017213E4,2.5016389E4,5.2949176E4,-1.3912013E4,1.9248713E4,1.6286207E4,3.60842E4,4.732335E4,1.8848742E4,4.0469626E3,5.049424E4,-7.1748823E3,1.0766545E3,5.821381E3,2.6527234E4,7.0501616E3,1.681803E4,3.7796973E4,5.8138957E4,8.6190205E3,1.8692031E4,2.7821693E4,5.071911E4,8.118235E3,2.5482713E4,1.1211336E4,3.9418164E4,2.3306134E2,1.0997775E4,6.7148896E3,3.1900861E4,1.1022447E4,2.1971645E4,2.4586586E4,4.8184938E4,1.5325524E4,3.2188947E4,3.6760566E4,5.6142406E4,9.568869E3,3.5345258E4,4.5445445E4,8.561357E4],"split_indices":[4,3,9,5,3,11,9,6,12,5,9,12,11,0,1,11,9,7,5,10,8,13,0,2,12,3,8,7,11,10,14,13,11,10,9,11,7,0,5,6,2,7,0,10,7,7,8,13,2,0,4,1,3,5,13,2,13,3,7,12,2,10,2,0,0,0,0,0,0,0,0,0,0,0,0,0,0,0,0,0,0,0,0,0,0,0,0,0,0,0,0,0,0,0,0,0,0,0,0,0,0,0,0,0,0,0,0,0,0,0,0,0,0,0,0,0,0,0,0,0,0,0,0,0,0,0,0],"split_type":[0,0,0,0,0,0,0,0,0,0,0,0,0,0,0,0,0,0,0,0,0,0,0,0,0,0,0,0,0,0,0,0,0,0,0,0,0,0,0,0,0,0,0,0,0,0,0,0,0,0,0,0,0,0,0,0,0,0,0,0,0,0,0,0,0,0,0,0,0,0,0,0,0,0,0,0,0,0,0,0,0,0,0,0,0,0,0,0,0,0,0,0,0,0,0,0,0,0,0,0,0,0,0,0,0,0,0,0,0,0,0,0,0,0,0,0,0,0,0,0,0,0,0,0,0,0,0],"sum_hessian":[4.5E4,2.0045E4,2.4955E4,1.8492E4,1.553E3,2.2629E4,2.326E3,8.244E3,1.0248E4,1.399E3,1.54E2,2.1375E4,1.254E3,2.032E3,2.94E2,4.37E3,3.874E3,4.149E3,6.099E3,1.15E3,2.49E2,9E1,6.4E1,1.851E4,2.865E3,1.087E3,1.67E2,6.82E2,1.35E3,2.74E2,2E1,4.157E3,2.13E2,2.32E3,1.554E3,3.711E3,4.38E2,5.619E3,4.8E2,5.55E2,5.95E2,1.76E2,7.3E1,2.7E1,6.3E1,2.3E1,4.1E1,1.4497E4,4.013E3,2.782E3,8.3E1,9.87E2,1E2,3.1E1,1.36E2,6.33E2,4.9E1,1.102E3,2.48E2,2.34E2,4E1,5E0,1.5E1,3.63E3,5.27E2,1.59E2,5.4E1,2.251E3,6.9E1,1.427E3,1.27E2,3.52E3,1.91E2,3.68E2,7E1,3.664E3,1.955E3,3.5E2,1.3E2,4.37E2,1.18E2,5.33E2,6.2E1,4.7E1,1.29E2,6.1E1,1.2E1,7E0,2E1,1.6E1,4.7E1,6E0,1.7E1,2E0,3.9E1,5.807E3,8.69E3,3.739E3,2.74E2,1.769E3,1.013E3,7.4E1,9E0,3.67E2,6.2E2,8.9E1,1.1E1,1.5E1,1.6E1,7E0,1.29E2,3.5E2,2.83E2,6E0,4.3E1,7.54E2,3.48E2,2.31E2,1.7E1,6.6E1,1.68E2,2.3E1,1.7E1,2E0,3E0,6E0,9E0],"tree_param":{"num_deleted":"0","num_feature":"15","num_nodes":"127","size_leaf_vector":"1"}},{"base_weights":[1.08675385E2,-1.4525191E4,1.0624824E4,-1.7908635E4,3.930984E4,7.1272007E3,5.3100168E4,-3.528272E4,-8.341354E3,3.0133654E4,9.668897E4,3.3804211E3,4.714971E4,4.6685168E4,1.0789671E5,-4.9932164E4,-2.2358559E4,-1.746351E4,9.590078E3,9.405215E3,4.554065E4,7.0066086E4,1.20739945E5,-1.2944297E4,1.1897921E4,3.9542938E4,9.586584E4,4.2589023E4,1.0579795E5,8.430655E4,1.4240833E5,-5.39455E4,9.231273E3,-4.137452E4,-1.0932817E4,-2.1543621E4,2.5494287E4,-1.2184629E3,2.90322E4,-5.4931997E3,3.482747E4,4.202676E4,1.6040953E5,5.4658613E4,1.1260082E5,1.5083733E5,8.060036E4,-2.8354736E4,-2.7230068E3,8.973947E3,5.822387E4,3.4932164E4,8.335677E4,8.202929E4,1.3109902E5,3.689316E4,8.336811E4,6.811821E4,1.2279837E5,4.689684E4,1.0380814E5,1.187153E5,1.8978475E5,-2.1886107E4,-1.3059798E4,-2.3927438E2,2.3338506E4,-1.3168382E4,1.6869883E4,-4.8635E3,7.4988813E3,-7.67453E3,4.8739463E3,6.2704956E3,3.837543E4,-1.7375885E3,1.6151529E4,6.932738E3,2.4860033E4,-7.4632485E3,3.0156362E3,-6.5221674E2,1.5122753E4,1.1117223E4,3.5740836E4,2.6854932E4,5.2974254E4,9.857587E3,2.5636818E4,8.427275E3,3.626723E4,6.774934E4,3.9163734E4,2.9728286E3,2.8322469E4,-1.4585486E4,-5.3280635E3,-3.3020427E3,6.2438447E3,-1.2124315E3,5.916742E3,1.4356314E4,2.8712797E4,4.035874E3,1.3203846E4,1.5730999E4,3.3272516E4,1.5276181E4,2.8699344E4,1.3573832E4,4.211917E4,6.7742363E3,1.5743462E4,1.0703435E4,2.7910088E4,1.5118824E4,2.9496787E4,3.1232377E4,4.8154215E4,8.459168E3,2.7227293E4,1.3255402E4,3.4949164E4,2.2752688E4,4.0392633E4,2.6749975E4,6.1207785E4],"categories":[],"categories_nodes":[],"categories_segments":[],"categories_sizes":[],"default_left":[0,0,0,0,0,0,0,0,0,0,0,0,0,0,0,0,0,0,0,0,0,0,0,0,0,0,0,0,0,0,0,0,0,0,0,0,0,0,0,0,0,0,0,0,0,0,0,0,0,0,0,0,0,0,0,0,0,0,0,0,0,0,0,0,0,0,0,0,0,0,0,0,0,0,0,0,0,0,0,0,0,0,0,0,0,0,0,0,0,0,0,0,0,0,0,0,0,0,0,0,0,0,0,0,0,0,0,0,0,0,0,0,0,0,0,0,0,0,0,0,0,0,0,0,0,0,0],"id":12,"left_children":[1,3,5,7,9,11,13,15,17,19,21,23,25,27,29,31,33,35,37,39,41,43,45,47,49,51,53,55,57,59,61,63,65,67,69,71,73,75,77,79,81,83,85,87,89,91,93,95,97,99,101,103,105,107,109,111,113,115,117,119,121,123,125,-1,-1,-1,-1,-1,-1,-1,-1,-1,-1,-1,-1,-1,-1,-1,-1,-1,-1,-1,-1,-1,-1,-1,-1,-1,-1,-1,-1,-1,-1,-1,-1,-1,-1,-1,-1,-1,-1,-1,-1,-1,-1,-1,-1,-1,-1,-1,-1,-1,-1,-1,-1,-1,-1,-1,-1,-1,-1,-1,-1,-1,-1,-1,-1],"loss_changes":[6.925445E12,3.4281792E12,3.889738E12,2.942679E12,5.8310486E11,3.6278648E12,6.951907E11,1.1892136E12,1.8680111E12,3.064795E11,8.950697E10,3.076403E12,7.636648E11,4.277042E11,1.5733385E11,7.000042E11,7.2566886E11,1.3271879E12,8.092882E11,1.558581E11,2.1566194E11,4.299689E10,8.32821E10,1.1948286E12,1.9688705E12,3.5930217E11,1.25260005E11,3.85051E11,6.5300857E10,8.705494E10,7.0636536E10,5.4291123E11,1.29333805E11,3.109261E11,3.9661378E11,1.0553524E12,3.0637598E11,6.2377506E11,4.3684476E11,7.8597186E10,8.774471E10,2.0097171E11,2.5360466E9,3.5460923E10,9.915105E9,3.747532E10,3.4203746E10,6.485516E11,8.8966444E11,1.9134402E12,3.3087265E11,3.1616205E11,1.3900723E11,8.1235935E10,5.511512E10,3.262656E11,9.0714145E10,1.5385805E10,3.8273155E10,3.4348982E10,5.689095E10,2.9392503E10,1.9063702E10,0E0,0E0,0E0,0E0,0E0,0E0,0E0,0E0,0E0,0E0,0E0,0E0,0E0,0E0,0E0,0E0,0E0,0E0,0E0,0E0,0E0,0E0,0E0,0E0,0E0,0E0,0E0,0E0,0E0,0E0,0E0,0E0,0E0,0E0,0E0,0E0,0E0,0E0,0E0,0E0,0E0,0E0,0E0,0E0,0E0,0E0,0E0,0E0,0E0,0E0,0E0,0E0,0E0,0E0,0E0,0E0,0E0,0E0,0E0,0E0,0E0,0E0,0E0,0E0],"parents":[2147483647,0,0,1,1,2,2,3,3,4,4,5,5,6,6,7,7,8,8,9,9,10,10,11,11,12,12,13,13,14,14,15,15,16,16,17,17,18,18,19,19,20,20,21,21,22,22,23,23,24,24,25,25,26,26,27,27,28,28,29,29,30,30,31,31,32,32,33,33,34,34,35,35,36,36,37,37,38,38,39,39,40,40,41,41,42,42,43,43,44,44,45,45,46,46,47,47,48,48,49,49,50,50,51,51,52,52,53,53,54,54,55,55,56,56,57,57,58,58,59,59,60,60,61,61,62,62],"right_children":[2,4,6,8,10,12,14,16,18,20,22,24,26,28,30,32,34,36,38,40,42,44,46,48,50,52,54,56,58,60,62,64,66,68,70,72,74,76,78,80,82,84,86,88,90,92,94,96,98,100,102,104,106,108,110,112,114,116,118,120,122,124,126,-1,-1,-1,-1,-1,-1,-1,-1,-1,-1,-1,-1,-1,-1,-1,-1,-1,-1,-1,-1,-1,-1,-1,-1,-1,-1,-1,-1,-1,-1,-1,-1,-1,-1,-1,-1,-1,-1,-1,-1,-1,-1,-1,-1,-1,-1,-1,-1,-1,-1,-1,-1,-1,-1,-1,-1,-1,-1,-1,-1,-1,-1,-1,-1],"split_conditions":[4.796125E0,6.5535626E0,6.408634E0,4.620762E0,7.4096375E0,6.3564754E0,7.3966317E0,4.9453263E0,5.4045205E0,4.8110657E0,7.6413727E0,4.5993476E0,7.2605968E0,6.460133E0,5.0760813E0,6.572193E0,4.7014422E0,6.354907E0,5.3532915E0,5.3152723E0,7.166032E0,5.709758E0,5.0662456E0,4.731796E0,6.8112345E0,6.356133E0,5.577468E0,6.0895095E0,4.432748E0,4.5285444E0,5.5725813E0,4.624996E0,7.4132953E0,6.8634744E0,6.1696186E0,6.2850714E0,7.628066E0,6.723441E0,6.8570333E0,4.7611976E0,4.514269E0,6.760137E0,4.774571E0,5.296226E0,3.3545125E0,4.1092997E0,3.8754976E0,4.576075E0,5.6710415E0,4.882674E0,7.434256E0,4.4568496E0,4.953621E0,4.44558E0,3.8427825E0,5.0104785E0,4.214024E0,5.742218E0,5.7375226E0,5.3765564E0,4.140009E0,4.5247483E0,3.9447584E0,-2.1886107E4,-1.3059798E4,-2.3927438E2,2.3338506E4,-1.3168382E4,1.6869883E4,-4.8635E3,7.4988813E3,-7.67453E3,4.8739463E3,6.2704956E3,3.837543E4,-1.7375885E3,1.6151529E4,6.932738E3,2.4860033E4,-7.4632485E3,3.0156362E3,-6.5221674E2,1.5122753E4,1.1117223E4,3.5740836E4,2.6854932E4,5.2974254E4,9.857587E3,2.5636818E4,8.427275E3,3.626723E4,6.774934E4,3.9163734E4,2.9728286E3,2.8322469E4,-1.4585486E4,-5.3280635E3,-3.3020427E3,6.2438447E3,-1.2124315E3,5.916742E3,1.4356314E4,2.8712797E4,4.035874E3,1.3203846E4,1.5730999E4,3.3272516E4,1.5276181E4,2.8699344E4,1.3573832E4,4.211917E4,6.7742363E3,1.5743462E4,1.0703435E4,2.7910088E4,1.5118824E4,2.9496787E4,3.1232377E4,4.8154215E4,8.459168E3,2.7227293E4,1.3255402E4,3.4949164E4,2.2752688E4,4.0392633E4,2.6749975E4,6.1207785E4],"split_indices":[1,6,7,11,6,6,7,3,3,0,6,11,6,10,8,4,0,7,0,7,8,5,14,0,1,8,13,4,13,0,4,9,4,2,2,5,7,11,3,9,11,5,14,11,14,4,9,13,3,3,1,11,0,11,7,8,9,9,6,2,13,12,3,0,0,0,0,0,0,0,0,0,0,0,0,0,0,0,0,0,0,0,0,0,0,0,0,0,0,0,0,0,0,0,0,0,0,0,0,0,0,0,0,0,0,0,0,0,0,0,0,0,0,0,0,0,0,0,0,0,0,0,0,0,0,0,0],"split_type":[0,0,0,0,0,0,0,0,0,0,0,0,0,0,0,0,0,0,0,0,0,0,0,0,0,0,0,0,0,0,0,0,0,0,0,0,0,0,0,0,0,0,0,0,0,0,0,0,0,0,0,0,0,0,0,0,0,0,0,0,0,0,0,0,0,0,0,0,0,0,0,0,0,0,0,0,0,0,0,0,0,0,0,0,0,0,0,0,0,0,0,0,0,0,0,0,0,0,0,0,0,0,0,0,0,0,0,0,0,0,0,0,0,0,0,0,0,0,0,0,0,0,0,0,0,0,0],"sum_hessian":[4.5E4,1.8816E4,2.6184E4,1.7704E4,1.112E3,2.4193E4,1.991E3,6.286E3,1.1418E4,9.6E2,1.52E2,2.2123E4,2.07E3,1.784E3,2.07E2,2.945E3,3.341E3,7.568E3,3.85E3,4.1E2,5.5E2,7.4E1,7.8E1,7.585E3,1.4538E4,1.792E3,2.78E2,1.67E3,1.14E2,1.25E2,8.2E1,2.758E3,1.87E2,1.253E3,2.088E3,6.912E3,6.56E2,2.475E3,1.375E3,2.59E2,1.51E2,5.35E2,1.5E1,5.6E1,1.8E1,4.3E1,3.5E1,3.024E3,4.561E3,1.3676E4,8.62E2,1.623E3,1.69E2,2.02E2,7.6E1,1.467E3,2.03E2,3.7E1,7.7E1,4.4E1,8.1E1,5.7E1,2.5E1,9.74E2,1.784E3,1.64E2,2.3E1,1.222E3,3.1E1,1.821E3,2.67E2,6.245E3,6.67E2,6.29E2,2.7E1,2.286E3,1.89E2,1.24E3,1.35E2,1.15E2,1.44E2,4.5E1,1.06E2,5.04E2,3.1E1,4E0,1.1E1,3.4E1,2.2E1,2E0,1.6E1,7E0,3.6E1,6E0,2.9E1,1.037E3,1.987E3,3.374E3,1.187E3,6.186E3,7.49E3,6.77E2,1.85E2,4.83E2,1.14E3,8.1E1,8.8E1,6.3E1,1.39E2,8E0,6.8E1,7.66E2,7.01E2,3.5E1,1.68E2,2.5E1,1.2E1,5.4E1,2.3E1,3.2E1,1.2E1,1.5E1,6.6E1,1.7E1,4E1,4E0,2.1E1],"tree_param":{"num_deleted":"0","num_feature":"15","num_nodes":"127","size_leaf_vector":"1"}},{"base_weights":[9.949988E1,-1.2981227E4,9.6534E3,-2.809278E4,-3.055971E3,6.479353E3,5.2132543E4,-4.325144E4,-1.7876336E4,-1.2842935E4,1.1433546E4,-3.903278E3,1.8817002E4,4.6152203E4,1.4677188E5,-5.3199336E4,-2.794409E4,-2.3433008E4,1.353664E4,-2.6541764E4,-1.2392893E1,8.164485E3,6.097814E4,-7.808551E3,3.0931752E4,1.2883976E4,4.2688816E4,3.7443805E4,7.332791E4,7.991352E4,1.5939588E5,-5.914765E4,-2.2546826E4,-3.162988E4,3.4636336E4,-2.7190344E4,2.194019E4,7.3893037E3,6.42983E4,-3.0182111E4,1.7189396E4,-1.449274E4,1.2147489E4,1.2027142E3,3.292431E4,4.7972293E4,8.5438625E4,-1.1361649E4,2.8262766E4,2.7037576E4,1.1118092E5,4.0276885E3,2.8437713E4,3.9226348E4,9.6231375E4,2.9364145E4,6.1767496E4,5.6821668E4,9.696302E4,2.6620523E4,1.3617014E5,9.216743E4,1.6673914E5,-2.2500121E4,-1.4521662E4,-9.482304E3,5.5169497E3,-1.4916888E4,-6.8161367E3,3.141339E2,1.6381498E4,-1.1317728E4,-3.414868E3,3.5655493E3,1.874264E4,9.2983026E2,2.0870385E4,1.6095033E4,4.7109383E4,-9.988786E3,5.926547E3,3.5143323E3,4.127068E4,-5.792301E3,7.2645713E3,-4.121653E2,7.97153E3,-3.3212449E3,4.3695415E3,8.227463E3,2.296719E4,6.4702373E3,1.8025928E4,1.1686844E4,3.1611814E4,-5.437775E3,2.3091086E3,5.999645E3,1.6084015E4,5.9122E3,1.767455E4,3.5169793E4,1.0850447E4,-2.1703777E3,5.2128354E3,7.896519E3,3.2681111E4,8.217439E3,1.6150083E4,2.2159688E4,3.6663586E4,7.0184487E3,1.956804E4,1.6589664E4,3.0370084E4,1.4621228E4,2.9110502E4,2.6632965E4,5.2364004E4,-9.403726E3,1.2895434E4,1.0975182E4,4.781912E4,3.0833488E4,8.883706E3,1.4303954E4,5.029628E4],"categories":[],"categories_nodes":[],"categories_segments":[],"categories_sizes":[],"default_left":[0,0,0,0,0,0,0,0,0,0,0,0,0,0,0,0,0,0,0,0,0,0,0,0,0,0,0,0,0,0,0,0,0,0,0,0,0,0,0,0,0,0,0,0,0,0,0,0,0,0,0,0,0,0,0,0,0,0,0,0,0,0,0,0,0,0,0,0,0,0,0,0,0,0,0,0,0,0,0,0,0,0,0,0,0,0,0,0,0,0,0,0,0,0,0,0,0,0,0,0,0,0,0,0,0,0,0,0,0,0,0,0,0,0,0,0,0,0,0,0,0,0,0,0,0,0,0],"id":13,"left_children":[1,3,5,7,9,11,13,15,17,19,21,23,25,27,29,31,33,35,37,39,41,43,45,47,49,51,53,55,57,59,61,63,65,67,69,71,73,75,77,79,81,83,85,87,89,91,93,95,97,99,101,103,105,107,109,111,113,115,117,119,121,123,125,-1,-1,-1,-1,-1,-1,-1,-1,-1,-1,-1,-1,-1,-1,-1,-1,-1,-1,-1,-1,-1,-1,-1,-1,-1,-1,-1,-1,-1,-1,-1,-1,-1,-1,-1,-1,-1,-1,-1,-1,-1,-1,-1,-1,-1,-1,-1,-1,-1,-1,-1,-1,-1,-1,-1,-1,-1,-1,-1,-1,-1,-1,-1,-1],"loss_changes":[5.623988E12,2.848899E12,3.5062067E12,1.16538E12,1.6261218E12,3.100027E12,1.01651E12,4.6006167E11,7.857993E11,1.2029243E12,7.4826305E11,1.788083E12,1.5657596E12,4.0004433E11,7.757208E10,3.334262E11,2.7696293E11,6.525211E11,2.1078204E11,5.2745968E11,6.226165E11,7.477111E11,8.688625E10,1.5149745E12,4.110621E11,1.2201983E12,4.042672E11,2.5190295E11,1.5522254E11,5.333867E10,2.856924E10,2.5810803E11,1.11857566E11,1.8102524E11,4.488183E10,5.8778295E11,1.1867934E11,1.6116104E11,6.3658263E10,4.758561E11,1.6645194E11,3.0127853E11,3.7489574E11,5.556432E11,2.263392E11,5.9159806E10,8.670052E10,1.3871683E12,2.2099368E11,2.9443208E11,2.3451206E10,8.4891E11,5.4459027E11,3.5620415E11,6.8255744E10,2.0634134E11,7.635036E10,7.491892E10,9.120737E10,1.1781713E10,1.4986379E10,4.2578903E9,6.13548E8,0E0,0E0,0E0,0E0,0E0,0E0,0E0,0E0,0E0,0E0,0E0,0E0,0E0,0E0,0E0,0E0,0E0,0E0,0E0,0E0,0E0,0E0,0E0,0E0,0E0,0E0,0E0,0E0,0E0,0E0,0E0,0E0,0E0,0E0,0E0,0E0,0E0,0E0,0E0,0E0,0E0,0E0,0E0,0E0,0E0,0E0,0E0,0E0,0E0,0E0,0E0,0E0,0E0,0E0,0E0,0E0,0E0,0E0,0E0,0E0,0E0,0E0,0E0,0E0],"parents":[2147483647,0,0,1,1,2,2,3,3,4,4,5,5,6,6,7,7,8,8,9,9,10,10,11,11,12,12,13,13,14,14,15,15,16,16,17,17,18,18,19,19,20,20,21,21,22,22,23,23,24,24,25,25,26,26,27,27,28,28,29,29,30,30,31,31,32,32,33,33,34,34,35,35,36,36,37,37,38,38,39,39,40,40,41,41,42,42,43,43,44,44,45,45,46,46,47,47,48,48,49,49,50,50,51,51,52,52,53,53,54,54,55,55,56,56,57,57,58,58,59,59,60,60,61,61,62,62],"right_children":[2,4,6,8,10,12,14,16,18,20,22,24,26,28,30,32,34,36,38,40,42,44,46,48,50,52,54,56,58,60,62,64,66,68,70,72,74,76,78,80,82,84,86,88,90,92,94,96,98,100,102,104,106,108,110,112,114,116,118,120,122,124,126,-1,-1,-1,-1,-1,-1,-1,-1,-1,-1,-1,-1,-1,-1,-1,-1,-1,-1,-1,-1,-1,-1,-1,-1,-1,-1,-1,-1,-1,-1,-1,-1,-1,-1,-1,-1,-1,-1,-1,-1,-1,-1,-1,-1,-1,-1,-1,-1,-1,-1,-1,-1,-1,-1,-1,-1,-1,-1,-1,-1,-1,-1,-1,-1],"split_conditions":[4.810152E0,4.7274175E0,6.4700637E0,4.7539206E0,5.2317543E0,5.128438E0,7.677673E0,5.2959948E0,6.0292115E0,4.9534855E0,6.9883814E0,6.252919E0,5.856292E0,5.678494E0,3.9481623E0,5.9825115E0,7.0213714E0,6.3720345E0,6.5957484E0,6.3720345E0,4.876995E0,6.0963907E0,5.409279E0,6.322749E0,7.6496663E0,5.336772E0,7.290762E0,5.6676764E0,6.856291E0,4.686675E0,3.891576E0,4.7809362E0,6.9341183E0,4.530617E0,4.8356442E0,5.2413406E0,7.113594E0,6.588167E0,6.409556E0,6.7935753E0,7.1513305E0,6.2552586E0,5.0212917E0,5.05343E0,7.128545E0,4.529523E0,4.530041E0,5.6429434E0,6.9734607E0,5.857994E0,5.9372764E0,5.0880384E0,6.9252667E0,5.1488767E0,5.1035495E0,6.394498E0,6.8693957E0,6.022654E0,6.594292E0,3.1243176E0,3.55229E0,5.685032E0,2.3551652E0,-2.2500121E4,-1.4521662E4,-9.482304E3,5.5169497E3,-1.4916888E4,-6.8161367E3,3.141339E2,1.6381498E4,-1.1317728E4,-3.414868E3,3.5655493E3,1.874264E4,9.2983026E2,2.0870385E4,1.6095033E4,4.7109383E4,-9.988786E3,5.926547E3,3.5143323E3,4.127068E4,-5.792301E3,7.2645713E3,-4.121653E2,7.97153E3,-3.3212449E3,4.3695415E3,8.227463E3,2.296719E4,6.4702373E3,1.8025928E4,1.1686844E4,3.1611814E4,-5.437775E3,2.3091086E3,5.999645E3,1.6084015E4,5.9122E3,1.767455E4,3.5169793E4,1.0850447E4,-2.1703777E3,5.2128354E3,7.896519E3,3.2681111E4,8.217439E3,1.6150083E4,2.2159688E4,3.6663586E4,7.0184487E3,1.956804E4,1.6589664E4,3.0370084E4,1.4621228E4,2.9110502E4,2.6632965E4,5.2364004E4,-9.403726E3,1.2895434E4,1.0975182E4,4.781912E4,3.0833488E4,8.883706E3,1.4303954E4,5.029628E4],"split_indices":[9,10,5,8,12,7,5,13,0,5,12,13,8,0,8,11,13,13,8,13,8,10,11,10,13,12,8,4,5,4,2,4,11,5,1,12,13,12,6,10,0,3,4,3,10,8,7,4,10,10,14,10,2,6,2,9,4,1,9,13,3,1,3,0,0,0,0,0,0,0,0,0,0,0,0,0,0,0,0,0,0,0,0,0,0,0,0,0,0,0,0,0,0,0,0,0,0,0,0,0,0,0,0,0,0,0,0,0,0,0,0,0,0,0,0,0,0,0,0,0,0,0,0,0,0,0,0],"split_type":[0,0,0,0,0,0,0,0,0,0,0,0,0,0,0,0,0,0,0,0,0,0,0,0,0,0,0,0,0,0,0,0,0,0,0,0,0,0,0,0,0,0,0,0,0,0,0,0,0,0,0,0,0,0,0,0,0,0,0,0,0,0,0,0,0,0,0,0,0,0,0,0,0,0,0,0,0,0,0,0,0,0,0,0,0,0,0,0,0,0,0,0,0,0,0,0,0,0,0,0,0,0,0,0,0,0,0,0,0,0,0,0,0,0,0,0,0,0,0,0,0,0,0,0,0,0,0],"sum_hessian":[4.5E4,1.8994E4,2.6006E4,7.529E3,1.1465E4,2.4199E4,1.807E3,3.03E3,4.499E3,6.843E3,4.622E3,1.3141E4,1.1058E4,1.701E3,1.06E2,1.835E3,1.195E3,3.823E3,6.76E2,3.309E3,3.534E3,4.337E3,2.85E2,1.1817E4,1.324E3,8.858E3,2.2E3,1.29E3,4.11E2,1.8E1,8.8E1,1.536E3,2.99E2,1.129E3,6.6E1,3.531E3,2.92E2,6.04E2,7.2E1,3.055E3,2.54E2,1.613E3,1.921E3,3.386E3,9.51E2,1.88E2,9.7E1,1.0758E4,1.059E3,1.264E3,6E1,5.645E3,3.213E3,2.068E3,1.32E2,9.7E2,3.2E2,2.44E2,1.67E2,1E1,8E0,1E1,7.8E1,6.18E2,9.18E2,2.45E2,5.4E1,3.71E2,7.58E2,2.5E1,4.1E1,2.118E3,1.413E3,2.35E2,5.7E1,5.66E2,3.8E1,6.6E1,6E0,2.876E3,1.79E2,2.44E2,1E1,1.435E3,1.78E2,9.92E2,9.29E2,1.765E3,1.621E3,8.46E2,1.05E2,6E1,1.28E2,3E1,6.7E1,7.94E3,2.818E3,8E2,2.59E2,1.029E3,2.35E2,5.5E1,5E0,3.062E3,2.583E3,3.132E3,8.1E1,1.144E3,9.24E2,7.3E1,5.9E1,8.33E2,1.37E2,2.77E2,4.3E1,2.05E2,3.9E1,1.53E2,1.4E1,2E0,8E0,2E0,6E0,8E0,2E0,1E0,