{"learner":{"attributes":{"best_iteration":"99","best_ntree_limit":"100","scikit_learn":"{\"n_estimators\": 100, \"objective\": \"reg:squarederror\", \"max_depth\": null, \"max_leaves\": null, \"max_bin\": null, \"grow_policy\": null, \"learning_rate\": null, \"verbosity\": null, \"booster\": null, \"tree_method\": null, \"gamma\": null, \"min_child_weight\": null, \"max_delta_step\": null, \"subsample\": null, \"sampling_method\": null, \"colsample_bytree\": null, \"colsample_bylevel\": null, \"colsample_bynode\": null, \"reg_alpha\": null, \"reg_lambda\": null, \"scale_pos_weight\": null, \"base_score\": null, \"missing\": NaN, \"num_parallel_tree\": null, \"random_state\": 42, \"n_jobs\": null, \"monotone_constraints\": null, \"interaction_constraints\": null, \"importance_type\": null, \"gpu_id\": null, \"validate_parameters\": null, \"predictor\": null, \"enable_categorical\": false, \"feature_types\": null, \"max_cat_to_onehot\": null, \"max_cat_threshold\": null, \"eval_metric\": null, \"early_stopping_rounds\": null, \"callbacks\": null, \"_estimator_type\": \"regressor\"}"},"feature_names":[],"feature_types":[],"gradient_booster":{"model":{"gbtree_model_param":{"num_parallel_tree":"1","num_trees":"100","size_leaf_vector":"0"},"tree_info":[0,0,0,0,0,0,0,0,0,0,0,0,0,0,0,0,0,0,0,0,0,0,0,0,0,0,0,0,0,0,0,0,0,0,0,0,0,0,0,0,0,0,0,0,0,0,0,0,0,0,0,0,0,0,0,0,0,0,0,0,0,0,0,0,0,0,0,0,0,0,0,0,0,0,0,0,0,0,0,0,0,0,0,0,0,0,0,0,0,0,0,0,0,0,0,0,0,0,0,0],"trees":[{"base_weights":[3.496686E3,3.3792136E3,3.5790435E3],"categories":[],"categories_nodes":[],"categories_segments":[],"categories_sizes":[],"default_left":[1,0,0],"id":0,"left_children":[1,-1,-1],"loss_changes":[8.88832E5,0E0,0E0],"parents":[2147483647,0,0],"right_children":[2,-1,-1],"split_conditions":[4.5585E3,1.0137641E3,1.0737131E3],"split_indices":[7,0,0],"split_type":[0,0,0],"sum_hessian":[1.341E3,5.7E2,7.71E2],"tree_param":{"num_deleted":"0","num_feature":"82","num_nodes":"3","size_leaf_vector":"0"}},{"base_weights":[2.4492356E3,2.3941553E3,2.5656746E3],"categories":[],"categories_nodes":[],"categories_segments":[],"categories_sizes":[],"default_left":[1,0,0],"id":1,"left_children":[1,-1,-1],"loss_changes":[2.464256E6,0E0,0E0],"parents":[2147483647,0,0],"right_children":[2,-1,-1],"split_conditions":[4.8405E3,7.182466E2,7.697024E2],"split_indices":[7,0,0],"split_type":[0,0,0],"sum_hessian":[1.341E3,9.25E2,4.16E2],"tree_param":{"num_deleted":"0","num_feature":"82","num_nodes":"3","size_leaf_vector":"0"}},{"base_weights":[1.7155736E3,1.6051877E3,1.7484259E3,1.7209592E3,1.8675006E3],"categories":[],"categories_nodes":[],"categories_segments":[],"categories_sizes":[],"default_left":[1,0,1,0,0],"id":2,"left_children":[1,-1,3,-1,-1],"loss_changes":[2.059776E6,0E0,1.3184E5,0E0,0E0],"parents":[2147483647,0,0,2,2],"right_children":[2,-1,4,-1,-1],"split_conditions":[4.3655E3,4.8155634E2,5.197E3,5.162878E2,5.602502E2],"split_indices":[7,0,7,0,0],"split_type":[0,0,0,0,0],"sum_hessian":[1.341E3,3.19E2,1.022E3,8.43E2,1.79E2],"tree_param":{"num_deleted":"0","num_feature":"82","num_nodes":"5","size_leaf_vector":"0"}},{"base_weights":[1.2020625E3,1.18546E3,1.361253E3,1.0090547E3,1.1932181E3,1.1662753E3,1.2454614E3],"categories":[],"categories_nodes":[],"categories_segments":[],"categories_sizes":[],"default_left":[1,1,0,0,1,0,0],"id":3,"left_children":[1,3,-1,-1,5,-1,-1],"loss_changes":[1.933312E6,4.69632E5,0E0,0E0,1.88672E5,0E0,0E0],"parents":[2147483647,0,0,1,1,4,4],"right_children":[2,4,-1,-1,6,-1,-1],"split_conditions":[1.5615E3,4.0775E3,4.0837595E2,3.0271643E2,6.7875E3,3.498826E2,3.7363843E2],"split_indices":[6,7,0,0,5,0,0],"split_type":[0,0,0,0,0,0,0],"sum_hessian":[1.341E3,1.222E3,1.19E2,5.7E1,1.165E3,7.84E2,3.81E2],"tree_param":{"num_deleted":"0","num_feature":"82","num_nodes":"7","size_leaf_vector":"0"}},{"base_weights":[8.4251276E2,8.220341E2,9.179345E2,8.10242E2,9.232069E2,6.937671E2,8.165401E2],"categories":[],"categories_nodes":[],"categories_segments":[],"categories_sizes":[],"default_left":[1,1,0,1,0,0,0],"id":4,"left_children":[1,3,-1,5,-1,-1,-1],"loss_changes":[1.318208E6,5.2256E5,0E0,1.392E5,0E0,0E0,0E0],"parents":[2147483647,0,0,1,1,3,3],"right_children":[2,4,-1,6,-1,-1,-1],"split_conditions":[5.0275E3,2.575E2,2.7538037E2,4.3905E3,2.769621E2,2.0813014E2,2.4496204E2],"split_indices":[7,47,0,10,0,0,0],"split_type":[0,0,0,0,0,0,0],"sum_hessian":[1.341E3,1.064E3,2.77E2,9.61E2,1.03E2,5.5E1,9.06E2],"tree_param":{"num_deleted":"0","num_feature":"82","num_nodes":"7","size_leaf_vector":"0"}},{"base_weights":[5.905081E2,5.7997534E2,6.92934E2,5.7079706E2,6.7628467E2,1.5129736E2,6.962142E2,5.607548E2,6.444787E2,6.7963416E2,1.7066614E2,7.0142444E2,2.6094302E2,3.67028E2,5.621495E2,6.4668866E2,1.8190771E2,6.8274066E2,1.8604407E2,7.0454846E2,1.6952014E2,5.623961E2,1.5947607E2,7.076797E2,1.7222925E2],"categories":[],"categories_nodes":[],"categories_segments":[],"categories_sizes":[],"default_left":[1,1,1,1,1,0,1,1,1,1,0,1,0,0,1,0,0,0,0,1,0,0,0,0,0],"id":5,"left_children":[1,3,5,7,9,-1,11,13,15,17,-1,19,-1,-1,21,-1,-1,-1,-1,23,-1,-1,-1,-1,-1],"loss_changes":[1.04592E6,6.9504E5,1.07864E5,4.69536E5,5.506E4,0E0,8.684E4,6.2752E4,1.3212E4,2.6316E4,0E0,7.4984E4,0E0,0E0,8.384E3,0E0,0E0,0E0,0E0,7.1468E4,0E0,0E0,0E0,0E0,0E0],"parents":[2147483647,0,0,1,1,2,2,3,3,4,4,6,6,7,7,8,8,9,9,11,11,14,14,19,19],"right_children":[2,4,6,8,10,-1,12,14,16,18,-1,20,-1,-1,22,-1,-1,-1,-1,24,-1,-1,-1,-1,-1],"split_conditions":[1.5615E3,4.675E2,4.154E3,6.8625E3,1.66E2,4.538921E1,1.7E1,3.8515E3,2.45E1,6.95E3,5.1199844E1,8.5E2,7.828291E1,1.10108406E2,1.025E3,1.940066E2,5.4572315E1,2.048222E2,5.581322E1,3.81E3,5.0856045E1,1.6871884E2,4.7842823E1,2.1230391E2,5.1668777E1],"split_indices":[6,47,7,5,70,0,0,7,64,3,0,34,0,0,56,0,0,0,0,54,0,0,0,0,0],"split_type":[0,0,0,0,0,0,0,0,0,0,0,0,0,0,0,0,0,0,0,0,0,0,0,0,0],"sum_hessian":[1.341E3,1.222E3,1.19E2,1.122E3,1E2,1E0,1.18E2,9.95E2,1.27E2,9.9E1,1E0,1.16E2,2E0,9E0,9.86E2,1.26E2,1E0,9.8E1,1E0,1.15E2,1E0,9.85E2,1E0,1.14E2,1E0],"tree_param":{"num_deleted":"0","num_feature":"82","num_nodes":"25","size_leaf_vector":"0"}},{"base_weights":[4.1434354E2,4.0661276E2,5.0154672E2,3.6403726E2,4.1772388E2,5.0388995E2,1.2892627E2,3.724927E2,2.7231073E2,4.098845E2,4.7389777E2,3.7737244E2,2.3704277E2,2.803884E2,3.5184814E1,3.9690265E2,4.3768164E2,5.037175E2,3.9903244E2,1.8301689E2,3.8001422E2,2.9507605E2,1.3950237E2,1.1127722E2,2.9839096E2,2.2007446E2,3.989239E2,4.5161218E2,3.7343857E2,5.110179E2,2.4273029E2,4.0390897E2,1.1173865E2,3.8086087E2,9.5183716E1,3.1159528E2,1.1089852E2,5.3260498E1,2.3426865E2,3.9952237E2,2.290747E1,4.534512E2,3.0868164E1,3.2306885E1,3.793775E2],"categories":[],"categories_nodes":[],"categories_segments":[],"categories_sizes":[],"default_left":[1,1,1,1,1,0,0,1,1,1,1,1,1,1,0,1,1,1,1,0,1,0,0,0,1,1,1,1,1,0,0,0,0,0,0,0,0,0,0,0,0,0,0,0,0],"id":6,"left_children":[1,3,5,7,9,-1,-1,11,13,15,17,19,21,23,-1,25,27,29,31,-1,33,-1,-1,-1,35,37,39,41,43,-1,-1,-1,-1,-1,-1,-1,-1,-1,-1,-1,-1,-1,-1,-1,-1],"loss_changes":[7.00784E5,4.33568E5,2.6712E4,1.03324E5,2.3512E5,0E0,0E0,6.8514E4,3.99355E4,1.37712E5,5.1268E4,4.803E4,2.1102688E4,4.290675E4,0E0,1.26296E5,6.8508E4,2.2668E4,6.705E3,0E0,1.8008E4,0E0,0E0,0E0,1.991025E4,8.832844E3,1.2384E5,1.50812E5,9.512E4,0E0,0E0,0E0,0E0,0E0,0E0,0E0,0E0,0E0,0E0,0E0,0E0,0E0,0E0,0E0,0E0],"parents":[2147483647,0,0,1,1,2,2,3,3,4,4,7,7,8,8,9,9,10,10,11,11,12,12,13,13,15,15,16,16,17,17,18,18,20,20,24,24,25,25,26,26,27,27,28,28],"right_children":[2,4,6,8,10,-1,-1,12,14,16,18,20,22,24,-1,26,28,30,32,-1,34,-1,-1,-1,36,38,40,42,44,-1,-1,-1,-1,-1,-1,-1,-1,-1,-1,-1,-1,-1,-1,-1,-1],"split_conditions":[5.405E3,4.3175E3,2.5E2,4.7755E3,5.5E1,1.5116699E2,3.8677883E1,3.075E2,7.2555E3,1.5205E3,4.935E2,6.4815E3,5.377E3,8E0,1.0555445E1,4.4035E3,6.0005E3,1.2675E3,1.0115E3,5.490507E1,2.775E3,8.852282E1,4.185071E1,3.3383167E1,3.5E0,4.7305E3,9E0,5.347E3,6.006E3,1.5330537E2,7.281909E1,1.2117269E2,3.3521595E1,1.1425826E2,2.8555117E1,9.3478584E1,3.3269558E1,1.597815E1,7.0280594E1,1.1985671E2,6.8722415E0,1.3603537E2,9.260449E0,9.692066E0,1.13813255E2],"split_indices":[7,7,28,10,47,0,0,48,3,6,63,5,8,1,0,10,8,13,28,0,4,0,0,0,0,3,76,10,8,0,0,0,0,0,0,0,0,0,0,0,0,0,0,0,0],"split_type":[0,0,0,0,0,0,0,0,0,0,0,0,0,0,0,0,0,0,0,0,0,0,0,0,0,0,0,0,0,0,0,0,0,0,0,0,0,0,0,0,0,0,0,0,0],"sum_hessian":[1.341E3,1.237E3,1.04E2,2.63E2,9.74E2,1.03E2,1E0,2.38E2,2.5E1,8.62E2,1.12E2,2.28E2,1E1,2.4E1,1E0,5.98E2,2.64E2,7.6E1,3.6E1,4E0,2.24E2,5E0,5E0,3E0,2.1E1,8E0,5.9E2,2.12E2,5.2E1,7.3E1,3E0,3.5E1,1E0,2.23E2,1E0,1.9E1,2E0,1E0,7E0,5.89E2,1E0,2.11E2,1E0,1E0,5.1E1],"tree_param":{"num_deleted":"0","num_feature":"82","num_nodes":"45","size_leaf_vector":"0"}},{"base_weights":[2.9119638E2,2.8568857E2,3.6464163E2,2.794948E2,3.4570102E2,1.4525586E2,3.7053708E2,2.4887642E2,2.866615E2,2.828623E2,3.725717E2,3.848391E2,2.6847354E2,2.5003052E2,-4.2435303E0,2.4671443E2,2.9118903E2,2.9518613E2,4.06888E1,3.7521436E2,8.718555E1,3.874594E2,9.677954E1,2.5240228E2,1.2218457E2,2.573252E2,1.3747057E2,2.864635E2,3.307074E2,3.02296E2,2.3170654E1,-1.044043E1,7.147363E1,3.9012646E2,9.7714966E1,2.5685394E2,1.6918837E2,2.690391E2,1.3670999E2,3.7445557E1,1.4372852E2,2.8695734E2,-3.9002075E1,1.7502432E2,3.365218E2,3.12108E2,9.3598305E1,3.9245288E2,1.12476074E2],"categories":[],"categories_nodes":[],"categories_segments":[],"categories_sizes":[],"default_left":[1,1,1,1,1,0,1,1,1,1,1,1,0,1,0,1,1,1,1,0,0,1,0,1,0,1,1,1,1,1,0,0,0,1,0,0,0,0,0,0,0,0,0,0,0,0,0,0,0],"id":7,"left_children":[1,3,5,7,9,-1,11,13,15,17,19,21,-1,23,-1,25,27,29,31,-1,-1,33,-1,35,-1,37,39,41,43,45,-1,-1,-1,47,-1,-1,-1,-1,-1,-1,-1,-1,-1,-1,-1,-1,-1,-1,-1],"loss_changes":[4.38688E5,3.6912E5,6.2581E4,1.79024E5,8.5416E4,0E0,2.3677E4,6.6496E4,9.4192E4,1.0140075E5,2.4605E4,1.8357E4,0E0,3.6779E4,0E0,8.05415E4,5.8208E4,6.261925E4,5.468229E3,0E0,0E0,1.8291E4,0E0,3.7299E4,0E0,9.03785E4,1.5034688E3,1.29976E5,1.4422E4,4.245825E4,0E0,0E0,0E0,2.365E3,0E0,0E0,0E0,0E0,0E0,0E0,0E0,0E0,0E0,0E0,0E0,0E0,0E0,0E0,0E0],"parents":[2147483647,0,0,1,1,2,2,3,3,4,4,6,6,7,7,8,8,9,9,10,10,11,11,13,13,15,15,16,16,17,17,18,18,21,21,23,23,25,25,26,26,27,27,28,28,29,29,33,33],"right_children":[2,4,6,8,10,-1,12,14,16,18,20,22,-1,24,-1,26,28,30,32,-1,-1,34,-1,36,-1,38,40,42,44,46,-1,-1,-1,48,-1,-1,-1,-1,-1,-1,-1,-1,-1,-1,-1,-1,-1,-1,-1],"split_conditions":[6.9135E3,1.551E3,4.198E3,6.6695E3,5.0105E3,4.357676E1,2.9E2,1.0025E3,4.1955E3,7.5E0,8.5E2,4.585E2,8.054207E1,1.35E1,-1.2730591E0,8.5E0,4.6E2,6.8855E3,2.5E0,1.1256431E2,2.6155664E1,9.925E2,2.9033863E1,8.503E3,3.6655373E1,5.564E3,6.029E3,5.025E2,5.2875E3,3.015E3,6.9511967E0,-3.132129E0,2.1442091E1,7.175E2,2.9314491E1,7.705618E1,5.075651E1,8.071173E1,4.1013E1,1.1233667E1,4.3118557E1,8.6087204E1,-1.1700623E1,5.2507298E1,1.0095654E2,9.36324E1,2.8079493E1,1.1773587E2,3.3742825E1],"split_indices":[5,6,7,5,7,0,55,17,7,78,34,1,0,80,0,80,47,5,0,0,0,50,0,9,0,8,2,34,8,54,0,0,0,17,0,0,0,0,0,0,0,0,0,0,0,0,0,0,0],"split_type":[0,0,0,0,0,0,0,0,0,0,0,0,0,0,0,0,0,0,0,0,0,0,0,0,0,0,0,0,0,0,0,0,0,0,0,0,0,0,0,0,0,0,0,0,0,0,0,0,0],"sum_hessian":[1.341E3,1.252E3,8.9E1,1.14E3,1.12E2,3E0,8.6E1,2.23E2,9.17E2,3.7E1,7.5E1,7.3E1,1.3E1,2.22E2,1E0,9.9E1,8.18E2,3.5E1,2E0,7.4E1,1E0,7.2E1,1E0,2.17E2,5E0,8.9E1,1E1,7.38E2,8E1,3.4E1,1E0,1E0,1E0,7.1E1,1E0,2.04E2,1.3E1,8E1,9E0,1E0,9E0,7.37E2,1E0,4E0,7.6E1,3.2E1,2E0,7E1,1E0],"tree_param":{"num_deleted":"0","num_feature":"82","num_nodes":"49","size_leaf_vector":"0"}},{"base_weights":[2.0472183E2,1.8920679E2,2.2080247E2,1.8466757E2,2.5016504E2,2.1453297E2,2.802864E2,1.429248E2,1.880812E2,1.7131305E2,2.6779953E2,2.1638551E2,9.6508255E1,2.872484E2,1.12746704E2,1.5246371E2,-6.687826E1,1.3046976E2,1.9070074E2,1.8852693E2,-4.128418E-1,9.502653E1,2.7539102E2,2.0955017E2,2.5632953E2,1.1958457E2,-6.712744E1,8.826774E1,2.9298346E2,2.9395508E1,1.3073193E2,1.6207695E2,-5.537386E1,3.686255E1,1.4843532E2,2.2053148E2,1.8590652E2,1.00816E2,2.834018E2,2.1308983E2,1.6179192E2,1.0782548E2,2.667722E2,4.7993652E1,1.4341016E2,2.960604E2,6.4953E1,1.67896E2,5.4638794E1,1.0051147E1,-9.311194E1,4.7636963E1,1.0209147E1,1.5992915E2,5.0983887E1,2.9615723E1,2.2277176E2,1.1402229E2,1.8854184E2,2.1356276E2,-3.649292E0,-7.750537E1,1.7012883E2,1.2891357E2,3.6736816E1,2.6889014E2,5.5021362E1,5.9634113E1,1.6499374E2,1.3942273E2,3.026702E2],"categories":[],"categories_nodes":[],"categories_segments":[],"categories_sizes":[],"default_left":[1,1,1,1,1,1,1,1,1,1,1,1,1,1,1,1,0,1,1,0,0,0,1,1,1,1,0,0,1,0,0,1,1,1,1,1,1,0,0,1,1,1,1,0,1,1,0,0,0,0,0,0,0,0,0,0,0,0,0,0,0,0,0,0,0,0,0,0,0,0,0],"id":8,"left_children":[1,3,5,7,9,11,13,15,17,19,21,23,25,27,29,31,-1,33,35,-1,-1,-1,37,39,41,43,-1,-1,45,-1,-1,47,49,51,53,55,57,-1,-1,59,61,63,65,-1,67,69,-1,-1,-1,-1,-1,-1,-1,-1,-1,-1,-1,-1,-1,-1,-1,-1,-1,-1,-1,-1,-1,-1,-1,-1,-1],"loss_changes":[2.9304E5,1.44726E5,1.83398E5,6.517E4,1.669575E4,1.0921E5,3.64325E4,1.16265125E5,6.4762E4,3.2594594E4,1.97365E4,1.06008E5,4.956461E4,3.80445E4,2.1534297E3,1.10872375E5,0E0,4.329775E4,3.995E4,0E0,0E0,0E0,1.75785E4,5.0894E4,9.68485E4,1.0174172E4,0E0,0E0,1.8658E4,0E0,0E0,2.1460625E4,8.342923E3,1.2367153E3,1.8728375E4,2.4625E4,7.2084E4,0E0,0E0,4.8646E4,9.099081E4,5.758E3,1.8841E4,0E0,2.8180625E3,1.26745E4,0E0,0E0,0E0,0E0,0E0,0E0,0E0,0E0,0E0,0E0,0E0,0E0,0E0,0E0,0E0,0E0,0E0,0E0,0E0,0E0,0E0,0E0,0E0,0E0,0E0],"parents":[2147483647,0,0,1,1,2,2,3,3,4,4,5,5,6,6,7,7,8,8,9,9,10,10,11,11,12,12,13,13,14,14,15,15,17,17,18,18,22,22,23,23,24,24,25,25,28,28,31,31,32,32,33,33,34,34,35,35,36,36,39,39,40,40,41,41,42,42,44,44,45,45],"right_children":[2,4,6,8,10,12,14,16,18,20,22,24,26,28,30,32,-1,34,36,-1,-1,-1,38,40,42,44,-1,-1,46,-1,-1,48,50,52,54,56,58,-1,-1,60,62,64,66,-1,68,70,-1,-1,-1,-1,-1,-1,-1,-1,-1,-1,-1,-1,-1,-1,-1,-1,-1,-1,-1,-1,-1,-1,-1,-1,-1],"split_conditions":[6.7475E3,1.5865E3,5E0,8.5E0,2.45E2,3.175E2,2E2,6.5215E3,4.0185E3,5.475E2,4.7215E3,1.5315E3,5.086E3,6.8235E3,3.85E1,1.2585E3,-2.0063478E1,6.042E3,5.221E3,5.6558083E1,-1.2385254E-1,2.850796E1,4.5075E3,6.8155E3,4.588E3,1.5E0,-2.0138233E1,2.6480322E1,1.35E1,8.818653E0,3.921958E1,1.5E0,1.5E0,4.0035E3,8.5E0,4.8475E3,4.46E3,3.0244802E1,8.502054E1,4.5E2,6.8245E3,1.5E0,6.142E3,1.4398096E1,6.7595E3,2.4975E3,1.94859E1,5.03688E1,1.639164E1,3.0153444E0,-2.7933582E1,1.4291089E1,3.0627444E0,4.797875E1,1.5295167E1,8.884717E0,6.683153E1,3.4206688E1,5.6562553E1,6.406883E1,-1.0947876E0,-2.3251612E1,5.103865E1,3.8674072E1,1.1021046E1,8.0667046E1,1.6506409E1,1.7890234E1,4.9498127E1,4.182682E1,9.080106E1],"split_indices":[5,6,0,1,63,48,33,8,7,13,3,6,3,5,1,54,0,2,8,0,0,0,10,3,10,78,0,0,67,0,0,70,0,7,73,8,10,0,0,25,3,0,10,0,5,19,0,0,0,0,0,0,0,0,0,0,0,0,0,0,0,0,0,0,0,0,0,0,0,0,0],"split_type":[0,0,0,0,0,0,0,0,0,0,0,0,0,0,0,0,0,0,0,0,0,0,0,0,0,0,0,0,0,0,0,0,0,0,0,0,0,0,0,0,0,0,0,0,0,0,0,0,0,0,0,0,0,0,0,0,0,0,0,0,0,0,0,0,0,0,0,0,0,0,0],"sum_hessian":[1.341E3,6.89E2,6.52E2,6.45E2,4.4E1,5.94E2,5.8E1,5.2E1,5.93E2,1E1,3.4E1,5.84E2,1E1,5.5E1,3E0,5E1,2E0,2.8E1,5.65E2,9E0,1E0,2E0,3.2E1,5.04E2,8E1,9E0,1E0,2E0,5.3E1,1E0,2E0,4.8E1,2E0,5E0,2.3E1,7.2E1,4.93E2,2E0,3E1,4.66E2,3.8E1,6E0,7.4E1,3E0,6E0,5.2E1,1E0,4.5E1,3E0,1E0,1E0,3E0,2E0,2E1,3E0,1E0,7.1E1,1.9E1,4.74E2,4.65E2,1E0,1E0,3.7E1,4E0,2E0,7.3E1,1E0,2E0,4E0,3E0,4.9E1],"tree_param":{"num_deleted":"0","num_feature":"82","num_nodes":"71","size_leaf_vector":"0"}},{"base_weights":[1.4404674E2,1.405178E2,1.8992957E2,1.2572402E2,1.4903178E2,1.9702379E2,5.4226032E1,6.038858E1,1.282311E2,1.5502983E2,1.23536316E2,2.0259377E2,8.713509E1,8.24808E1,1.9478455E1,9.199769E1,-4.6516457E1,1.10091774E2,1.3680959E2,1.6301106E2,1.333343E2,1.3154097E2,4.5774628E1,2.045306E2,2.188684E1,2.3134115E1,1.1335205E2,2.3713379E1,3.3868408E0,1.0339171E2,-3.3759277E1,9.671753E0,-6.2981445E1,1.1297834E2,-6.7085045E1,1.4720193E2,1.1155226E2,1.7949207E2,1.4522536E2,1.2546998E2,1.884026E2,1.838792E2,1.20224686E2,-5.7062603E1,1.1318323E2,2.0616634E2,3.6017944E1,1.7892008E1,1.1615066E2,1.27546844E2,8.245587E1,1.4918137E2,3.7000343E1,1.15311615E2,-3.715926E1,1.8181696E2,3.6648827E1,1.490436E2,6.471328E1,1.4771375E2,1.1018812E2,1.995795E2,5.8540363E1,1.9808943E2,2.3114502E1,1.2234206E2,-6.3753662E1,4.041638E1,-8.0045166E1,1.4244626E2,-2.5792644E0,4.738684E1,2.0755875E2],"categories":[],"categories_nodes":[],"categories_segments":[],"categories_sizes":[],"default_left":[1,1,1,1,1,1,1,1,1,1,1,1,1,0,1,1,1,1,1,1,1,1,1,1,0,0,0,0,0,1,0,0,0,1,0,1,1,1,1,1,1,1,1,1,1,1,0,0,0,0,0,0,0,0,0,0,0,0,0,0,0,0,0,0,0,0,0,0,0,0,0,0,0],"id":9,"left_children":[1,3,5,7,9,11,13,15,17,19,21,23,25,-1,27,29,31,33,35,37,39,41,43,45,-1,-1,-1,-1,-1,47,-1,-1,-1,49,-1,51,53,55,57,59,61,63,65,67,69,71,-1,-1,-1,-1,-1,-1,-1,-1,-1,-1,-1,-1,-1,-1,-1,-1,-1,-1,-1,-1,-1,-1,-1,-1,-1,-1,-1],"loss_changes":[1.90604E5,1.38708E5,7.884825E4,6.8096E4,1.01352E5,3.621E4,4.2841094E3,6.8483695E4,5.41845E4,8.8046E4,9.045925E4,2.457325E4,7.445168E3,0E0,1.9227368E2,2.4983578E4,5.234832E3,8.3271375E4,6.1799E4,1.08479E5,5.258225E4,6.08115E4,1.1737234E5,1.5177E4,0E0,0E0,0E0,0E0,0E0,1.319425E4,0E0,0E0,0E0,5.440425E4,0E0,3.98525E4,5.515925E4,7.10465E4,5.98305E4,3.7092E4,1.7345688E4,4.796475E4,5.3766625E4,1.8917354E4,3.424303E4,8.0725E3,0E0,0E0,0E0,0E0,0E0,0E0,0E0,0E0,0E0,0E0,0E0,0E0,0E0,0E0,0E0,0E0,0E0,0E0,0E0,0E0,0E0,0E0,0E0,0E0,0E0,0E0,0E0],"parents":[2147483647,0,0,1,1,2,2,3,3,4,4,5,5,6,6,7,7,8,8,9,9,10,10,11,11,12,12,14,14,15,15,16,16,17,17,18,18,19,19,20,20,21,21,22,22,23,23,29,29,33,33,35,35,36,36,37,37,38,38,39,39,40,40,41,41,42,42,43,43,44,44,45,45],"right_children":[2,4,6,8,10,12,14,16,18,20,22,24,26,-1,28,30,32,34,36,38,40,42,44,46,-1,-1,-1,-1,-1,48,-1,-1,-1,50,-1,52,54,56,58,60,62,64,66,68,70,72,-1,-1,-1,-1,-1,-1,-1,-1,-1,-1,-1,-1,-1,-1,-1,-1,-1,-1,-1,-1,-1,-1,-1,-1,-1,-1,-1],"split_conditions":[5.4595E3,6.7015E3,7.9E2,6.5105E3,4.05E3,6.462E3,5.95E2,5E0,4.3705E3,4.5E0,6.126E3,1.2375E3,5.6085E3,2.474424E1,6.747E3,6.487E3,6.1515E3,5.9605E3,5.1045E3,3.5E0,1.5275E3,5.5575E3,1.516E3,5E2,6.5660524E0,6.9402347E0,3.4005615E1,7.114014E0,1.0160522E0,5.55E2,-1.0127784E1,2.901526E0,-1.8894434E1,5.372E3,-2.0125515E1,1.05E1,1.24E3,1.41E3,7.5E0,6.993E3,6.348E3,1.625E2,2.11E3,6.579E3,1.532E3,4.6685E3,1.0805384E1,5.3676023E0,3.48452E1,3.8264053E1,2.4736763E1,4.475441E1,1.1100103E1,3.4593487E1,-1.11477785E1,5.454509E1,1.0994648E1,4.471308E1,1.9413984E1,4.4314125E1,3.305644E1,5.987385E1,1.7562109E1,5.942683E1,6.934351E0,3.6702618E1,-1.9126099E1,1.2124915E1,-2.4013552E1,4.273388E1,-7.7377933E-1,1.4216053E1,6.2267628E1],"split_indices":[7,2,50,5,19,10,4,80,7,64,8,17,3,0,2,5,2,8,10,80,6,3,6,56,0,0,0,0,0,4,0,0,0,8,0,78,53,14,76,2,3,54,54,5,6,10,0,0,0,0,0,0,0,0,0,0,0,0,0,0,0,0,0,0,0,0,0,0,0,0,0,0,0],"split_type":[0,0,0,0,0,0,0,0,0,0,0,0,0,0,0,0,0,0,0,0,0,0,0,0,0,0,0,0,0,0,0,0,0,0,0,0,0,0,0,0,0,0,0,0,0,0,0,0,0,0,0,0,0,0,0,0,0,0,0,0,0,0,0,0,0,0,0,0,0,0,0,0,0],"sum_hessian":[1.341E3,1.249E3,9.2E1,4.62E2,7.87E2,8.7E1,5E0,1.8E1,4.44E2,6.33E2,1.54E2,8.2E1,5E0,2E0,3E0,1.4E1,4E0,1.47E2,2.97E2,4.58E2,1.75E2,1.39E2,1.5E1,8.1E1,1E0,2E0,3E0,2E0,1E0,1.3E1,1E0,1E0,3E0,1.45E2,2E0,2.07E2,9E1,2.33E2,2.25E2,1.56E2,1.9E1,2.2E1,1.17E2,6E0,9E0,8E1,1E0,2E0,1.1E1,9.6E1,4.9E1,2.03E2,4E0,8.8E1,2E0,2.29E2,4E0,2.14E2,1.1E1,6E1,9.6E1,1.7E1,2E0,2E1,2E0,1.16E2,1E0,1E0,5E0,7E0,2E0,1E0,7.9E1],"tree_param":{"num_deleted":"0","num_feature":"82","num_nodes":"73","size_leaf_vector":"0"}},{"base_weights":[1.013561E2,9.410672E1,1.1726672E2,9.110737E1,1.4599086E2,1.0429389E2,1.3436438E2,9.1618965E1,-4.370862E1,1.5239246E2,-2.9645183E0,9.636022E1,1.4679504E2,1.1426042E2,1.5815831E2,7.39921E1,9.623109E1,-1.1451904E1,-5.0643555E1,1.640185E2,8.508046E1,1.2024536E1,-1.6471313E1,1.0586896E2,5.5511196E1,9.402344E0,1.5045192E2,1.1652402E2,-5.3786133E1,5.3549988E1,1.6771758E2,8.974718E1,5.618951E1,9.732777E1,1.1813965E1,1.7019765E2,3.313623E1,-3.3285522E1,1.04036896E2,1.09974144E2,1.10448E1,7.56049E1,-1.433977E1,4.0128418E1,1.5592218E2,1.3292825E2,8.588656E1,7.09755E1,8.489583E-1,1.7304472E2,6.2790382E1,3.2466488E1,9.5957985E1,6.3997604E1,-3.184317E1,9.809206E1,-5.1309E0,2.713365E1,-1.7948975E1,1.7870317E2,5.5351196E1,-8.564941E0,5.8269287E1,1.627295E1,1.3057939E2,1.1345995E2,1.807366E1,-6.0705975E1,4.5079388E1,8.611743E1,1.6137207E0,5.2124023E1,-6.73363E1,1.5964922E2,1.8328491E1,1.2008365E2,2.046188E2,4.562884E0,1.0147944E2,8.397095E0,-7.123657E0,1.7526299E2,1.3319336E1,1.11191895E2,-6.540784E1],"categories":[],"categories_nodes":[],"categories_segments":[],"categories_sizes":[],"default_left":[1,1,1,1,1,1,1,1,1,1,1,1,1,1,1,1,1,0,0,1,1,0,0,1,1,0,1,1,0,1,1,1,1,1,1,1,1,0,1,1,1,1,1,0,1,1,1,0,1,1,1,0,0,0,0,0,0,0,0,0,0,0,0,0,0,0,0,0,0,0,0,0,0,0,0,0,0,0,0,0,0,0,0,0,0],"id":10,"left_children":[1,3,5,7,9,11,13,15,17,19,21,23,25,27,29,31,33,-1,-1,35,37,-1,-1,39,41,-1,43,45,-1,47,49,51,53,55,57,59,61,-1,63,65,67,69,71,-1,73,75,77,-1,79,81,83,-1,-1,-1,-1,-1,-1,-1,-1,-1,-1,-1,-1,-1,-1,-1,-1,-1,-1,-1,-1,-1,-1,-1,-1,-1,-1,-1,-1,-1,-1,-1,-1,-1,-1],"loss_changes":[1.43754E5,1.30957E5,7.8257E4,6.4631E4,4.7175875E4,6.711775E4,6.61185E4,6.40955E4,3.1482715E2,2.2826E4,8.054221E2,7.413825E4,1.6672812E4,4.3925875E4,6.901725E4,4.7126688E4,6.2822E4,0E0,0E0,2.5901125E4,2.3657098E4,0E0,0E0,6.3404E4,5.8630305E4,0E0,1.48655625E4,3.78365E4,0E0,7.2864863E3,2.882075E4,3.139325E4,6.390097E4,5.39095E4,5.0466094E3,2.625125E4,3.6433066E3,0E0,1.6510875E4,4.8884875E4,2.227265E4,2.4751719E4,3.8733348E4,0E0,1.39968125E4,3.2520375E4,4.6455562E4,0E0,2.403532E2,2.1404625E4,3.829776E4,0E0,0E0,0E0,0E0,0E0,0E0,0E0,0E0,0E0,0E0,0E0,0E0,0E0,0E0,0E0,0E0,0E0,0E0,0E0,0E0,0E0,0E0,0E0,0E0,0E0,0E0,0E0,0E0,0E0,0E0,0E0,0E0,0E0,0E0],"parents":[2147483647,0,0,1,1,2,2,3,3,4,4,5,5,6,6,7,7,8,8,9,9,10,10,11,11,12,12,13,13,14,14,15,15,16,16,19,19,20,20,23,23,24,24,26,26,27,27,29,29,30,30,31,31,32,32,33,33,34,34,35,35,36,36,38,38,39,39,40,40,41,41,42,42,44,44,45,45,46,46,48,48,49,49,50,50],"right_children":[2,4,6,8,10,12,14,16,18,20,22,24,26,28,30,32,34,-1,-1,36,38,-1,-1,40,42,-1,44,46,-1,48,50,52,54,56,58,60,62,-1,64,66,68,70,72,-1,74,76,78,-1,80,82,84,-1,-1,-1,-1,-1,-1,-1,-1,-1,-1,-1,-1,-1,-1,-1,-1,-1,-1,-1,-1,-1,-1,-1,-1,-1,-1,-1,-1,-1,-1,-1,-1,-1,-1],"split_conditions":[1.5205E3,6E0,5.25E1,3.5E0,1.8E1,5.231E3,6.9935E3,3.5E0,5.037E3,4.7575E3,5.65E1,5.9085E3,4.745E3,7.224E3,4.5105E3,5.5785E3,2.25E1,-3.4355714E0,-1.5193067E1,2.1E1,1.5065E3,3.607361E0,-4.9413943E0,1.225E3,2.65E1,2.8207033E0,2.5025E3,5.5E0,-1.6135841E1,6.813E3,9.473E3,4.0795E3,7.022E3,1.105E3,5.46E3,4E2,7.9E1,-9.985657E0,1.5E1,9.1E2,2.55E1,6.552E3,6.2185E3,1.2038526E1,4.275E2,4.0025E3,6.5E0,2.1292652E1,1.5E0,6E2,7.0065E3,9.739946E0,2.8787397E1,1.9199282E1,-9.552952E0,2.9427618E1,-1.53927E0,8.140096E0,-5.3846927E0,5.3610954E1,1.660536E1,-2.5694826E0,1.7480787E1,4.881885E0,3.917382E1,3.4037987E1,5.422098E0,-1.8211794E1,1.3523817E1,2.583523E1,4.8411623E-1,1.5637208E1,-2.0200891E1,4.7894768E1,5.4985476E0,3.6025097E1,6.1385643E1,1.3688653E0,3.0443832E1,2.5191286E0,-2.1370974E0,5.25789E1,3.995801E0,3.335757E1,-1.9622353E1],"split_indices":[6,0,1,0,0,7,2,70,3,19,1,8,10,3,10,8,72,0,0,72,6,0,0,53,70,0,19,72,0,5,9,7,2,47,3,56,1,0,1,4,1,8,3,0,47,19,72,0,0,30,2,0,0,0,0,0,0,0,0,0,0,0,0,0,0,0,0,0,0,0,0,0,0,0,0,0,0,0,0,0,0,0,0,0,0],"split_type":[0,0,0,0,0,0,0,0,0,0,0,0,0,0,0,0,0,0,0,0,0,0,0,0,0,0,0,0,0,0,0,0,0,0,0,0,0,0,0,0,0,0,0,0,0,0,0,0,0,0,0,0,0,0,0,0,0,0,0,0,0,0,0,0,0,0,0,0,0,0,0,0,0,0,0,0,0,0,0,0,0,0,0,0,0],"sum_hessian":[1.341E3,9.26E2,4.15E2,8.78E2,4.8E1,2.4E2,1.75E2,8.75E2,3E0,4.6E1,2E0,2.05E2,3.5E1,9.8E1,7.7E1,1.85E2,6.9E2,1E0,2E0,3.8E1,8E0,1E0,1E0,1.65E2,4E1,1E0,3.4E1,9.7E1,1E0,7E0,7E1,9.6E1,8.9E1,6.81E2,9E0,3.6E1,2E0,1E0,7E0,1.58E2,7E0,3.1E1,9E0,2E0,3.2E1,6.1E1,3.6E1,5E0,2E0,6.6E1,4E0,1E1,8.6E1,8.2E1,7E0,6.76E2,5E0,6E0,3E0,3.3E1,3E0,1E0,1E0,2E0,5E0,1.52E2,6E0,2E0,5E0,2.7E1,4E0,4E0,5E0,3.1E1,1E0,5.4E1,7E0,6E0,3E1,1E0,1E0,6.5E1,1E0,3E0,1E0],"tree_param":{"num_deleted":"0","num_feature":"82","num_nodes":"85","size_leaf_vector":"0"}},{"base_weights":[7.1327675E1,6.4611565E1,8.467526E1,6.883797E1,3.891612E1,5.307931E1,9.154154E1,6.7344765E1,1.3940645E2,1.2830657E1,6.440287E1,4.462282E1,1.5275774E2,9.8255005E1,6.1845448E1,7.508099E1,5.7261917E1,8.509904E1,1.5805025E2,-1.1679151E1,5.0044563E1,7.418094E1,-1.4538483E1,5.1827652E1,-4.927226E1,9.502588E1,2.0262524E2,1.3278635E0,7.562441E1,7.676463E1,-2.298242E0,4.7859512E1,7.632006E1,-2.2819761E1,5.5254272E1,6.515059E1,-4.9326233E1,9.2302986E1,2.5045252E1,7.121362E1,-3.696216E1,6.0802322E1,-3.4684615E0,-7.679321E1,3.8464355E0,9.721602E1,5.945282E0,2.8243082E1,-1.06775635E2,8.5435905E1,-2.2012655E1,-1.3586995E1,7.789963E1,4.4041138E1,-2.8449568E1,5.2958252E1,-1.7640251E1,5.647423E1,9.245484E1,-2.1658034E0,-5.7606014E1,6.76768E1,-3.4291992E0,-7.050452E1,7.4521484E1,-5.6459473E1,-1.3963257E1,1.3632875E2,6.542122E1,-9.575753E0,4.479996E1,-5.8457825E1,-6.225952E0,6.3768505E1,-1.8788818E1,2.9500162E1,-1.0121818E2,-5.573242E0,1.13428955E1,5.7608807E1,1.0170255E2,2.8133057E1,-2.3275757E1,9.074707E0,6.431116E1,1.0109537E2,4.0069546E1,3.9610413E1,-9.6839195E1],"categories":[],"categories_nodes":[],"categories_segments":[],"categories_sizes":[],"default_left":[1,1,1,1,1,1,1,1,1,1,1,1,0,1,1,1,1,0,0,1,1,1,1,1,1,1,0,1,1,1,1,1,1,1,1,1,1,1,1,0,1,1,1,0,1,1,1,1,0,1,1,0,0,0,0,0,0,0,0,0,0,0,0,0,0,0,0,0,0,0,0,0,0,0,0,0,0,0,0,0,0,0,0,0,0,0,0,0,0],"id":11,"left_children":[1,3,5,7,9,11,13,15,17,19,21,23,-1,25,27,29,31,-1,-1,33,35,37,39,41,43,45,-1,47,49,51,53,55,57,59,61,63,65,67,69,-1,71,73,75,-1,77,79,81,83,-1,85,87,-1,-1,-1,-1,-1,-1,-1,-1,-1,-1,-1,-1,-1,-1,-1,-1,-1,-1,-1,-1,-1,-1,-1,-1,-1,-1,-1,-1,-1,-1,-1,-1,-1,-1,-1,-1,-1,-1],"loss_changes":[1.148305E5,9.473475E4,9.189925E4,7.164325E4,8.493725E4,6.230375E4,6.669125E4,5.459325E4,1.7375E3,5.987135E4,5.1251562E4,5.4644E4,0E0,8.050475E4,5.827047E4,5.54145E4,5.5839125E4,0E0,0E0,3.1088062E4,4.2242188E4,4.933372E4,1.8015229E4,3.594192E4,9.066644E3,5.58055E4,0E0,4.375049E4,5.648472E4,4.361625E4,1.3371313E4,7.6076625E4,2.9361125E4,2.5021816E4,4.6060625E3,3.4491906E4,2.2065332E2,4.0787812E4,1.2055767E4,0E0,4.260911E3,1.5835219E4,3.8435363E4,0E0,2.7505945E2,4.425225E4,5.8416167E3,7.712791E3,0E0,3.2890625E4,3.1502084E4,0E0,0E0,0E0,0E0,0E0,0E0,0E0,0E0,0E0,0E0,0E0,0E0,0E0,0E0,0E0,0E0,0E0,0E0,0E0,0E0,0E0,0E0,0E0,0E0,0E0,0E0,0E0,0E0,0E0,0E0,0E0,0E0,0E0,0E0,0E0,0E0,0E0,0E0],"parents":[2147483647,0,0,1,1,2,2,3,3,4,4,5,5,6,6,7,7,8,8,9,9,10,10,11,11,13,13,14,14,15,15,16,16,19,19,20,20,21,21,22,22,23,23,24,24,25,25,27,27,28,28,29,29,30,30,31,31,32,32,33,33,34,34,35,35,36,36,37,37,38,38,40,40,41,41,42,42,44,44,45,45,46,46,47,47,49,49,50,50],"right_children":[2,4,6,8,10,12,14,16,18,20,22,24,-1,26,28,30,32,-1,-1,34,36,38,40,42,44,46,-1,48,50,52,54,56,58,60,62,64,66,68,70,-1,72,74,76,-1,78,80,82,84,-1,86,88,-1,-1,-1,-1,-1,-1,-1,-1,-1,-1,-1,-1,-1,-1,-1,-1,-1,-1,-1,-1,-1,-1,-1,-1,-1,-1,-1,-1,-1,-1,-1,-1,-1,-1,-1,-1,-1,-1],"split_conditions":[7.4405E3,5.7635E3,4.6475E3,7.0575E3,4.5E0,5.5E2,5.5595E3,3.5E0,5.3105E3,6.793E3,5.3425E3,5.445E2,4.5827324E1,7.491E3,2.5E0,3.725E2,1.5195E3,2.5529713E1,4.7415077E1,6.715E3,7.7E2,4.005E3,2.45E1,6.121E3,1.27E2,7.031E3,6.0787575E1,5.5E0,3.025E2,4.26E3,5.222E3,6.8215E3,5.382E3,6.8E2,7.1625E3,1.4955E3,7E1,3.745E2,5.798E3,2.1364088E1,6.999E3,8.5E0,3.5E0,-2.3037964E1,2E0,6.6095E3,5.1915E3,5.5435E3,-3.2032692E1,8.925E2,6.6085E3,-4.076099E0,2.3369888E1,1.3212342E1,-8.534871E0,1.5887476E1,-5.2920756E0,1.694227E1,2.7736454E1,-6.4974105E-1,-1.7281805E1,2.0303041E1,-1.0287598E0,-2.1151356E1,2.2356445E1,-1.6937843E1,-4.1889772E0,4.089863E1,1.9626366E1,-2.872726E0,1.3439989E1,-1.7537348E1,-1.8677857E0,1.9130552E1,-5.636646E0,8.850049E0,-3.0365454E1,-1.6719728E0,3.4028687E0,1.7282642E1,3.0510767E1,8.439918E0,-6.9827275E0,2.722412E0,1.9293348E1,3.0328611E1,1.20208645E1,1.1883124E1,-2.905176E1],"split_indices":[9,8,7,2,73,28,10,80,8,2,10,63,0,8,65,48,6,0,0,3,4,19,1,8,1,8,0,78,53,10,8,3,3,4,3,6,1,63,3,0,2,78,72,0,0,5,10,7,0,54,8,0,0,0,0,0,0,0,0,0,0,0,0,0,0,0,0,0,0,0,0,0,0,0,0,0,0,0,0,0,0,0,0,0,0,0,0,0,0],"split_type":[0,0,0,0,0,0,0,0,0,0,0,0,0,0,0,0,0,0,0,0,0,0,0,0,0,0,0,0,0,0,0,0,0,0,0,0,0,0,0,0,0,0,0,0,0,0,0,0,0,0,0,0,0,0,0,0,0,0,0,0,0,0,0,0,0,0,0,0,0,0,0,0,0,0,0,0,0,0,0,0,0,0,0,0,0,0,0,0,0],"sum_hessian":[1.341E3,8.96E2,4.45E2,7.68E2,1.28E2,8.1E1,3.64E2,7.54E2,1.4E1,6.4E1,6.4E1,7.6E1,5E0,2.95E2,6.9E1,4.23E2,3.31E2,5E0,9E0,3.9E1,2.5E1,5.7E1,7E0,7.1E1,5E0,2.88E2,7E0,1.3E1,5.6E1,4.14E2,9E0,2.24E2,1.07E2,3.4E1,5E0,2.2E1,3E0,4.1E1,1.6E1,1E0,6E0,6.1E1,1E1,3E0,2E0,2.81E2,7E0,1.1E1,2E0,5.1E1,5E0,5E0,4.09E2,3E0,6E0,2.08E2,1.6E1,5E1,5.7E1,2.2E1,1.2E1,4E0,1E0,1E0,2.1E1,2E0,1E0,1.4E1,2.7E1,6E0,1E1,3E0,3E0,5.9E1,2E0,8E0,2E0,1E0,1E0,3E1,2.51E2,4E0,3E0,8E0,3E0,3.7E1,1.4E1,3E0,2E0],"tree_param":{"num_deleted":"0","num_feature":"82","num_nodes":"89","size_leaf_vector":"0"}},{"base_weights":[5.0188953E1,3.5205082E1,5.3739845E1,3.7682472E1,-4.754294E1,5.2126064E1,9.0662445E1,1.4406657E1,4.251371E1,1.3183655E1,-8.661562E1,5.1464996E1,1.4232858E2,5.712339E1,1.13867195E2,-1.8424047E1,2.3126112E1,6.0929474E1,3.2597416E1,-1.3257243E1,4.6253174E1,-2.5564331E1,-9.5487366E1,-5.550006E0,5.2366558E1,8.0025475E1,-9.652385E0,5.510315E1,1.19375786E2,-3.489816E-1,-4.54494E1,5.374132E1,9.284058E0,-1.5229919E1,6.446147E1,1.9245964E1,5.068139E1,-4.312154E1,1.3698262E1,5.145031E1,1.1020301E2,9.152851E1,3.503825E0,-3.2185303E1,2.3608969E1,3.427356E1,1.217962E2,-2.6291666E1,1.5286426E1,4.333374E0,5.824878E1,-1.0843447E0,4.4026123E1,4.19515E0,-3.6752563E1,6.7049835E1,-1.4832438E1,1.01192045E1,9.113569E1,5.361683E1,-5.8319336E1,-5.0720314E1,-2.5638428E0,4.3579067E1,-2.3445719E1,4.944685E1,7.5263E1,1.4088155E2,4.0704956E1,9.8008545E1,6.884033E0,-2.8310547E0,8.086792E0,-7.5319824E0,-3.7892414E1,3.416687E1,1.246582E0,1.2445349E2,3.4325195E1],"categories":[],"categories_nodes":[],"categories_segments":[],"categories_sizes":[],"default_left":[1,1,1,1,1,1,1,1,1,1,1,1,0,1,1,1,1,1,1,0,0,0,0,1,1,1,1,0,1,1,0,1,1,1,1,1,1,1,1,1,1,1,1,1,1,0,1,0,0,0,0,0,0,0,0,0,0,0,0,0,0,0,0,0,0,0,0,0,0,0,0,0,0,0,0,0,0,0,0],"id":12,"left_children":[1,3,5,7,9,11,13,15,17,19,21,23,-1,25,27,29,31,33,35,-1,-1,-1,-1,37,39,41,43,-1,45,47,-1,49,51,53,55,57,59,61,63,65,67,69,71,73,75,-1,77,-1,-1,-1,-1,-1,-1,-1,-1,-1,-1,-1,-1,-1,-1,-1,-1,-1,-1,-1,-1,-1,-1,-1,-1,-1,-1,-1,-1,-1,-1,-1,-1],"loss_changes":[6.951075E4,5.5091312E4,5.9805E4,2.7837656E4,2.0123918E4,5.469025E4,2.7739219E4,1.330804E4,3.6180594E4,4.110741E3,2.6708594E2,5.3441E4,0E0,3.1358516E4,1.5146875E3,4.8689897E3,1.4757047E4,2.0349375E4,3.2344328E4,0E0,0E0,0E0,0E0,1.2884869E4,4.82765E4,1.2882766E4,5.2567134E3,0E0,3.5721875E2,3.2412766E3,0E0,2.197332E3,9.413451E3,1.826498E3,1.5156156E4,5.2223523E4,2.1684875E4,1.7190938E3,1.4340447E4,4.417675E4,2.6246906E4,6.455797E3,1.09991776E2,2.773921E2,6.657079E2,0E0,6.0928125E2,0E0,0E0,0E0,0E0,0E0,0E0,0E0,0E0,0E0,0E0,0E0,0E0,0E0,0E0,0E0,0E0,0E0,0E0,0E0,0E0,0E0,0E0,0E0,0E0,0E0,0E0,0E0,0E0,0E0,0E0,0E0,0E0],"parents":[2147483647,0,0,1,1,2,2,3,3,4,4,5,5,6,6,7,7,8,8,9,9,10,10,11,11,13,13,14,14,15,15,16,16,17,17,18,18,23,23,24,24,25,25,26,26,28,28,29,29,31,31,32,32,33,33,34,34,35,35,36,36,37,37,38,38,39,39,40,40,41,41,42,42,43,43,44,44,46,46],"right_children":[2,4,6,8,10,12,14,16,18,20,22,24,-1,26,28,30,32,34,36,-1,-1,-1,-1,38,40,42,44,-1,46,48,-1,50,52,54,56,58,60,62,64,66,68,70,72,74,76,-1,78,-1,-1,-1,-1,-1,-1,-1,-1,-1,-1,-1,-1,-1,-1,-1,-1,-1,-1,-1,-1,-1,-1,-1,-1,-1,-1,-1,-1,-1,-1,-1,-1],"split_conditions":[4.3165E3,7.0435E3,7.054E3,4.0185E3,4.16E3,4.85E2,2.95E1,6.6705E3,5.1665E3,2.5E0,2.9E1,4.4345E3,4.2698578E1,2.35E1,5.268E3,4.5E0,6.6785E3,4.5715E3,6.7015E3,-3.977173E0,1.3875953E1,-7.6692996E0,-2.8646212E1,3.6E1,7.49E3,1E0,6.35E2,1.6530945E1,2.7E2,6.5685E3,-1.3634821E1,4.0935E3,4.14E2,4.25E1,4.307E3,9.7E2,1.5E1,6.6355E3,7.8E1,1.5925E3,6.07E3,8.05E2,4.5E0,3.35E1,4.5E0,1.0282068E1,7.125E2,-7.8875003E0,4.585928E0,1.3000122E0,1.7474634E1,-3.2530344E-1,1.3207837E1,1.258545E0,-1.1025769E1,2.0114952E1,-4.449732E0,3.0357616E0,2.7340708E1,1.6085049E1,-1.7495802E1,-1.5216095E1,-7.691529E-1,1.3073721E1,-7.0337157E0,1.4834056E1,2.2578901E1,4.2264465E1,1.2211488E1,2.9402565E1,2.06521E0,-8.493164E-1,2.4260378E0,-2.259595E0,-1.1367724E1,1.0250061E1,3.7397462E-1,3.733605E1,1.0297559E1],"split_indices":[7,3,2,7,7,58,70,2,8,0,1,10,0,70,8,72,5,3,2,0,0,0,0,1,8,67,4,0,4,5,0,10,63,1,7,14,71,3,1,6,10,56,0,1,0,0,50,0,0,0,0,0,0,0,0,0,0,0,0,0,0,0,0,0,0,0,0,0,0,0,0,0,0,0,0,0,0,0,0],"split_type":[0,0,0,0,0,0,0,0,0,0,0,0,0,0,0,0,0,0,0,0,0,0,0,0,0,0,0,0,0,0,0,0,0,0,0,0,0,0,0,0,0,0,0,0,0,0,0,0,0,0,0,0,0,0,0,0,0,0,0,0,0,0,0,0,0,0,0,0,0,0,0,0,0,0,0,0,0,0,0],"sum_hessian":[1.341E3,2.59E2,1.082E3,2.52E2,7E0,1.039E3,4.3E1,4.4E1,2.08E2,3E0,4E0,1.033E3,6E0,1.9E1,2.4E1,9E0,3.5E1,7.1E1,1.37E2,2E0,1E0,1E0,3E0,1.6E1,1.017E3,1.4E1,5E0,3E0,2.1E1,6E0,3E0,1E1,2.5E1,3E0,6.8E1,8E1,5.7E1,5E0,1.1E1,1.003E3,1.4E1,1.2E1,2E0,3E0,2E0,1E0,2E1,2E0,4E0,1E0,9E0,2E1,5E0,2E0,1E0,6.6E1,2E0,7.2E1,8E0,5.6E1,1E0,4E0,1E0,6E0,5E0,9.28E2,7.5E1,9E0,5E0,1.1E1,1E0,1E0,1E0,1E0,2E0,1E0,1E0,1.9E1,1E0],"tree_param":{"num_deleted":"0","num_feature":"82","num_nodes":"79","size_leaf_vector":"0"}},{"base_weights":[3.5320328E1,2.8819347E1,4.2135574E1,3.3461407E1,1.48609295E1,3.9004738E1,6.849635E1,3.1680521E1,1.4281024E2,2.2248875E1,-1.993665E1,2.430251E1,4.5154945E1,8.399587E1,3.2270275E1,3.449989E1,-5.567162E-1,1.6530376E2,5.0219807E1,2.6599562E1,-2.7825317E1,7.568088E0,-5.3875835E1,3.96428E1,-1.4841074E1,4.345879E1,1.3708133E2,4.3333324E1,1.18045586E2,1.1341853E1,5.6250195E1,1.4862688E1,4.0547E1,-2.1021603E1,5.23573E1,2.3431751E1,1.229035E2,4.446297E1,-4.672927E1,2.2012314E1,-7.199048E1,-8.274471E1,-1.5932211E0,4.129732E1,-4.1958332E1,-3.4240143E1,5.7050182E1,4.1423477E1,1.12779205E2,2.8080973E1,1.7506528E2,-1.7616629E1,6.588135E1,1.2515769E2,2.4170898E1,3.5880157E1,-2.3266195E1,6.519153E1,1.3656575E1,3.7707863E1,2.141187E0,6.3331165E0,4.5321136E1,1.4449305E1,-5.9820522E1,6.602791E1,-1.0663818E1,2.9311203E1,-2.7377354E1,3.2885174E1,-7.074353E1,5.0972023E1,8.111409E0,-9.718841E1,-2.1461182E1,-2.5458658E1,1.6704163E1,2.4154726E1,5.18064E1,-1.8655655E1,-8.58472E1,6.8444824E-1,7.8101776E1,3.4250782E1,5.55094E1,-1.0470947E1,1.2615132E2,4.106189E1,1.0595703E0,1.2558154E1,-6.2035725E1,-3.539152E1,8.174383E1,5.111841E1,1.3370767E2,6.8737793E0,2.9382568E1,6.118274E1,8.462061E0,-1.3289388E0,-3.3902588E1],"categories":[],"categories_nodes":[],"categories_segments":[],"categories_sizes":[],"default_left":[1,1,1,1,1,1,1,1,1,1,1,1,1,1,1,1,1,0,0,1,1,1,1,1,1,1,1,1,1,1,1,1,1,1,1,1,0,0,1,1,0,1,1,1,0,1,1,1,1,1,0,1,1,1,1,1,1,0,0,0,0,0,0,0,0,0,0,0,0,0,0,0,0,0,0,0,0,0,0,0,0,0,0,0,0,0,0,0,0,0,0,0,0,0,0,0,0,0,0,0,0],"id":13,"left_children":[1,3,5,7,9,11,13,15,17,19,21,23,25,27,29,31,33,-1,-1,35,37,39,41,43,45,47,49,51,53,55,57,59,61,63,65,67,-1,-1,69,71,-1,73,75,77,-1,79,81,83,85,87,-1,89,91,93,95,97,99,-1,-1,-1,-1,-1,-1,-1,-1,-1,-1,-1,-1,-1,-1,-1,-1,-1,-1,-1,-1,-1,-1,-1,-1,-1,-1,-1,-1,-1,-1,-1,-1,-1,-1,-1,-1,-1,-1,-1,-1,-1,-1,-1,-1],"loss_changes":[5.8244125E4,4.4211875E4,5.122125E4,9.615519E4,4.5175934E4,5.188975E4,3.547053E4,4.6372438E4,8.359953E3,3.211157E4,2.9345879E4,1.056713E5,5.8282312E4,5.9958438E4,1.0402979E4,5.5090312E4,4.6581566E4,0E0,0E0,3.7694812E4,1.8476137E4,2.2269592E4,2.099893E4,1.874411E4,7.168457E4,5.261025E4,2.4065844E4,3.276953E4,1.3666E4,1.1874691E4,2.9181484E3,3.246925E4,5.818925E4,4.3527586E4,1.1042555E4,3.9637312E4,0E0,0E0,2.1445232E4,6.027604E3,0E0,5.8806797E3,3.0453162E3,2.1087594E4,0E0,3.0569242E4,1.299902E4,3.810825E4,1.9450188E4,1.00877954E3,0E0,1.016141E4,3.02025E4,7.724875E3,6.8471436E1,5.032257E3,1.3549456E3,0E0,0E0,0E0,0E0,0E0,0E0,0E0,0E0,0E0,0E0,0E0,0E0,0E0,0E0,0E0,0E0,0E0,0E0,0E0,0E0,0E0,0E0,0E0,0E0,0E0,0E0,0E0,0E0,0E0,0E0,0E0,0E0,0E0,0E0,0E0,0E0,0E0,0E0,0E0,0E0,0E0,0E0,0E0,0E0],"parents":[2147483647,0,0,1,1,2,2,3,3,4,4,5,5,6,6,7,7,8,8,9,9,10,10,11,11,12,12,13,13,14,14,15,15,16,16,19,19,20,20,21,21,22,22,23,23,24,24,25,25,26,26,27,27,28,28,29,29,30,30,31,31,32,32,33,33,34,34,35,35,38,38,39,39,41,41,42,42,43,43,45,45,46,46,47,47,48,48,49,49,51,51,52,52,53,53,54,54,55,55,56,56],"right_children":[2,4,6,8,10,12,14,16,18,20,22,24,26,28,30,32,34,-1,-1,36,38,40,42,44,46,48,50,52,54,56,58,60,62,64,66,68,-1,-1,70,72,-1,74,76,78,-1,80,82,84,86,88,-1,90,92,94,96,98,100,-1,-1,-1,-1,-1,-1,-1,-1,-1,-1,-1,-1,-1,-1,-1,-1,-1,-1,-1,-1,-1,-1,-1,-1,-1,-1,-1,-1,-1,-1,-1,-1,-1,-1,-1,-1,-1,-1,-1,-1,-1,-1,-1,-1],"split_conditions":[6.7475E3,5.1E3,5E1,5.0875E3,4.49E3,4.4965E3,3.49E2,2.05E1,1.5225E3,1.15E1,1.71E2,5.5535E3,1.205E3,2.445E2,6.846E3,2.465E2,1.5205E3,4.959113E1,1.5065943E1,9.9E2,4.9695E3,6.5215E3,2.475E2,4.4765E3,1.525E3,1.2125E3,4.15E1,5.464E3,4.5175E3,1.35E1,1.005E2,2.5E0,4.1085E3,6.858E3,1.35E1,6.732E3,3.687105E1,1.3338892E1,1.5E0,6.035E3,-2.1597145E1,6.711E3,1.5135E3,6.55E2,-1.2587501E1,5E0,5.9E2,5.1195E3,5.519E3,5E0,5.2519585E1,6.4E1,1.508E3,6.7595E3,4.65E1,5.05E1,4.45E1,1.9557459E1,4.096973E0,1.1312359E1,6.423561E-1,1.899935E0,1.3596341E1,4.3347917E0,-1.7946157E1,1.9808372E1,-3.1991456E0,8.793362E0,-8.213206E0,9.865553E0,-2.122306E1,1.5291608E1,2.4334228E0,-2.9156523E1,-6.438355E0,-7.6375976E0,5.011249E0,7.246418E0,1.5541921E1,-5.596697E0,-2.575416E1,2.0533448E-1,2.3430534E1,1.0275235E1,1.665282E1,-3.1412842E0,3.7845398E1,1.2318567E1,3.178711E-1,3.7674463E0,-1.8610718E1,-1.0617456E1,2.452315E1,1.5335523E1,4.0112305E1,2.0621338E0,8.814771E0,1.8354822E1,2.5386183E0,-3.9868167E-1,-1.0170776E1],"split_indices":[5,10,50,10,19,7,63,65,6,80,63,8,53,63,5,63,6,0,0,4,3,8,13,7,6,13,1,3,19,65,1,80,7,9,64,5,0,0,72,19,0,5,6,4,0,80,4,10,3,0,0,1,6,5,1,1,1,0,0,0,0,0,0,0,0,0,0,0,0,0,0,0,0,0,0,0,0,0,0,0,0,0,0,0,0,0,0,0,0,0,0,0,0,0,0,0,0,0,0,0,0],"split_type":[0,0,0,0,0,0,0,0,0,0,0,0,0,0,0,0,0,0,0,0,0,0,0,0,0,0,0,0,0,0,0,0,0,0,0,0,0,0,0,0,0,0,0,0,0,0,0,0,0,0,0,0,0,0,0,0,0,0,0,0,0,0,0,0,0,0,0,0,0,0,0,0,0,0,0,0,0,0,0,0,0,0,0,0,0,0,0,0,0,0,0,0,0,0,0,0,0,0,0,0,0],"sum_hessian":[1.341E3,6.89E2,6.52E2,5.16E2,1.73E2,5.85E2,6.7E1,5.09E2,7E0,1.43E2,3E1,1.74E2,4.11E2,4.6E1,2.1E1,4.68E2,4.1E1,5E0,2E0,1.32E2,1.1E1,1.7E1,1.3E1,1.25E2,4.9E1,4.05E2,6E0,2.2E1,2.4E1,1.2E1,9E0,1.11E2,3.57E2,3E1,1.1E1,1.29E2,3E0,2E0,9E0,1.5E1,2E0,8E0,5E0,1.23E2,2E0,3.9E1,1E1,3.95E2,1E1,2E0,4E0,6E0,1.6E1,2.2E1,2E0,7E0,5E0,7E0,2E0,3.9E1,7.2E1,4.4E1,3.13E2,1.6E1,1.4E1,9E0,2E0,1.16E2,1.3E1,2E0,7E0,4E0,1.1E1,6E0,2E0,2E0,3E0,4.8E1,7.5E1,3.1E1,8E0,3E0,7E0,2.64E2,1.31E2,1E0,9E0,1E0,1E0,4E0,2E0,2E0,1.4E1,3E0,1.9E1,1E0,1E0,3E0,4E0,2E0,3E0],"tree_param":{"num_deleted":"0","num_feature":"82","num_nodes":"101","size_leaf_vector":"0"}},{"base_weights":[2.4963478E1,2.2825666E1,4.2454075E1,2.1425055E1,4.858092E1,3.413478E1,6.0774853E1,2.0943829E1,9.618534E1,5.8132404E1,-3.3406563E1,3.6527176E1,-1.0374866E2,8.5752655E1,4.489831E1,1.994796E1,5.566975E1,1.11191795E2,3.9112793E1,9.762158E1,4.7187664E1,-4.4151073E1,-4.3635254E0,4.266679E1,-4.6737585E0,1.5958374E1,8.934171E1,-4.3481445E0,5.793426E1,1.9514301E1,9.591061E1,7.655708E1,4.150635E0,1.1172839E2,4.5002563E1,5.0612457E1,-1.763029E1,2.1743164E0,-8.7196045E0,1.497215E1,5.4039185E1,3.652478E1,-3.1620144E1,9.2219986E1,2.452295E1,1.2949219E1,-5.4066162E1,-5.658203E0,6.108202E1,2.473873E1,1.2772124E1,1.2846002E2,2.0541178E1,-1.7487366E1,9.23266E1,4.276581E1,-1.8508127E1,1.0005402E1,5.8230347E1,9.0063477E-1,-2.734607E1,-4.991748E1,2.5163248E1,4.2791737E1,9.314173E1,-2.4169067E1,5.3497364E1,4.3402834E0,-6.1256542E1,-3.2604167E0,2.186914E1,2.4505371E1,6.7848755E1],"categories":[],"categories_nodes":[],"categories_segments":[],"categories_sizes":[],"default_left":[1,1,1,1,1,1,1,1,1,1,1,1,0,1,1,1,1,0,0,1,1,0,1,1,1,0,1,1,1,1,1,1,1,0,0,1,1,0,0,1,1,1,1,0,0,1,0,0,1,0,0,0,0,0,0,0,0,0,0,0,0,0,0,0,0,0,0,0,0,0,0,0,0],"id":14,"left_children":[1,3,5,7,9,11,13,15,17,19,21,23,-1,25,27,29,31,-1,-1,33,35,-1,37,39,41,-1,43,45,47,49,51,53,55,-1,-1,57,59,-1,-1,61,63,65,67,-1,-1,69,-1,-1,71,-1,-1,-1,-1,-1,-1,-1,-1,-1,-1,-1,-1,-1,-1,-1,-1,-1,-1,-1,-1,-1,-1,-1,-1],"loss_changes":[4.92105E4,4.217475E4,2.0025766E4,3.8926844E4,4.971122E4,3.743658E4,1.3598547E4,3.803678E4,1.6461797E3,1.916439E4,1.9917188E3,2.574814E4,0E0,2.5821797E3,1.8869164E4,3.4430344E4,3.304125E4,0E0,0E0,3.1370938E3,1.0881781E4,0E0,1.0439725E2,2.6906906E4,1.6697043E4,0E0,5.369844E2,6.720049E3,4.9496094E3,3.832478E4,1.2080664E4,3.4241312E4,9.541235E3,0E0,0E0,1.2719008E4,5.647559E2,0E0,0E0,1.9111096E4,2.328214E4,7.4737695E3,9.857508E3,0E0,0E0,9.3883466E2,0E0,0E0,3.7824375E3,0E0,0E0,0E0,0E0,0E0,0E0,0E0,0E0,0E0,0E0,0E0,0E0,0E0,0E0,0E0,0E0,0E0,0E0,0E0,0E0,0E0,0E0,0E0,0E0],"parents":[2147483647,0,0,1,1,2,2,3,3,4,4,5,5,6,6,7,7,8,8,9,9,10,10,11,11,13,13,14,14,15,15,16,16,19,19,20,20,22,22,23,23,24,24,26,26,27,27,28,28,29,29,30,30,31,31,32,32,35,35,36,36,39,39,40,40,41,41,42,42,45,45,48,48],"right_children":[2,4,6,8,10,12,14,16,18,20,22,24,-1,26,28,30,32,-1,-1,34,36,-1,38,40,42,-1,44,46,48,50,52,54,56,-1,-1,58,60,-1,-1,62,64,66,68,-1,-1,70,-1,-1,72,-1,-1,-1,-1,-1,-1,-1,-1,-1,-1,-1,-1,-1,-1,-1,-1,-1,-1,-1,-1,-1,-1,-1,-1],"split_conditions":[9.15E1,6.5E0,5E0,4.85E2,1.25E1,4E2,1.515E3,1.25E1,3.5E0,6.9275E3,2.75E1,1.1825E3,-3.1124598E1,4.522E3,1.5195E3,8.3655E3,4.8265E3,3.335754E1,1.1733838E1,6E0,1.05E3,-1.3245322E1,2.85E1,7.5E0,6.706E3,4.7875123E0,6.282E3,6.8525E3,3.275E2,5.6515E3,5.618E3,4.6215E3,6.45E2,3.351852E1,1.350077E1,6.9795E3,3.25E1,6.5229493E-1,-2.6158814E0,4.871E3,6.8605E3,5.083E3,1.513E3,2.7665997E1,7.356885E0,1.06E2,-1.6219849E1,-1.697461E0,5.85E2,7.421619E0,3.8316374E0,3.853801E1,6.1623535E0,-5.24621E0,2.769798E1,1.2829743E1,-5.5524383E0,3.0016205E0,1.7469105E1,2.7019045E-1,-8.203821E0,-1.49752445E1,7.5489745E0,1.2837522E1,2.794252E1,-7.2507205E0,1.604921E1,1.302085E0,-1.8376963E1,-9.7812504E-1,6.5607424E0,7.3516116E0,2.0354628E1],"split_indices":[47,0,71,58,0,36,6,73,80,5,0,13,0,3,6,8,7,0,0,80,53,0,0,65,5,0,3,5,47,8,10,10,4,0,0,5,1,0,0,3,5,8,6,0,0,1,0,0,4,0,0,0,0,0,0,0,0,0,0,0,0,0,0,0,0,0,0,0,0,0,0,0,0],"split_type":[0,0,0,0,0,0,0,0,0,0,0,0,0,0,0,0,0,0,0,0,0,0,0,0,0,0,0,0,0,0,0,0,0,0,0,0,0,0,0,0,0,0,0,0,0,0,0,0,0,0,0,0,0,0,0,0,0,0,0,0,0,0,0,0,0,0,0,0,0,0,0,0,0],"sum_hessian":[1.341E3,1.197E3,1.44E2,1.137E3,6E1,1.01E2,4.3E1,1.131E3,6E0,5.4E1,6E0,1E2,1E0,1.5E1,2.8E1,1.101E3,3E1,4E0,2E0,1E1,4.4E1,4E0,2E0,8.7E1,1.3E1,1E0,1.4E1,6E0,2.2E1,1.096E3,5E0,2.1E1,9E0,7E0,3E0,4.2E1,2E0,1E0,1E0,2.6E1,6.1E1,5E0,8E0,1.3E1,1E0,5E0,1E0,1E0,2.1E1,6.16E2,4.8E2,3E0,2E0,3E0,1.8E1,3E0,6E0,7E0,3.5E1,1E0,1E0,3E0,2.3E1,4.9E1,1.2E1,1E0,4E0,4E0,4E0,2E0,3E0,4E0,1.7E1],"tree_param":{"num_deleted":"0","num_feature":"82","num_nodes":"73","size_leaf_vector":"0"}},{"base_weights":[1.7641571E1,1.8382492E1,-1.912481E1,1.4477279E1,2.6312805E1,2.8195404E1,-3.7096657E1,1.7985632E1,3.6106553E0,8.723017E1,2.4369246E1,-1.5956299E1,4.557202E1,-1.8326242E1,-6.933796E1,6.5084343E0,2.2205687E1,8.235291E0,-4.5016346E1,4.1049038E1,1.20949844E2,4.8136887E1,2.0208237E1,8.157878E0,6.2239624E1,-3.3766495E1,7.8885093E0,-2.0559326E1,-7.4041176E1,4.3229914E0,8.2571434E1,2.1447548E1,1.3762239E2,6.835718E1,4.353918E0,-8.732382E1,-1.3059998E1,1.2162923E1,5.01709E1,1.3296944E2,2.4416138E1,7.587052E1,3.8467274E1,-2.3683428E1,2.2997051E1,-3.3823853E0,-4.8394817E1,-2.0885498E1,2.7496887E1,7.088552E0,-7.567692E1,1.4371239E1,3.2587807E1,8.645976E1,-6.538562E1,1.1734383E1,-2.6083502E1,-1.9856363E1,-1.0650358E2,-2.382766E1,5.269214E1,1.1702474E-1,8.751591E1,4.2782043E1,1.1335449E0,7.014217E1,-3.6573097E1,7.633716E1,2.0975471E1,8.040894E0,-9.870442E0,-5.4082226E1,-9.978882E0,-3.956543E0,-2.7371704E1],"categories":[],"categories_nodes":[],"categories_segments":[],"categories_sizes":[],"default_left":[1,1,1,1,1,1,1,1,1,1,1,0,1,1,1,1,1,1,1,1,1,1,1,0,0,1,1,0,0,1,0,1,0,1,1,1,1,0,0,0,0,1,1,1,1,1,1,1,0,0,0,0,0,0,0,0,0,0,0,0,0,0,0,0,0,0,0,0,0,0,0,0,0,0,0],"id":15,"left_children":[1,3,5,7,9,11,13,15,17,19,21,-1,23,25,27,29,31,33,35,37,39,41,43,-1,-1,45,47,-1,-1,49,-1,51,-1,53,55,57,59,-1,-1,-1,-1,61,63,65,67,69,71,73,-1,-1,-1,-1,-1,-1,-1,-1,-1,-1,-1,-1,-1,-1,-1,-1,-1,-1,-1,-1,-1,-1,-1,-1,-1,-1,-1],"loss_changes":[3.6908906E4,4.0375E4,2.400761E4,3.363664E4,4.913997E4,6.8648193E3,1.0832945E4,3.2209656E4,4.917014E4,1.5278891E4,4.0663016E4,0E0,3.2338809E3,5.9330396E3,8.367578E1,2.9730922E4,3.9749312E4,4.61401E4,2.4547406E4,1.2342422E3,4.8754844E3,1.3708234E4,4.461072E4,0E0,0E0,3.8365264E3,3.9595557E3,0E0,0E0,3.969674E4,0E0,3.784397E4,0E0,3.470631E4,4.2538832E4,8.237309E3,9.751491E3,0E0,0E0,0E0,0E0,1.32224375E4,7.6836562E3,2.91717E4,3.4953594E4,3.7582675E2,7.7124316E2,2.2111682E2,0E0,0E0,0E0,0E0,0E0,0E0,0E0,0E0,0E0,0E0,0E0,0E0,0E0,0E0,0E0,0E0,0E0,0E0,0E0,0E0,0E0,0E0,0E0,0E0,0E0,0E0,0E0],"parents":[2147483647,0,0,1,1,2,2,3,3,4,4,5,5,6,6,7,7,8,8,9,9,10,10,12,12,13,13,14,14,15,15,16,16,17,17,18,18,19,19,20,20,21,21,22,22,25,25,26,26,29,29,31,31,33,33,34,34,35,35,36,36,41,41,42,42,43,43,44,44,45,45,46,46,47,47],"right_children":[2,4,6,8,10,12,14,16,18,20,22,-1,24,26,28,30,32,34,36,38,40,42,44,-1,-1,46,48,-1,-1,50,-1,52,-1,54,56,58,60,-1,-1,-1,-1,62,64,66,68,70,72,74,-1,-1,-1,-1,-1,-1,-1,-1,-1,-1,-1,-1,-1,-1,-1,-1,-1,-1,-1,-1,-1,-1,-1,-1,-1,-1,-1],"split_conditions":[3.25E2,7.4405E3,1.5E1,5.682E3,7.459E3,1.5E0,7.5E0,6.6925E3,4.5E0,3.15E1,5.646E3,-4.78689E0,5.45E2,6.7135E3,6.6955E3,7.3575E3,3.185E3,1.9975E3,5.8085E3,1.25E1,1.5175E3,1E0,4.7245E3,2.4473634E0,1.8671888E1,4.436E3,4.7925E3,-6.167798E0,-2.2212353E1,8.85E2,2.4771431E1,1.5E0,4.128672E1,6.8345E3,1.185E3,2.615E3,6.05E1,3.648877E0,1.50512705E1,3.989083E1,7.3248415E0,1.2E1,3.725E2,1.503E3,4.6085E3,4.659E3,3.3E1,4.2E1,8.249066E0,2.1265657E0,-2.2703075E1,4.311372E0,9.776342E0,2.593793E1,-1.9615686E1,3.520315E0,-7.825051E0,-5.956909E0,-3.1951075E1,-7.1482983E0,1.5807642E1,3.5107423E-2,2.6254774E1,1.2834614E1,3.4006348E-1,2.1042652E1,-1.097193E1,2.2901148E1,6.2926416E0,2.4122682E0,-2.9611328E0,-1.6224669E1,-2.9936647E0,-1.186963E0,-8.211512E0],"split_indices":[48,9,1,8,9,78,78,2,78,1,8,0,4,2,2,9,54,19,8,65,6,65,10,0,0,7,3,0,0,4,0,0,0,5,54,19,1,0,0,0,0,1,53,6,3,3,1,1,0,0,0,0,0,0,0,0,0,0,0,0,0,0,0,0,0,0,0,0,0,0,0,0,0,0,0],"split_type":[0,0,0,0,0,0,0,0,0,0,0,0,0,0,0,0,0,0,0,0,0,0,0,0,0,0,0,0,0,0,0,0,0,0,0,0,0,0,0,0,0,0,0,0,0,0,0,0,0,0,0,0,0,0,0,0,0,0,0,0,0,0,0,0,0,0,0,0,0,0,0,0,0,0,0],"sum_hessian":[1.341E3,1.315E3,2.6E1,8.83E2,4.32E2,7E0,1.9E1,6.67E2,2.16E2,1.2E1,4.2E2,2E0,5E0,1.3E1,6E0,1.8E2,4.87E2,1.98E2,1.8E1,6E0,6E0,6.1E1,3.59E2,2E0,3E0,8E0,5E0,1E0,5E0,1.76E2,4E0,4.85E2,2E0,1.1E1,1.87E2,7E0,1.1E1,2E0,4E0,5E0,1E0,1.4E1,4.7E1,2.1E1,3.38E2,3E0,5E0,2E0,3E0,1.71E2,5E0,2.98E2,1.87E2,1E1,1E0,1.51E2,3.6E1,2E0,5E0,1E1,1E0,2E0,1.2E1,4.2E1,5E0,2E0,1.9E1,1.1E1,3.27E2,1E0,2E0,4E0,1E0,1E0,1E0],"tree_param":{"num_deleted":"0","num_feature":"82","num_nodes":"75","size_leaf_vector":"0"}},{"base_weights":[1.2456424E1,1.2236672E1,1.06460045E2,9.883284E0,2.0760992E1,1.8703913E1,5.4399953E0,1.8288958E1,9.563658E1,3.437665E0,2.5628912E1,2.1438253E0,2.4129267E1,2.2403534E1,-1.1270738E1,2.6298925E1,1.4584692E2,3.0344566E1,-1.0425847E1,2.684753E1,-8.040348E1,1.7271622E0,1.2523755E2,5.0276604E1,1.3968202E1,4.9448402E1,1.6460506E1,1.5632871E1,-4.8184406E1,5.9947266E1,2.9000244E0,1.2127539E1,6.07075E1,2.4092367E1,-1.6835255E1,2.9272526E1,-2.6297607E1,1.3618114E1,-1.3937792E0,2.800886E0,6.2539795E1,2.701819E0,5.07468E1,6.442583E1,8.777175E0,3.0906645E1,6.295745E0,3.2610138E1,-3.224532E1,-9.2404755E1,2.0589905E0,1.0384277E1,-3.0561523E0],"categories":[],"categories_nodes":[],"categories_segments":[],"categories_sizes":[],"default_left":[1,1,0,1,1,1,1,1,1,1,1,1,1,1,1,1,0,1,1,1,0,1,0,1,1,1,1,1,1,0,1,0,0,0,0,0,0,0,0,0,0,0,0,0,0,0,0,0,0,0,0,0,0],"id":16,"left_children":[1,3,-1,5,7,9,11,13,15,17,19,21,23,25,27,29,-1,31,33,35,-1,37,-1,39,41,43,45,47,49,-1,51,-1,-1,-1,-1,-1,-1,-1,-1,-1,-1,-1,-1,-1,-1,-1,-1,-1,-1,-1,-1,-1,-1],"loss_changes":[2.6419594E4,2.6676594E4,0E0,4.1128867E4,5.1743336E4,3.712489E4,4.3131984E4,3.4429305E4,2.7497586E4,4.1722047E4,3.342817E4,3.0403004E4,2.7194633E4,3.8885977E4,3.551214E4,3.7628223E3,0E0,2.0282422E4,1.6777459E4,3.1700219E4,0E0,2.2137115E4,0E0,1.6708742E4,3.1768746E4,2.6237117E4,2.9761098E4,1.8121184E4,3.351697E4,0E0,2.1004607E2,0E0,0E0,0E0,0E0,0E0,0E0,0E0,0E0,0E0,0E0,0E0,0E0,0E0,0E0,0E0,0E0,0E0,0E0,0E0,0E0,0E0,0E0],"parents":[2147483647,0,0,1,1,3,3,4,4,5,5,6,6,7,7,8,8,9,9,10,10,11,11,12,12,13,13,14,14,15,15,17,17,18,18,19,19,21,21,23,23,24,24,25,25,26,26,27,27,28,28,30,30],"right_children":[2,4,-1,6,8,10,12,14,16,18,20,22,24,26,28,30,-1,32,34,36,-1,38,-1,40,42,44,46,48,50,-1,52,-1,-1,-1,-1,-1,-1,-1,-1,-1,-1,-1,-1,-1,-1,-1,-1,-1,-1,-1,-1,-1,-1],"split_conditions":[2.5E2,7.35E2,3.1938015E1,5E-1,6.991E3,4.3785E3,1.5255E3,3.5E0,6.8165E3,6.695E3,5.025E2,1.5E2,5.5715E3,1.5075E3,5.6855E3,1.5055E3,4.3754078E1,6.7355E3,6.6215E3,5.575E2,-2.4121046E1,2.35E1,3.7571266E1,6.7895E3,5.4595E3,6.8265E3,9.5E0,1.25E1,5.1105E3,1.798418E1,1.5E0,3.6382618E0,1.8212252E1,7.2277102E0,-5.0505767E0,8.781758E0,-7.8892827E0,4.0854344E0,-4.1813377E-1,8.402658E-1,1.876194E1,8.1054574E-1,1.522404E1,1.932775E1,2.6331525E0,9.271994E0,1.8887235E0,9.783042E0,-9.673596E0,-2.7721428E1,6.176972E-1,3.1152833E0,-9.1684574E-1],"split_indices":[23,4,0,80,8,7,6,78,5,9,34,29,8,6,8,6,0,2,5,55,0,1,0,9,7,5,65,65,10,0,0,0,0,0,0,0,0,0,0,0,0,0,0,0,0,0,0,0,0,0,0,0,0],"split_type":[0,0,0,0,0,0,0,0,0,0,0,0,0,0,0,0,0,0,0,0,0,0,0,0,0,0,0,0,0,0,0,0,0,0,0,0,0,0,0,0,0,0,0,0,0,0,0,0,0,0,0,0,0],"sum_hessian":[1.341E3,1.339E3,2E0,1.051E3,2.88E2,3.51E2,7E2,2.8E2,8E0,1.1E2,2.41E2,5.96E2,1.04E2,2.46E2,3.4E1,4E0,4E0,3.7E1,7.3E1,2.39E2,2E0,5.95E2,1E0,2.8E1,7.6E1,4.3E1,2.03E2,2E1,1.4E1,1E0,3E0,2.4E1,1.3E1,1.1E1,6.2E1,2.29E2,1E1,1.23E2,4.72E2,6E0,2.2E1,5.9E1,1.7E1,3.1E1,1.2E1,8.3E1,1.2E2,1.5E1,5E0,7E0,7E0,1E0,2E0],"tree_param":{"num_deleted":"0","num_feature":"82","num_nodes":"53","size_leaf_vector":"0"}},{"base_weights":[8.853423E0,7.357946E0,2.11481E1,7.010001E0,6.5556816E1,1.5827085E1,4.731542E1,8.153546E0,-1.4700769E1,8.419855E1,3.0525879E1,-3.0667942E1,1.935891E1,6.8426414E1,-3.4598694E0,7.5335426E0,7.7026566E1,-2.9395668E1,1.6158813E1,-5.403422E1,1.2048462E1,2.4983189E1,-5.2963977E0,7.883678E1,1.4883545E1,-1.3105428E1,1.6984537E1,7.1070223E0,6.6144775E1,1.00861084E2,3.3019825E1,-1.3489081E1,-6.261839E1,-3.852881E1,4.2348423E1,-7.906305E1,-2.6510417E0,3.7071533E0,1.3593181E1,2.1006636E1,7.914209E1,-7.890015E1,1.5443333E1,1.00638306E2,5.5542778E1,-2.6782227E-1,2.0023275E1,-2.8722046E1,-4.237695E0,2.0231934E1,5.244873E0,6.1465335E0,2.985141E1,9.31311E0,7.293314E1,3.0122314E1,1.08984375E2,-3.229419E1,3.8084564E0,-1.0590304E2,-2.2327606E1,1.8758138E-1,-5.405288E1,7.5659805E1,7.9074097E0,-1.02109375E1,6.234375E0,-6.6075344E0,2.545371E1,9.415039E1,3.2750324E1,-1.791272E1,-8.966882E1,-1.7385595E1,5.0203995E1,-6.600749E-1,-6.4027505E0],"categories":[],"categories_nodes":[],"categories_segments":[],"categories_sizes":[],"default_left":[1,1,1,1,1,1,1,1,1,0,0,1,1,1,1,1,1,1,1,1,1,1,1,1,1,1,1,1,1,1,0,1,1,1,1,0,1,0,0,1,1,1,1,0,0,0,0,0,1,0,0,0,0,0,0,0,0,0,0,0,0,0,0,0,0,0,0,0,0,0,0,0,0,0,0,0,0],"id":17,"left_children":[1,3,5,7,9,11,13,15,17,-1,-1,19,21,23,25,27,29,31,33,35,37,39,41,43,45,47,49,51,53,55,-1,57,59,61,63,-1,65,-1,-1,67,69,71,73,-1,-1,-1,-1,-1,75,-1,-1,-1,-1,-1,-1,-1,-1,-1,-1,-1,-1,-1,-1,-1,-1,-1,-1,-1,-1,-1,-1,-1,-1,-1,-1,-1,-1],"loss_changes":[2.4518945E4,2.3799934E4,1.944046E4,2.9713934E4,2.0010254E3,2.0627602E4,2.5962746E4,4.7800508E4,2.7683709E4,0E0,0E0,9.63414E3,1.5940512E4,8.302445E3,1.8001714E3,2.762866E4,7.158383E3,2.08222E4,3.0276586E4,7.5067656E3,1.1478882E0,1.8366504E4,3.480196E4,1.5200938E3,3.1685834E2,7.091887E2,8.2561035E0,2.4218203E4,2.4071172E3,1.6492578E2,0E0,9.556172E3,2.0307082E4,4.2173926E3,1.5463615E4,0E0,2.6517728E2,0E0,0E0,1.0974781E4,1.0941094E3,1.6775566E3,2.1413621E4,0E0,0E0,0E0,0E0,0E0,3.450244E1,0E0,0E0,0E0,0E0,0E0,0E0,0E0,0E0,0E0,0E0,0E0,0E0,0E0,0E0,0E0,0E0,0E0,0E0,0E0,0E0,0E0,0E0,0E0,0E0,0E0,0E0,0E0,0E0],"parents":[2147483647,0,0,1,1,2,2,3,3,4,4,5,5,6,6,7,7,8,8,11,11,12,12,13,13,14,14,15,15,16,16,17,17,18,18,19,19,20,20,21,21,22,22,23,23,24,24,25,25,26,26,27,27,28,28,29,29,31,31,32,32,33,33,34,34,36,36,39,39,40,40,41,41,42,42,48,48],"right_children":[2,4,6,8,10,12,14,16,18,-1,-1,20,22,24,26,28,30,32,34,36,38,40,42,44,46,48,50,52,54,56,-1,58,60,62,64,-1,66,-1,-1,68,70,72,74,-1,-1,-1,-1,-1,76,-1,-1,-1,-1,-1,-1,-1,-1,-1,-1,-1,-1,-1,-1,-1,-1,-1,-1,-1,-1,-1,-1,-1,-1,-1,-1,-1,-1],"split_conditions":[9.15E1,4.85E2,7.0215E3,5.561E3,7.001E3,1.501E3,6.2E2,5.509E3,5.7025E3,2.5259565E1,9.157764E0,8.9E2,6.869E3,7.581E3,4.882E3,7.491E3,6.228E3,6.615E3,6.713E3,4.8505E3,5.3E1,6.8605E3,7.0455E3,7.0345E3,8.95E1,3.25E1,8.5E1,4.25E2,6.564E3,7.5E0,9.905948E0,5.6815E3,6.02E3,5.799E3,8.728E3,-2.3718916E1,9.9E1,1.112146E0,4.0779543E0,2.4975E3,5.5495E3,6.989E3,1E0,3.0191492E1,1.6662834E1,-8.034668E-2,6.006983E0,-8.616614E0,8.65E1,6.0695806E0,1.573462E0,1.8439602E0,8.955423E0,2.7939332E0,2.1879944E1,9.036695E0,3.2695312E1,-9.688257E0,1.142537E0,-3.1770912E1,-6.6982822E0,5.6274414E-2,-1.6215864E1,2.2697943E1,2.372223E0,-3.0632813E0,1.8703126E0,-1.9822603E0,7.6361136E0,2.824512E1,9.825098E0,-5.373816E0,-2.6900648E1,-5.2156787E0,1.5061199E1,-1.9802247E-1,-1.9208252E0],"split_indices":[47,58,2,10,2,6,47,10,7,0,0,13,5,9,7,8,8,8,5,7,1,5,9,2,1,1,1,28,5,1,0,10,10,7,9,0,1,0,0,19,3,2,64,0,0,0,0,0,1,0,0,0,0,0,0,0,0,0,0,0,0,0,0,0,0,0,0,0,0,0,0,0,0,0,0,0,0],"split_type":[0,0,0,0,0,0,0,0,0,0,0,0,0,0,0,0,0,0,0,0,0,0,0,0,0,0,0,0,0,0,0,0,0,0,0,0,0,0,0,0,0,0,0,0,0,0,0,0,0,0,0,0,0,0,0,0,0,0,0,0,0,0,0,0,0,0,0,0,0,0,0,0,0,0,0,0,0],"sum_hessian":[1.341E3,1.197E3,1.44E2,1.191E3,6E0,1.21E2,2.3E1,1.132E3,5.9E1,3E0,3E0,8E0,1.13E2,1.6E1,7E0,1.123E3,9E0,4E1,1.9E1,5E0,3E0,9.2E1,2.1E1,1.3E1,3E0,5E0,2E0,1.116E3,7E0,5E0,4E0,2.8E1,1.2E1,6E0,1.3E1,3E0,2E0,1E0,2E0,8.7E1,5E0,4E0,1.7E1,5E0,8E0,1E0,2E0,1E0,4E0,1E0,1E0,1.072E3,4.4E1,1E0,6E0,1E0,4E0,1.3E1,1.5E1,5E0,7E0,2E0,4E0,6E0,7E0,1E0,1E0,1.2E1,7.5E1,3E0,2E0,1E0,3E0,9E0,8E0,2E0,2E0],"tree_param":{"num_deleted":"0","num_feature":"82","num_nodes":"77","size_leaf_vector":"0"}},{"base_weights":[6.2977247E0,6.0022244E0,6.1796455E1,6.52345E0,-2.403658E1,-7.1437583E0,7.827788E0,5.3671527E0,-3.473008E1,9.917691E0,-2.042053E1,-8.224102E-1,1.0881152E1,-1.0687988E1,3.033667E1,-4.270478E1,1.8638916E0,1.5363917E1,-5.7916443E1,-2.4017563E1,4.04386E1,3.771003E1,-4.5788074E0,4.2811768E1,9.55823E0,-2.1168457E1,-2.7757568E0,-4.7112923E1,7.300537E0,-1.8225098E1,1.4635254E1,1.9495226E1,-3.4954285E1,1.6039347E1,-2.781272E1,5.580428E1,-2.8292236E0,5.00705E1,-6.5243096E0,-6.482445E0,5.4942707E1,1.3900091E1,8.518642E1,1.249064E1,-4.6727887E-1,5.2124023E-1,-4.0485024E0,-8.113444E0,-5.3466152E1],"categories":[],"categories_nodes":[],"categories_segments":[],"categories_sizes":[],"default_left":[1,1,0,1,1,1,1,1,1,1,1,1,1,1,0,1,1,1,0,1,1,1,1,1,1,0,1,1,0,0,0,0,0,0,0,0,0,0,0,0,0,0,0,0,0,0,0,0,0],"id":18,"left_children":[1,3,-1,5,7,9,11,13,15,17,19,21,23,25,-1,27,29,31,-1,33,35,37,39,41,43,-1,45,47,-1,-1,-1,-1,-1,-1,-1,-1,-1,-1,-1,-1,-1,-1,-1,-1,-1,-1,-1,-1,-1],"loss_changes":[2.1637762E4,2.1074535E4,0E0,2.3480156E4,7.4182666E3,2.6252436E4,3.1703586E4,3.130462E3,5.0406387E3,1.9731266E4,1.5200533E4,4.5622016E4,3.7059203E4,3.5586096E2,0E0,3.4299766E3,1.292984E3,1.0659685E4,0E0,9.871477E3,2.8172412E3,1.5635875E4,3.2875383E4,4.1695188E4,2.5083102E4,0E0,1.8895205E1,2.787252E3,0E0,0E0,0E0,0E0,0E0,0E0,0E0,0E0,0E0,0E0,0E0,0E0,0E0,0E0,0E0,0E0,0E0,0E0,0E0,0E0,0E0],"parents":[2147483647,0,0,1,1,3,3,4,4,5,5,6,6,7,7,8,8,9,9,10,10,11,11,12,12,13,13,15,15,16,16,17,17,19,19,20,20,21,21,22,22,23,23,24,24,26,26,27,27],"right_children":[2,4,-1,6,8,10,12,14,16,18,20,22,24,26,-1,28,30,32,-1,34,36,38,40,42,44,-1,46,48,-1,-1,-1,-1,-1,-1,-1,-1,-1,-1,-1,-1,-1,-1,-1,-1,-1,-1,-1,-1,-1],"split_conditions":[1.45E2,3.65E2,1.8538937E1,4.4675E3,1.7E1,5.0965E3,2.675E2,5.7975E3,4.01E3,1.205E3,1.6E2,2.65E2,2.86E2,6.6475E3,9.101002E0,5.3E1,6.6715E3,1.4425E3,-1.7374933E1,3.915E3,5.5E1,7.5E0,1.06E3,5.9705E3,4.5E0,-6.3505373E0,1.1E1,5.3955E3,2.1901612E0,-5.4675293E0,4.3905764E0,5.848568E0,-1.0486286E1,4.8118043E0,-8.343816E0,1.6741285E1,-8.487671E-1,1.5021151E1,-1.9572929E0,-1.9447335E0,1.6482813E1,4.1700277E0,2.5555925E1,3.7471921E0,-1.4018367E-1,1.5637207E-1,-1.2145507E0,-2.4340334E0,-1.6039846E1],"split_indices":[60,48,0,10,1,8,63,8,19,14,17,4,63,2,0,1,2,54,0,7,1,80,4,3,64,0,1,8,0,0,0,0,0,0,0,0,0,0,0,0,0,0,0,0,0,0,0,0,0],"split_type":[0,0,0,0,0,0,0,0,0,0,0,0,0,0,0,0,0,0,0,0,0,0,0,0,0,0,0,0,0,0,0,0,0,0,0,0,0,0,0,0,0,0,0,0,0,0,0,0,0],"sum_hessian":[1.341E3,1.335E3,6E0,1.313E3,2.2E1,1.14E2,1.199E3,6E0,1.6E1,5E1,6.4E1,3.13E2,8.86E2,4E0,2E0,1.3E1,3E0,4.7E1,3E0,6.1E1,3E0,2.7E1,2.86E2,3.4E1,8.52E2,1E0,3E0,1.2E1,1E0,1E0,2E0,4.4E1,3E0,5E0,5.6E1,2E0,1E0,2.1E1,6E0,2.78E2,8E0,2.1E1,1.3E1,6.59E2,1.93E2,1E0,2E0,2E0,1E1],"tree_param":{"num_deleted":"0","num_feature":"82","num_nodes":"49","size_leaf_vector":"0"}},{"base_weights":[4.4488277E0,4.2731376E0,8.1440674E1,1.788712E0,9.78713E0,2.3037171E0,-5.7531708E1,1.0731523E0,1.5340639E1,1.7009267E0,5.1851894E1,-2.3190771E1,-8.607495E1,7.8550515E0,-2.2234262E1,3.708005E1,1.1580552E1,5.407956E1,1.2339678E0,1.5856995E1,1.1087872E2,-6.479619E0,1.6943237E1,-4.263464E1,1.0528597E1,5.2302834E1,-3.6558726E0,2.0832077E1,2.1379058E0,9.08551E0,7.925889E1,-1.3320481E1,2.8059058E0,3.128479E1,-2.0284262E1,5.0404773E0,-4.3379963E1,-2.8272043E1,2.1103844E1,-7.619883E1,-1.5614885E1,-3.7738922E1,5.748004E1,4.289795E1,9.565643E1,-2.3114328E1,2.4317139E1,8.306267E0,4.015587E1,7.3207273E0,-4.9904102E1],"categories":[],"categories_nodes":[],"categories_segments":[],"categories_sizes":[],"default_left":[1,1,0,1,1,1,1,1,1,1,1,0,0,1,1,1,1,1,1,1,0,1,1,1,1,1,1,1,1,0,0,0,0,0,0,0,0,0,0,0,0,0,0,0,0,0,0,0,0,0,0],"id":19,"left_children":[1,3,-1,5,7,9,11,13,15,17,19,-1,-1,21,23,25,27,29,31,33,-1,35,37,39,41,43,45,47,49,-1,-1,-1,-1,-1,-1,-1,-1,-1,-1,-1,-1,-1,-1,-1,-1,-1,-1,-1,-1,-1,-1],"loss_changes":[1.7804805E4,1.8339293E4,0E0,2.839158E4,2.0115082E4,2.7329863E4,5.8454688E3,2.5939822E4,2.0333082E4,2.2141738E4,2.1613107E4,0E0,0E0,1.6654857E4,2.5178746E4,2.3135434E4,1.89997E4,8.343252E3,2.0651078E4,5.095228E3,0E0,2.1473434E4,1.5270244E4,1.9668773E4,3.616268E4,6.9053906E3,6.5495015E3,2.6291535E4,2.9765299E4,0E0,0E0,0E0,0E0,0E0,0E0,0E0,0E0,0E0,0E0,0E0,0E0,0E0,0E0,0E0,0E0,0E0,0E0,0E0,0E0,0E0,0E0],"parents":[2147483647,0,0,1,1,3,3,4,4,5,5,6,6,7,7,8,8,9,9,10,10,13,13,14,14,15,15,16,16,17,17,18,18,19,19,21,21,22,22,23,23,24,24,25,25,26,26,27,27,28,28],"right_children":[2,4,-1,6,8,10,12,14,16,18,20,-1,-1,22,24,26,28,30,32,34,-1,36,38,40,42,44,46,48,50,-1,-1,-1,-1,-1,-1,-1,-1,-1,-1,-1,-1,-1,-1,-1,-1,-1,-1,-1,-1,-1,-1],"split_conditions":[2.5E2,1.5205E3,2.4432203E1,2.805E2,4.792E3,3.175E3,7.358E3,5.6205E3,1.85E1,5E-1,4.33E2,-6.9572315E0,-2.5822487E1,3.65E1,6.6E2,6.32E3,3.501E3,5.026E3,6.6355E3,4.135E3,3.326362E1,1.5265E3,6.447E3,5.7005E3,3.25E1,8.692E3,7.0045E3,6.9835E3,1.0025E3,2.7256532E0,2.3777668E1,-3.9961445E0,8.417718E-1,9.385437E0,-6.085279E0,1.5121433E0,-1.3013989E1,-8.481613E0,6.3311534E0,-2.285965E1,-4.684466E0,-1.1321677E1,1.7244013E1,1.2869386E1,2.8696932E1,-6.934299E0,7.2951417E0,2.4918802E0,1.20467615E1,2.1962183E0,-1.4971231E1],"split_indices":[23,6,0,1,10,54,9,8,1,76,63,0,0,1,4,19,19,3,5,54,0,6,2,8,70,9,3,2,54,0,0,0,0,0,0,0,0,0,0,0,0,0,0,0,0,0,0,0,0,0,0],"split_type":[0,0,0,0,0,0,0,0,0,0,0,0,0,0,0,0,0,0,0,0,0,0,0,0,0,0,0,0,0,0,0,0,0,0,0,0,0,0,0,0,0,0,0,0,0,0,0,0,0,0,0],"sum_hessian":[1.341E3,1.339E3,2E0,9.24E2,4.15E2,9.17E2,7E0,1.62E2,2.53E2,9.07E2,1E1,4E0,3E0,1.26E2,3.6E1,3.6E1,2.17E2,7E0,9E2,7E0,3E0,4.9E1,7.7E1,2.2E1,1.4E1,2.6E1,1E1,1.09E2,1.08E2,3E0,4E0,8.7E1,8.13E2,5E0,2E0,3.8E1,1.1E1,6E0,7.1E1,9E0,1.3E1,7E0,7E0,2.3E1,3E0,6E0,4E0,6.7E1,4.2E1,9.9E1,9E0],"tree_param":{"num_deleted":"0","num_feature":"82","num_nodes":"51","size_leaf_vector":"0"}},{"base_weights":[3.1588497E0,3.4692252E0,-3.85301E1,3.3331945E0,9.2331055E1,3.0469239E0,-6.675594E1,5.458944E0,-2.1062748E0,-1.7546549E1,2.2624756E1,6.354743E0,-1.6396053E1,-2.9443195E0,1.02792725E2,-2.048706E0,-2.4271118E1,8.419318E0,-4.4853663E0,-4.445256E1,1.1077429E1,-5.8559256E0,1.5981772E1,3.223108E1,1.2195801E2,7.4366775E0,4.509304E1,-3.464388E1,2.225824E0,-5.790146E1,2.0456177E1,1.004174E2,-4.4279785E0,-4.1122923E0,-6.0194775E1,3.0798069E1,-2.4317139E1],"categories":[],"categories_nodes":[],"categories_segments":[],"categories_sizes":[],"default_left":[1,1,1,1,0,1,0,1,1,1,0,1,1,1,1,0,0,1,1,1,1,1,1,0,0,0,0,0,0,0,0,0,0,0,0,0,0],"id":20,"left_children":[1,3,5,7,-1,9,-1,11,13,15,-1,17,19,21,23,-1,-1,25,27,29,31,33,35,-1,-1,-1,-1,-1,-1,-1,-1,-1,-1,-1,-1,-1,-1],"loss_changes":[1.7498121E4,1.5805461E4,1.1938863E4,1.5413346E4,0E0,2.4128643E3,0E0,1.8859617E4,3.326893E4,2.629245E2,0E0,2.064995E4,2.97832E4,2.0647873E4,1.2616406E2,0E0,0E0,2.7557367E4,3.0032242E4,1.7770508E4,2.8149697E4,3.0450496E4,3.0602953E4,0E0,0E0,0E0,0E0,0E0,0E0,0E0,0E0,0E0,0E0,0E0,0E0,0E0,0E0],"parents":[2147483647,0,0,1,1,2,2,3,3,5,5,7,7,8,8,9,9,11,11,12,12,13,13,14,14,17,17,18,18,19,19,20,20,21,21,22,22],"right_children":[2,4,6,8,-1,10,-1,12,14,16,-1,18,20,22,24,-1,-1,26,28,30,32,34,36,-1,-1,-1,-1,-1,-1,-1,-1,-1,-1,-1,-1,-1,-1],"split_conditions":[2.2525E3,1.5E2,3.8E3,4.975E2,2.7699318E1,6.07E3,-2.0026783E1,9.5E0,1.315E3,2.15E1,6.787427E0,6.089E3,4.75E1,1.3055E3,1.04E2,-6.1461186E-1,-7.281336E0,6.9985E3,6.144E3,1.5E0,4.7425E3,1.1E3,2.74E3,9.669324E0,3.6587402E1,2.2310033E0,1.3527913E1,-1.0393164E1,6.6774726E-1,-1.7370438E1,6.136853E0,3.012522E1,-1.3283936E0,-1.2336878E0,-1.8058434E1,9.239421E0,-7.2951417E0],"split_indices":[50,29,19,13,0,3,0,64,55,1,0,8,1,54,1,0,0,5,8,76,3,54,54,0,0,0,0,0,0,0,0,0,0,0,0,0,0],"split_type":[0,0,0,0,0,0,0,0,0,0,0,0,0,0,0,0,0,0,0,0,0,0,0,0,0,0,0,0,0,0,0,0,0,0,0,0,0],"sum_hessian":[1.341E3,1.332E3,9E0,1.331E3,1E0,4E0,5E0,9.57E2,3.74E2,2E0,2E0,9.2E2,3.7E1,3.72E2,2E0,1E0,1E0,7.73E2,1.47E2,1.8E1,1.9E1,3.23E2,4.9E1,1E0,1E0,7.54E2,1.9E1,2.6E1,1.21E2,1.5E1,3E0,2E0,1.7E1,3.14E2,9E0,3.6E1,1.3E1],"tree_param":{"num_deleted":"0","num_feature":"82","num_nodes":"37","size_leaf_vector":"0"}},{"base_weights":[2.255224E0,1.9151796E0,3.4374058E1,3.2113538E0,-8.449637E0,-2.8235937E1,6.224165E1,3.5498772E0,-4.6910706E1,-2.587506E1,5.5085244E0,4.2456055E-1,-3.5507202E1,2.1871704E1,7.6418526E1,-1.9958103E1,4.1201506E0,-4.9305177E0,-8.7658264E1,-8.184939E0,-7.2593994E1,1.8180944E1,-2.6402048E1,2.1797485E1,8.188912E1,1.3737793E0,-3.853732E1,-3.9442363E0,5.673479E0,-1.8562744E1,2.4799194E1,-1.643654E1,4.367275E1,-1.4068067E1,-8.831083E1,-2.4367514E1,2.8229935E1,-3.693374E1,5.9631023E1,1.7363892E1,-3.08812E1,-4.5362923E1,3.8860676E0,1.965431E1,-9.352163E0,5.9445312E1,5.2742352E0,-2.1399088E1,-5.0268555E0,-7.3250284E0,-7.140336E1,5.9470703E1,2.5459423E1,-4.2184814E1,1.8738037E1,-9.353014E1,-1.0229858E1,-3.710017E1,2.6197184E1,-4.2208496E1,3.374132E1,3.0954264E1,-4.5270252E1],"categories":[],"categories_nodes":[],"categories_segments":[],"categories_sizes":[],"default_left":[1,1,1,1,1,1,1,1,1,1,1,0,0,0,1,1,1,1,0,1,1,1,1,0,0,1,1,1,1,1,0,1,1,1,1,1,1,1,0,0,0,0,0,0,0,0,0,0,0,0,0,0,0,0,0,0,0,0,0,0,0,0,0],"id":21,"left_children":[1,3,5,7,9,11,13,15,17,19,21,-1,-1,-1,23,25,27,29,-1,31,33,35,37,-1,-1,39,41,43,45,47,-1,49,51,53,55,57,59,61,-1,-1,-1,-1,-1,-1,-1,-1,-1,-1,-1,-1,-1,-1,-1,-1,-1,-1,-1,-1,-1,-1,-1,-1,-1],"loss_changes":[1.459126E4,1.7881729E4,2.6184508E4,2.0222105E4,3.614011E4,1.0570647E3,4.051793E3,1.5834246E4,1.3252521E4,5.395242E4,3.4043906E4,0E0,0E0,0E0,3.066875E2,1.1150174E4,1.4402967E4,2.486752E3,0E0,2.1685367E4,1.5314797E4,2.6342033E4,2.394816E4,0E0,0E0,7.7568687E3,4.5197617E3,2.3920984E4,2.0360223E4,4.5999756E1,0E0,2.1012695E4,5.0004297E2,5.402466E3,4.7486094E3,8.697795E3,2.0446633E4,1.3852193E4,0E0,0E0,0E0,0E0,0E0,0E0,0E0,0E0,0E0,0E0,0E0,0E0,0E0,0E0,0E0,0E0,0E0,0E0,0E0,0E0,0E0,0E0,0E0,0E0,0E0],"parents":[2147483647,0,0,1,1,2,2,3,3,4,4,5,5,6,6,7,7,8,8,9,9,10,10,14,14,15,15,16,16,17,17,19,19,20,20,21,21,22,22,25,25,26,26,27,27,28,28,29,29,31,31,32,32,33,33,34,34,35,35,36,36,37,37],"right_children":[2,4,6,8,10,12,14,16,18,20,22,-1,-1,-1,24,26,28,30,-1,32,34,36,38,-1,-1,40,42,44,46,48,-1,50,52,54,56,58,60,62,-1,-1,-1,-1,-1,-1,-1,-1,-1,-1,-1,-1,-1,-1,-1,-1,-1,-1,-1,-1,-1,-1,-1,-1,-1],"split_conditions":[1.505E3,1.925E2,6.632E3,5.075E2,3.055E2,6.088E3,4.6405E3,4.015E3,6.7645E3,2.655E2,4.05E1,1.2736817E-1,-1.0652161E1,6.5615115E0,3.75E1,4.3805E3,6.6705E3,4.15E1,-2.629748E1,8.949E3,5E-1,4.775E2,1.3E3,6.539246E0,2.4566738E1,5.9385E3,4.89E2,1.5085E3,6.675E3,4.05E1,7.439759E0,8.5455E3,9.253E3,3.035E2,6.15E2,2.5E2,4.6625E3,6.164E3,1.7889307E1,5.2091675E0,-9.26436E0,-1.3608877E1,1.1658204E0,5.896293E0,-2.805649E0,1.7833595E1,1.5822706E0,-6.419727E0,-1.5080568E0,-2.1975086E0,-2.142101E1,1.7841211E1,7.6378274E0,-1.2655445E1,5.6214113E0,-2.8059044E1,-3.0689576E0,-1.1130052E1,7.859155E0,-1.2662549E1,1.0122396E1,9.28628E0,-1.3581077E1],"split_indices":[53,53,5,18,63,3,7,7,5,63,70,0,0,0,1,10,5,1,0,9,70,53,53,0,0,3,63,6,5,1,0,9,9,63,13,17,3,2,0,0,0,0,0,0,0,0,0,0,0,0,0,0,0,0,0,0,0,0,0,0,0,0,0],"split_type":[0,0,0,0,0,0,0,0,0,0,0,0,0,0,0,0,0,0,0,0,0,0,0,0,0,0,0,0,0,0,0,0,0,0,0,0,0,0,0,0,0,0,0,0,0,0,0,0,0,0,0,0,0,0,0,0,0,0,0,0,0,0,0],"sum_hessian":[1.341E3,1.328E3,1.3E1,1.181E3,1.47E2,4E0,9E0,1.174E3,7E0,6.5E1,8.2E1,1E0,3E0,3E0,6E0,2.7E1,1.147E3,4E0,3E0,4.8E1,1.7E1,5.9E1,2.3E1,1E0,5E0,1.3E1,1.4E1,1.85E2,9.62E2,3E0,1E0,4.2E1,6E0,4E0,1.3E1,1.1E1,4.8E1,2.1E1,2E0,9E0,4E0,1.2E1,2E0,3.4E1,1.51E2,6E0,9.56E2,2E0,1E0,3.7E1,5E0,2E0,4E0,2E0,2E0,1.2E1,1E0,9E0,2E0,3E0,4.5E1,2E0,1.9E1],"tree_param":{"num_deleted":"0","num_feature":"82","num_nodes":"63","size_leaf_vector":"0"}},{"base_weights":[1.5621518E0,7.450851E-1,1.4615444E1,1.1060375E0,-3.700645E1,3.315841E1,-3.37946E0,-3.4779805E-1,9.888178E0,-2.0281332E1,-6.538635E1,4.932661E1,4.0008464E0,3.3740383E1,-1.9902857E1,4.7064964E-2,-4.7166233E1,3.3085052E1,4.181381E0,-5.341797E0,-2.1481049E1,5.3557556E1,-2.6108032E1,-1.2934881E1,4.045928E1,5.3025947E0,5.735812E1,-5.6174423E1,-3.4101446E0,1.0057868E1,-1.4864638E0,-6.3070312E1,5.6653647E0,3.955712E1,-4.9136066E1,4.4148113E1,-1.516119E0,4.047714E1,7.465875E1,2.9773254E0,-4.1525574E1,1.0257324E1,5.7174805E1,2.326886E1,-1.3989319E1,6.5690346E1,3.682373E0,-9.505259E1,-6.061377E0,-3.3295013E1,1.3910505E1,4.515191E0,4.0085415E1,5.809574E-1,-1.4165814E1,-1.887732E1,-9.149573E1,1.9228394E1,-1.0730347E1,1.026414E1,5.373706E1,-1.2430908E1,-6.1273193E1,5.5552067E1,-9.653748E0,-1.313556E1,9.769126E0,-2.3238525E0,4.329744E1,8.666549E1,2.5759033E1,1.6122925E1,-8.134619E0,2.8989908E1,3.0528564E0,-1.0389404E0,-1.7959799E1,-1.07033875E2,-2.356372E1,1.3907349E1,-1.45303955E1,-4.4342773E1,-1.011556E-1,-2.0387793E1,2.9668604E1],"categories":[],"categories_nodes":[],"categories_segments":[],"categories_sizes":[],"default_left":[1,1,1,1,1,1,1,1,1,1,0,1,1,1,1,1,1,1,1,0,0,1,0,1,1,1,1,1,1,1,1,1,1,1,1,1,1,1,1,1,0,0,0,1,1,0,0,1,1,1,1,0,0,0,0,0,0,0,0,0,0,0,0,0,0,0,0,0,0,0,0,0,0,0,0,0,0,0,0,0,0,0,0,0,0],"id":22,"left_children":[1,3,5,7,9,11,13,15,17,19,-1,21,23,25,27,29,31,33,35,-1,-1,37,-1,39,41,43,45,47,49,51,53,55,57,59,61,63,65,67,69,71,-1,-1,-1,73,75,-1,-1,77,79,81,83,-1,-1,-1,-1,-1,-1,-1,-1,-1,-1,-1,-1,-1,-1,-1,-1,-1,-1,-1,-1,-1,-1,-1,-1,-1,-1,-1,-1,-1,-1,-1,-1,-1,-1],"loss_changes":[1.4302093E4,1.7264836E4,2.6472686E4,1.6001479E4,4.3697637E3,1.8188242E4,2.5818715E4,1.9894092E4,2.342527E4,4.6561523E1,0E0,9.377277E3,9.785087E3,8.427122E3,1.7156717E4,1.6410732E4,7.919457E3,2.056861E4,3.2857242E4,0E0,0E0,3.6023281E3,0E0,5.1279863E3,1.9377471E3,2.751741E3,2.8887734E3,1.6958582E4,1.1333282E4,2.3452492E4,2.43082E4,7.0662344E3,8.7345386E2,1.3155734E4,5.748047E2,1.1580262E4,1.678161E4,2.1527168E3,2.464586E3,1.2997391E3,0E0,0E0,0E0,3.74125E2,1.8701776E2,0E0,0E0,1.7605234E3,1.0476569E3,2.9292559E3,8.17154E3,0E0,0E0,0E0,0E0,0E0,0E0,0E0,0E0,0E0,0E0,0E0,0E0,0E0,0E0,0E0,0E0,0E0,0E0,0E0,0E0,0E0,0E0,0E0,0E0,0E0,0E0,0E0,0E0,0E0,0E0,0E0,0E0,0E0,0E0],"parents":[2147483647,0,0,1,1,2,2,3,3,4,4,5,5,6,6,7,7,8,8,9,9,11,11,12,12,13,13,14,14,15,15,16,16,17,17,18,18,21,21,23,23,24,24,25,25,26,26,27,27,28,28,29,29,30,30,31,31,32,32,33,33,34,34,35,35,36,36,37,37,38,38,39,39,43,43,44,44,47,47,48,48,49,49,50,50],"right_children":[2,4,6,8,10,12,14,16,18,20,-1,22,24,26,28,30,32,34,36,-1,-1,38,-1,40,42,44,46,48,50,52,54,56,58,60,62,64,66,68,70,72,-1,-1,-1,74,76,-1,-1,78,80,82,84,-1,-1,-1,-1,-1,-1,-1,-1,-1,-1,-1,-1,-1,-1,-1,-1,-1,-1,-1,-1,-1,-1,-1,-1,-1,-1,-1,-1,-1,-1,-1,-1,-1,-1],"split_conditions":[1.5925E3,2.53E2,9.5E0,9.05E1,4.926E3,2.5E0,8.6625E3,9.5E0,1.5075E3,5.0055E3,-1.9615906E1,6.3975E3,3.995E3,6.7235E3,2.5E0,5.222E3,5.175E3,2.9E2,9.35E1,-1.6025392E0,-6.444315E0,4.2625E3,-7.83241E0,6.675E3,2.5E1,6.95E1,1.05E3,5.3485E3,4.7645E3,4.6605E3,4.735E2,4.7405E3,5.65E1,1.501E3,1.5E0,1.5E0,5.365E3,1.5945E3,5.8E1,6.528E3,-1.2457673E1,3.0771973E0,1.7152443E1,2.5E0,6.5E3,1.9707104E1,1.104712E0,2.5E0,4E1,6.9985E3,2.5E0,1.3545574E0,1.2025625E1,1.7428723E-1,-4.2497444E0,-5.663196E0,-2.7448719E1,5.7685184E0,-3.219104E0,3.0792422E0,1.6121119E1,-3.7292726E0,-1.8381958E1,1.666562E1,-2.8961244E0,-3.940668E0,2.930738E0,-6.971558E-1,1.2989232E1,2.5999647E1,7.7277102E0,4.836878E0,-2.4403858E0,8.696973E0,9.1585696E-1,-3.1168213E-1,-5.38794E0,-3.2110165E1,-7.0691166E0,4.172205E0,-4.359119E0,-1.3302833E1,-3.0346682E-2,-6.1163383E0,8.900581E0],"split_indices":[6,1,76,1,10,0,9,76,6,8,0,8,19,5,72,8,7,17,1,0,0,19,0,2,1,1,4,7,10,10,63,7,1,6,0,0,3,6,1,5,0,0,0,0,2,0,0,0,1,2,73,0,0,0,0,0,0,0,0,0,0,0,0,0,0,0,0,0,0,0,0,0,0,0,0,0,0,0,0,0,0,0,0,0,0],"split_type":[0,0,0,0,0,0,0,0,0,0,0,0,0,0,0,0,0,0,0,0,0,0,0,0,0,0,0,0,0,0,0,0,0,0,0,0,0,0,0,0,0,0,0,0,0,0,0,0,0,0,0,0,0,0,0,0,0,0,0,0,0,0,0,0,0,0,0,0,0,0,0,0,0,0,0,0,0,0,0,0,0,0,0,0,0],"sum_hessian":[1.341E3,1.263E3,7.8E1,1.252E3,1.1E1,3.8E1,4E1,1.075E3,1.77E2,8E0,3E0,2.4E1,1.4E1,1.2E1,2.8E1,1.067E3,8E0,3.4E1,1.43E2,1E0,7E0,2.3E1,1E0,1E1,4E0,6E0,6E0,8E0,2E1,1.41E2,9.26E2,6E0,2E0,3.2E1,2E0,1.7E1,1.26E2,1.6E1,7E0,7E0,3E0,2E0,2E0,3E0,3E0,5E0,1E0,4E0,4E0,7E0,1.3E1,1.2E2,2.1E1,7.97E2,1.29E2,3E0,3E0,1E0,1E0,1.1E1,2.1E1,1E0,1E0,1.4E1,3E0,6.2E1,6.4E1,1E0,1.5E1,5E0,2E0,3E0,4E0,2E0,1E0,1E0,2E0,3E0,1E0,1E0,3E0,5E0,2E0,4E0,9E0],"tree_param":{"num_deleted":"0","num_feature":"82","num_nodes":"85","size_leaf_vector":"0"}},{"base_weights":[1.0816468E0,9.402347E-1,6.3885174E1,8.2502484E-1,7.760315E1,5.68234E-1,3.4895702E1,3.5872188E-1,4.011478E1,4.9273403E1,1.0108032E0,6.894907E-1,-2.3678698E1,2.3595541E1,6.961511E1,6.3606934E1,8.959717E0,-6.539225E0,1.1830444E1,-2.0995425E-1,1.1205429E1,-3.8736225E1,2.3218115E1,2.562705E1,6.718994E0,1.4127563E1,-6.879883E-1,-8.577026E0,-1.2318115E0],"categories":[],"categories_nodes":[],"categories_segments":[],"categories_sizes":[],"default_left":[1,1,0,1,0,1,1,1,1,1,1,1,1,1,0,0,1,1,0,0,0,0,0,0,0,0,0,0,0],"id":23,"left_children":[1,3,-1,5,-1,7,9,11,13,15,17,19,21,23,-1,-1,25,27,-1,-1,-1,-1,-1,-1,-1,-1,-1,-1,-1],"loss_changes":[1.1858475E4,1.1771295E4,0E0,1.1695132E4,0E0,1.10053E4,4.8220615E3,1.0543224E4,1.7686553E3,3.474963E3,4.0411636E2,1.2364621E4,1.3610083E4,3.352124E1,0E0,0E0,1.5929317E2,2.1881073E1,0E0,0E0,0E0,0E0,0E0,0E0,0E0,0E0,0E0,0E0,0E0],"parents":[2147483647,0,0,1,1,3,3,5,5,6,6,7,7,8,8,9,9,10,10,11,11,12,12,13,13,16,16,17,17],"right_children":[2,4,-1,6,-1,8,10,12,14,16,18,20,22,24,-1,-1,26,28,-1,-1,-1,-1,-1,-1,-1,-1,-1,-1,-1],"split_conditions":[2.5E2,1.5E2,1.9165552E1,1E2,2.3280945E1,4.85E2,7.55E1,2.1E1,7.45E2,7.015E3,9.65E1,3E0,7E0,6.55E2,2.0884535E1,1.908208E1,3.45E1,8.4E1,3.5491335E0,-6.298628E-2,3.3616288E0,-1.1620868E1,6.9654346E0,7.6881156E0,2.0156984E0,4.2382693E0,-2.0639649E-1,-2.573108E0,-3.6954346E-1],"split_indices":[23,29,0,44,0,58,1,72,4,2,1,71,73,4,0,0,1,1,0,0,0,0,0,0,0,0,0,0,0],"split_type":[0,0,0,0,0,0,0,0,0,0,0,0,0,0,0,0,0,0,0,0,0,0,0,0,0,0,0,0,0],"sum_hessian":[1.341E3,1.339E3,2E0,1.338E3,1E0,1.329E3,9E0,1.323E3,6E0,6E0,3E0,1.306E3,1.7E1,5E0,1E0,4E0,2E0,2E0,1E0,1.204E3,1.02E2,1.3E1,4E0,4E0,1E0,1E0,1E0,1E0,1E0],"tree_param":{"num_deleted":"0","num_feature":"82","num_nodes":"29","size_leaf_vector":"0"}},{"base_weights":[8.2824564E-1,5.247936E-1,2.594403E1,1.9299709E0,-5.72003E0,9.627721E0,9.3438805E1,-4.6395445E0,4.157979E0,-4.0858677E1,1.6364978E-1,1.8838154E1,-5.5053955E1,-2.742041E0,-4.9930355E1,5.554446E-1,1.6074049E1,6.1153455E0,-5.98929E1,4.5302418E1,-2.0828743E0,2.7363964E1,-7.185913E0,-9.565344E-1,-4.8176807E1,8.619995E0,-1.0015897E2,1.3921861E1,-1.6110985E0,-1.5057517E1,2.007896E1,-1.0177176E1,2.7701807E1,1.7441756E0,-7.9449036E1,-7.6081543E0,8.1844154E1,-3.093791E1,2.0044634E0,3.712064E1,3.4487915E0,-1.6996744E1,1.1123291E1,-4.5983017E1,6.8134826E-1,-1.065743E1,-8.35647E1,2.1859741E1,-1.1906331E1,-2.5360962E1,-1.1004639E2,7.50471E0,4.987297E1,-1.3265545E1,2.5321965E0,-3.214211E1,8.658203E0,3.9954334E1,7.6548953E0,-1.1524373E1,-1.0469971E0,3.9855633E1,6.3140464E0,3.745638E1,-2.0031982E1,-9.806357E1,-4.787028E1,1.4936035E1,-1.697821E1,2.407251E1,8.8583984E1,-2.582651E0,-5.691333E1,2.80846E1,-2.2700977E0,4.0537925E0,8.1689453E-1],"categories":[],"categories_nodes":[],"categories_segments":[],"categories_sizes":[],"default_left":[1,1,1,1,1,1,0,1,1,1,1,1,0,1,1,1,1,1,1,1,1,1,1,1,1,1,1,1,1,1,1,1,1,1,1,1,1,1,1,0,1,0,0,0,0,0,0,0,0,0,0,0,0,0,0,0,0,0,0,0,0,0,0,0,0,0,0,0,0,0,0,0,0,0,0,0,0],"id":24,"left_children":[1,3,5,7,9,11,-1,13,15,17,19,21,-1,23,25,27,29,31,33,35,37,39,41,43,45,47,49,51,53,55,57,59,61,63,65,67,69,71,73,-1,75,-1,-1,-1,-1,-1,-1,-1,-1,-1,-1,-1,-1,-1,-1,-1,-1,-1,-1,-1,-1,-1,-1,-1,-1,-1,-1,-1,-1,-1,-1,-1,-1,-1,-1,-1,-1],"loss_changes":[1.0214351E4,1.1655575E4,1.6720648E4,1.5885729E4,5.045236E4,9.3775625E3,0E0,2.3496445E4,3.476279E4,3.1660262E4,2.1389477E4,3.0810264E3,0E0,2.1451797E4,3.3213305E4,1.8063834E4,2.3742027E4,4.1506025E3,3.0273148E4,1.9957129E4,2.376801E4,2.2053042E3,9.075738E2,1.8910846E4,1.238673E4,1.8908494E3,1.6464727E3,1.9696941E4,2.5964148E4,9.192106E3,4.093196E4,7.4035095E1,1.0480652E3,6.194048E3,6.4743203E3,1.3097888E3,2.0378906E2,1.8266506E4,1.9795916E4,0E0,3.0576782E0,0E0,0E0,0E0,0E0,0E0,0E0,0E0,0E0,0E0,0E0,0E0,0E0,0E0,0E0,0E0,0E0,0E0,0E0,0E0,0E0,0E0,0E0,0E0,0E0,0E0,0E0,0E0,0E0,0E0,0E0,0E0,0E0,0E0,0E0,0E0,0E0],"parents":[2147483647,0,0,1,1,2,2,3,3,4,4,5,5,7,7,8,8,9,9,10,10,11,11,13,13,14,14,15,15,16,16,17,17,18,18,19,19,20,20,21,21,22,22,23,23,24,24,25,25,26,26,27,27,28,28,29,29,30,30,31,31,32,32,33,33,34,34,35,35,36,36,37,37,38,38,40,40],"right_children":[2,4,6,8,10,12,-1,14,16,18,20,22,-1,24,26,28,30,32,34,36,38,40,42,44,46,48,50,52,54,56,58,60,62,64,66,68,70,72,74,-1,76,-1,-1,-1,-1,-1,-1,-1,-1,-1,-1,-1,-1,-1,-1,-1,-1,-1,-1,-1,-1,-1,-1,-1,-1,-1,-1,-1,-1,-1,-1,-1,-1,-1,-1,-1,-1],"split_conditions":[1.1175E3,7.5E1,4.795E3,4.369E3,3.475E2,6.813E3,2.8031643E1,4.3425E3,6.5E0,4.7715E3,9.5E0,1.3775E3,-1.6516188E1,7.1115E3,5.362E3,1.57E2,2.38E2,4.7055E3,6.35E2,1.5E0,5E-1,4.5585E3,5.7375E3,6.5E0,4.05E1,6.939E3,1.85E1,7.55E2,2.695E2,4.0025E3,3.685E2,9.05E2,4.6515E3,4.65E1,1.5175E3,5.4E2,5.108E3,5.555E3,4.817E3,1.1136192E1,5.75E1,-5.0990233E0,3.3369875E0,-1.3794906E1,2.0440449E-1,-3.1972291E0,-2.506941E1,6.557923E0,-3.5718994E0,-7.608289E0,-3.3013916E1,2.251413E0,1.4961892E1,-3.9796636E0,7.59659E-1,-9.642633E0,2.597461E0,1.19863E1,2.2964687E0,-3.457312E0,-3.1409913E-1,1.195669E1,1.894214E0,1.1236914E1,-6.009595E0,-2.9419071E1,-1.4361085E1,4.4808106E0,-5.0934634E0,7.221753E0,2.6575197E1,-7.747953E-1,-1.7074E1,8.425381E0,-6.810293E-1,1.2161378E0,2.4506837E-1],"split_indices":[55,55,7,7,55,3,0,7,73,3,1,55,0,3,8,63,63,7,4,72,70,7,3,1,1,9,1,4,63,19,63,4,3,70,6,4,3,8,3,0,1,0,0,0,0,0,0,0,0,0,0,0,0,0,0,0,0,0,0,0,0,0,0,0,0,0,0,0,0,0,0,0,0,0,0,0,0],"split_type":[0,0,0,0,0,0,0,0,0,0,0,0,0,0,0,0,0,0,0,0,0,0,0,0,0,0,0,0,0,0,0,0,0,0,0,0,0,0,0,0,0,0,0,0,0,0,0,0,0,0,0,0,0,0,0,0,0,0,0,0,0,0,0,0,0,0,0,0,0,0,0,0,0,0,0,0,0],"sum_hessian":[1.341E3,1.326E3,1.5E1,1.083E3,2.43E2,1.3E1,2E0,2.74E2,8.09E2,3.4E1,2.09E2,1.2E1,1E0,2.64E2,1E1,6.22E2,1.87E2,1E1,2.4E1,9E0,2E2,9E0,3E0,2.55E2,9E0,5E0,5E0,8.6E1,5.36E2,2.1E1,1.66E2,6E0,4E0,6E0,1.8E1,4E0,5E0,2.4E1,1.76E2,6E0,3E0,2E0,1E0,8E0,2.47E2,5E0,4E0,3E0,2E0,1E0,4E0,7.4E1,1.2E1,1.4E2,3.96E2,1.2E1,9E0,6.3E1,1.03E2,5E0,1E0,2E0,2E0,2E0,4E0,1E1,8E0,1E0,3E0,1E0,4E0,1.2E1,1.2E1,2.4E1,1.52E2,2E0,1E0],"tree_param":{"num_deleted":"0","num_feature":"82","num_nodes":"77","size_leaf_vector":"0"}},{"base_weights":[5.489713E-1,9.137969E-1,-2.0412714E1,1.0450637E0,-5.706071E1,1.3875081E1,-2.4338938E1,4.0179244E-1,1.2171651E1,-7.550122E1,-1.0089844E1,-4.383545E-1,2.1250977E1,-2.9361668E1,4.3480835E0,8.088492E-2,2.3615637E1,2.52796E1,-1.6385092E0,-5.8857074E0,-4.0609173E1,9.626831E0,-6.204427E-1,3.9383113E-1,-2.5314877E1,4.887364E0,8.326068E1,1.422666E1,4.459067E1,2.5974178E1,-1.652711E1,-1.0130127E1,3.1502278E0,-4.4709385E1,2.246582E0,-1.0389404E0,1.0827637E-1,-7.926941E-2,1.6857279E1,-3.2410122E1,3.7009277E1,1.535022E1,-3.859318E1,2.0207941E1,-2.222705E1,5.7858246E1,1.946879E1,1.1897364E1,5.467267E1,3.3219532E1,-2.8137415E1,5.631836E0,-9.0649414E-1,-4.8141438E1,-1.9510092E1],"categories":[],"categories_nodes":[],"categories_segments":[],"categories_sizes":[],"default_left":[1,1,1,1,1,1,1,1,1,0,0,0,0,1,1,1,1,1,1,1,1,0,1,1,1,1,0,1,1,1,1,0,1,1,0,0,0,0,0,0,0,0,0,0,0,0,0,0,0,0,0,0,0,0,0],"id":25,"left_children":[1,3,5,7,9,11,13,15,17,-1,-1,-1,-1,19,21,23,25,27,29,31,33,-1,35,37,39,41,-1,43,45,47,49,-1,51,53,-1,-1,-1,-1,-1,-1,-1,-1,-1,-1,-1,-1,-1,-1,-1,-1,-1,-1,-1,-1,-1],"loss_changes":[1.028141E4,1.0105006E4,3.433999E3,9.428582E3,1.836706E3,3.260387E2,3.153498E3,9.287612E3,1.307507E4,0E0,0E0,0E0,0E0,4.5138125E3,1.1088327E2,9.793352E3,1.85829E4,7.2630547E3,1.5229392E4,3.003783E2,2.2090547E3,0E0,1.0273944E0,9.480385E3,7.8325527E3,6.961443E3,0E0,5.9001597E3,3.2065547E3,4.6013223E3,1.479648E4,0E0,3.530681E1,1.2095703E1,0E0,0E0,0E0,0E0,0E0,0E0,0E0,0E0,0E0,0E0,0E0,0E0,0E0,0E0,0E0,0E0,0E0,0E0,0E0,0E0,0E0],"parents":[2147483647,0,0,1,1,2,2,3,3,4,4,5,5,6,6,7,7,8,8,13,13,14,14,15,15,16,16,17,17,18,18,19,19,20,20,22,22,23,23,24,24,25,25,27,27,28,28,29,29,30,30,32,32,33,33],"right_children":[2,4,6,8,10,12,14,16,18,-1,-1,-1,-1,20,22,24,26,28,30,32,34,-1,36,38,40,42,-1,44,46,48,50,-1,52,54,-1,-1,-1,-1,-1,-1,-1,-1,-1,-1,-1,-1,-1,-1,-1,-1,-1,-1,-1,-1,-1],"split_conditions":[3.65E2,7.447E3,9.5E0,1.5925E3,2E0,8.5E0,6.827E3,3.1975E3,9.5E0,-2.2650368E1,-3.0269532E0,-1.3150635E-1,6.3752933E0,4.2725E3,2.15E1,1.285E2,4.865E2,4.0025E3,5.1945E3,1.523E3,5.3E1,2.8880494E0,6E0,9.4E1,7.549E3,1.533E3,2.4978205E1,5.3005E3,4.5125E3,9.5E0,6.6535E3,-3.0390382E0,3E1,5.187E3,6.7397463E-1,-3.1168213E-1,3.248291E-2,-2.3780825E-2,5.0571837E0,-9.723037E0,1.1102783E1,4.6050663E0,-1.1577955E1,6.0623827E0,-6.6681156E0,1.7357475E1,5.840637E0,3.5692093E0,1.6401802E1,9.96586E0,-8.441225E0,1.6895509E0,-2.7194825E-1,-1.4442431E1,-5.853028E0],"split_indices":[48,3,1,6,0,1,5,54,76,0,0,0,0,7,1,70,63,19,3,6,1,0,0,70,8,6,0,10,19,72,2,0,1,7,0,0,0,0,0,0,0,0,0,0,0,0,0,0,0,0,0,0,0,0,0],"split_type":[0,0,0,0,0,0,0,0,0,0,0,0,0,0,0,0,0,0,0,0,0,0,0,0,0,0,0,0,0,0,0,0,0,0,0,0,0,0,0,0,0,0,0,0,0,0,0,0,0,0,0,0,0,0,0],"sum_hessian":[1.341E3,1.319E3,2.2E1,1.317E3,2E0,2E0,2E1,1.246E3,7.1E1,1E0,1E0,1E0,1E0,1.7E1,3E0,1.23E3,1.6E1,3.6E1,3.5E1,6E0,1.1E1,1E0,2E0,1.216E3,1.4E1,1.3E1,3E0,2.4E1,1.2E1,1.2E1,2.3E1,4E0,2E0,1E1,1E0,1E0,1E0,1.183E3,3.3E1,1.3E1,1E0,1.1E1,2E0,2.1E1,3E0,7E0,5E0,9E0,3E0,4E0,1.9E1,1E0,1E0,8E0,2E0],"tree_param":{"num_deleted":"0","num_feature":"82","num_nodes":"55","size_leaf_vector":"0"}},{"base_weights":[4.0687582E-1,6.6599673E-1,-2.4220163E1,2.8896132E-1,1.8836779E1,-4.9724224E1,1.1234131E0,5.468871E-1,-2.7505127E1,3.6046616E1,-1.402461E1,-1.849375E1,-8.520028E1,2.130122E1,-2.43797E1,7.5045806E-1,-3.2220062E1,-6.003308E1,4.30528E0,5.0378136E1,-1.0127767E0,9.906564E0,-5.239801E1,-2.1095154E1,-4.0440674E0,2.9874105E1,5.6279297E0,-2.8251465E1,-6.382202E0,1.2449304E0,-1.3224204E1,-4.900098E0,-5.8315002E1,-2.1569336E1,-7.387262E1,3.2108337E1,-2.4574097E1,4.2643228E0,5.83748E1,-2.2412842E1,2.7858236E1,-8.107226E0,3.662736E1,9.0966916E-1,2.860866E1,3.0475423E0,-4.4886086E1,-1.6080017E1,1.990979E1,9.253662E0,3.664201E1,7.915161E0,-1.5186768E0,4.4143066E0,6.332942E1,-2.6719076E1,-4.7470703E0,-1.9022705E1,5.5106606E0],"categories":[],"categories_nodes":[],"categories_segments":[],"categories_sizes":[],"default_left":[1,1,1,1,1,1,1,1,1,1,1,1,0,1,1,1,1,1,1,1,1,1,0,0,0,0,0,0,0,1,1,1,0,0,0,1,0,1,1,1,0,1,0,0,0,0,0,0,0,0,0,0,0,0,0,0,0,0,0],"id":26,"left_children":[1,3,5,7,9,11,13,15,17,19,21,23,-1,25,27,29,31,33,35,37,39,41,-1,-1,-1,-1,-1,-1,-1,43,45,47,-1,-1,-1,49,-1,51,53,55,-1,57,-1,-1,-1,-1,-1,-1,-1,-1,-1,-1,-1,-1,-1,-1,-1,-1,-1],"loss_changes":[8.579943E3,9.099572E3,9.104958E3,9.356004E3,1.5775098E4,6.179865E3,4.6360923E3,8.642336E3,1.267519E4,9.611135E3,9.70229E3,1.02637085E2,0E0,5.0369727E2,9.8421875E1,8.895922E3,5.4175527E3,1.6005391E3,6.409578E3,4.54491E3,4.3314316E3,3.6663462E3,0E0,0E0,0E0,0E0,0E0,0E0,0E0,1.1368082E4,2.2805332E4,1.7070126E3,0E0,0E0,0E0,7.538965E1,0E0,7.535896E1,2.661336E3,1.7745447E2,0E0,8.480565E2,0E0,0E0,0E0,0E0,0E0,0E0,0E0,0E0,0E0,0E0,0E0,0E0,0E0,0E0,0E0,0E0,0E0],"parents":[2147483647,0,0,1,1,2,2,3,3,4,4,5,5,6,6,7,7,8,8,9,9,10,10,11,11,13,13,14,14,15,15,16,16,17,17,18,18,19,19,20,20,21,21,29,29,30,30,31,31,35,35,37,37,38,38,39,39,41,41],"right_children":[2,4,6,8,10,12,14,16,18,20,22,24,-1,26,28,30,32,34,36,38,40,42,-1,-1,-1,-1,-1,-1,-1,44,46,48,-1,-1,-1,50,-1,52,54,56,-1,58,-1,-1,-1,-1,-1,-1,-1,-1,-1,-1,-1,-1,-1,-1,-1,-1,-1],"split_conditions":[1.055E3,6.11E2,1.1225E3,5.91E2,6.004E3,6.852E3,9.5E0,5.075E2,2.505E3,6.8E2,5.1E1,1.445E2,-2.5560085E1,7.001E3,7.0285E3,2.15E1,6.7645E3,4.8E1,6.8045E3,4.7655E3,9E1,6.2E2,-1.5719403E1,-6.3285465E0,-1.2132202E0,8.962232E0,1.6883789E0,-8.47544E0,-1.9146607E0,9.5E0,9.7E2,4.15E1,-1.7494501E1,-6.470801E0,-2.2161787E1,4.95E1,-7.372229E0,3.5E0,1.5005E3,7.65E1,8.357471E0,5.319E3,1.0988209E1,2.7290076E-1,8.582599E0,9.142627E-1,-1.3465826E1,-4.824005E0,5.972937E0,2.7760987E0,1.0992603E1,2.3745484E0,-4.5560303E-1,1.3242921E0,1.8998827E1,-8.015723E0,-1.4241211E0,-5.706812E0,1.6531982E0],"split_indices":[47,63,47,63,8,5,73,18,19,4,70,1,0,2,2,79,5,1,5,3,1,4,0,0,0,0,0,0,0,79,54,1,0,0,0,1,0,0,6,1,0,3,0,0,0,0,0,0,0,0,0,0,0,0,0,0,0,0,0],"split_type":[0,0,0,0,0,0,0,0,0,0,0,0,0,0,0,0,0,0,0,0,0,0,0,0,0,0,0,0,0,0,0,0,0,0,0,0,0,0,0,0,0,0,0,0,0,0,0,0,0,0,0,0,0,0,0,0,0,0,0],"sum_hessian":[1.341E3,1.328E3,1.3E1,1.302E3,2.6E1,6E0,7E0,1.291E3,1.1E1,1.7E1,9E0,4E0,2E0,4E0,3E0,1.284E3,7E0,5E0,6E0,1.2E1,5E0,6E0,3E0,3E0,1E0,2E0,2E0,2E0,1E0,1.241E3,4.3E1,4E0,3E0,2E0,3E0,3E0,3E0,2E0,1E1,3E0,2E0,4E0,2E0,1.227E3,1.4E1,2.9E1,1.4E1,3E0,1E0,1E0,2E0,1E0,1E0,1E0,9E0,2E0,1E0,2E0,2E0],"tree_param":{"num_deleted":"0","num_feature":"82","num_nodes":"59","size_leaf_vector":"0"}},{"base_weights":[2.3801419E-1,5.7599463E-2,3.463745E1,-1.0102498E1,7.300321E-1,4.246084E1,1.0052653E1,-1.573083E1,2.816757E1,1.0459239E1,-2.4267578E-1,-8.401591E0,-4.8911808E1,3.0360107E0,4.8604534E1,2.3763334E1,1.1099495E0,1.3181116E1,-1.2672606E0,8.48094E0,-2.2983162E1,-2.355842E1,-6.7277794E1,1.1309245E1,-3.9279175E0,5.515215E1,7.9332275E0,-6.626587E0,2.9247234E1,-5.81165E0,3.750475E1,5.2305803E0,3.3002876E1,-1.4793758E0,5.5154053E1,-6.4779387E0,4.855774E1,1.4575867E1,-3.365582E1,-2.9377645E1,5.678467E0,9.539795E-1,-5.8732095E0,-1.802472E1,3.8172364E0,-2.0026123E1,3.2367573E1,-1.2371066E0,-4.5251507E1,8.176717E1,1.8583414E1,1.1995259E1,-2.2264017E1,1.2912777E1,6.281939E1,-1.1436248E0,-3.333281E1,-8.842041E0,7.943343E1],"categories":[],"categories_nodes":[],"categories_segments":[],"categories_sizes":[],"default_left":[1,1,1,1,1,0,0,1,1,1,1,1,1,1,1,1,1,1,1,1,1,1,0,0,1,0,0,1,1,1,1,1,1,1,1,0,0,0,0,0,0,0,0,0,0,0,0,0,0,0,0,0,0,0,0,0,0,0,0],"id":27,"left_children":[1,3,5,7,9,-1,-1,11,13,15,17,19,21,23,25,27,29,31,33,35,37,39,-1,-1,41,-1,-1,43,45,47,49,51,53,55,57,-1,-1,-1,-1,-1,-1,-1,-1,-1,-1,-1,-1,-1,-1,-1,-1,-1,-1,-1,-1,-1,-1,-1,-1],"loss_changes":[8.326679E3,9.134901E3,9.195117E2,1.832102E4,1.1869988E4,0E0,0E0,1.7342031E4,5.502176E3,1.4153382E4,1.5709805E4,1.5211521E4,4.4683594E3,3.9010703E2,1.1602656E3,8.0266094E3,1.734786E4,1.2592459E4,1.2779455E4,1.770017E4,1.3718764E4,1.3577717E3,0E0,0E0,4.3589783E1,0E0,0E0,1.02112524E3,6.7981797E3,1.040834E4,7.693032E3,1.1240599E4,1.2966215E4,1.1277003E4,6.917495E3,0E0,0E0,0E0,0E0,0E0,0E0,0E0,0E0,0E0,0E0,0E0,0E0,0E0,0E0,0E0,0E0,0E0,0E0,0E0,0E0,0E0,0E0,0E0,0E0],"parents":[2147483647,0,0,1,1,2,2,3,3,4,4,7,7,8,8,9,9,10,10,11,11,12,12,13,13,14,14,15,15,16,16,17,17,18,18,19,19,20,20,21,21,24,24,27,27,28,28,29,29,30,30,31,31,32,32,33,33,34,34],"right_children":[2,4,6,8,10,-1,-1,12,14,16,18,20,22,24,26,28,30,32,34,36,38,40,-1,-1,42,-1,-1,44,46,48,50,52,54,56,58,-1,-1,-1,-1,-1,-1,-1,-1,-1,-1,-1,-1,-1,-1,-1,-1,-1,-1,-1,-1,-1,-1,-1,-1],"split_conditions":[1.45E2,4.1165E3,5.025E2,1.9E1,5.222E3,1.2738252E1,3.0157962E0,4.5575E3,2.5E0,1.5E0,2.6E2,6.7005E3,4.0175E3,1.514E3,6.178E3,1.4E1,5.199E3,6.7E1,3E0,6.73E3,1.55E1,2.5E0,-2.0183338E1,3.3927736E0,1.5E0,1.6545645E1,2.3799684E0,4.246E3,1.5035E3,5.1865E3,5.203E3,5.941E3,5.862E3,2.1775E3,5.26E3,-1.9433817E0,1.4567323E1,4.3727603E0,-1.0096746E1,-8.813294E0,1.7035401E0,2.8619385E-1,-1.7619629E0,-5.407416E0,1.1451709E0,-6.0078373E0,9.710272E0,-3.71132E-1,-1.3575453E1,2.4530153E1,5.5750246E0,3.598578E0,-6.6792054E0,3.8738332E0,1.8845818E1,-3.4308743E-1,-9.999844E0,-2.6526124E0,2.383003E1],"split_indices":[60,7,60,65,8,0,0,10,72,80,4,2,7,6,3,1,8,1,68,5,70,0,0,0,0,0,0,7,6,8,8,8,8,50,3,0,0,0,0,0,0,0,0,0,0,0,0,0,0,0,0,0,0,0,0,0,0,0,0],"split_type":[0,0,0,0,0,0,0,0,0,0,0,0,0,0,0,0,0,0,0,0,0,0,0,0,0,0,0,0,0,0,0,0,0,0,0,0,0,0,0,0,0,0,0,0,0,0,0,0,0,0,0,0,0,0,0,0,0,0,0],"sum_hessian":[1.341E3,1.335E3,6E0,8.2E1,1.253E3,4E0,2E0,7.2E1,1E1,1.13E2,1.14E3,6E1,1.2E1,5E0,5E0,4.6E1,6.7E1,8E1,1.06E3,2.8E1,3.2E1,6E0,6E0,2E0,3E0,4E0,1E0,7E0,3.9E1,5.7E1,1E1,5.8E1,2.2E1,1.057E3,3E0,2.1E1,7E0,7E0,2.5E1,5E0,1E0,1E0,2E0,3E0,4E0,2E0,3.7E1,5.2E1,5E0,2E0,8E0,4.7E1,1.1E1,1.4E1,8E0,1.047E3,1E1,1E0,2E0],"tree_param":{"num_deleted":"0","num_feature":"82","num_nodes":"59","size_leaf_vector":"0"}},{"base_weights":[2.1295702E-1,3.2469755E-1,-4.97688E1,1.9764343E-1,4.2711365E1,-6.414099E1,-1.0512207E1,1.0794652E-1,6.0016357E1,5.655135E1,5.957031E-1,-1.0827239E0,4.425298E0,-1.4635183E0,2.7146206E1,8.032007E0,-1.297541E1,-2.3034203E0,1.2223279E1,3.5118977E1,-1.379362E1,2.071313E1,1.1960418E0,5.8764526E1,-1.8804865E1],"categories":[],"categories_nodes":[],"categories_segments":[],"categories_sizes":[],"default_left":[1,1,1,1,1,0,0,1,0,0,0,1,1,1,1,1,1,0,0,0,0,0,0,0,0],"id":28,"left_children":[1,3,5,7,9,-1,-1,11,-1,-1,-1,13,15,17,19,21,23,-1,-1,-1,-1,-1,-1,-1,-1],"loss_changes":[7.511214E3,7.207995E3,1.0183462E3,7.167267E3,2.2978335E3,0E0,0E0,6.872555E3,0E0,0E0,0E0,1.1305121E4,1.8241652E4,1.1926068E4,5.0540723E3,2.0780281E4,2.2015293E4,0E0,0E0,0E0,0E0,0E0,0E0,0E0,0E0],"parents":[2147483647,0,0,1,1,2,2,3,3,4,4,7,7,11,11,12,12,13,13,14,14,15,15,16,16],"right_children":[2,4,6,8,10,-1,-1,12,-1,-1,-1,14,16,18,20,22,24,-1,-1,-1,-1,-1,-1,-1,-1],"split_conditions":[7.447E3,2.5E2,2E0,1.5E2,6.15E1,-1.9242298E1,-3.1536622E0,7.35E2,1.8004908E1,1.6965406E1,1.7871094E-1,2.85E1,1.5E0,5.5E0,4.25E1,1.5125E3,5.6555E3,-6.910261E-1,3.6669838E0,1.0535693E1,-4.1380863E0,6.2139397E0,3.5881257E-1,1.7629358E1,-5.6414595E0],"split_indices":[3,39,0,29,1,0,0,4,0,0,0,65,78,0,70,6,2,0,0,0,0,0,0,0,0],"split_type":[0,0,0,0,0,0,0,0,0,0,0,0,0,0,0,0,0,0,0,0,0,0,0,0,0],"sum_hessian":[1.341E3,1.339E3,2E0,1.336E3,3E0,1E0,1E0,1.335E3,1E0,2E0,1E0,1.047E3,2.88E2,1.034E3,1.3E1,2.39E2,4.9E1,9.75E2,5.9E1,1.1E1,2E0,8.3E1,1.56E2,3E0,4.6E1],"tree_param":{"num_deleted":"0","num_feature":"82","num_nodes":"25","size_leaf_vector":"0"}},{"base_weights":[1.7930219E-1,1.677165E0,-3.673391E0,1.432764E0,6.015851E1,-4.22145E0,6.587573E1,1.742494E0,-5.8321922E1,8.651034E1,-9.448486E0,-9.609856E0,1.7022876E0,1.0076218E0,2.0047344E1,-1.4416504E1,-6.569415E1,8.414687E-1,-2.6482546E1,-1.1569523E1,6.936086E0,2.3124847E0,-1.06768265E1,4.689392E0,6.1044872E1,-9.922937E0,1.5522841E1,-3.1389805E1,1.299178E1,-9.2372453E-1,-2.945067E1,3.6965008E1,2.9589567E0,1.310497E0,2.5791182E1,-1.2376627E1,7.285242E1,-1.2879818E1,2.3178589E1,9.417324E1,2.3263754E1,-1.4272622E1,6.650244E1,2.0863022E1,-5.3775085E1,-7.469864E1,-2.509213E1,-8.616374E0,4.2156067E1,3.286727E0,-3.227118E1,-4.438178E1,2.48577E0,6.822473E1,1.45126705E1,-2.6861017E1,6.0547733E0],"categories":[],"categories_nodes":[],"categories_segments":[],"categories_sizes":[],"default_left":[1,1,1,1,1,1,0,1,1,0,0,1,1,1,1,0,0,1,1,1,1,1,1,1,1,1,1,1,1,1,1,1,1,0,0,0,0,0,0,0,0,0,0,0,0,0,0,0,0,0,0,0,0,0,0,0,0],"id":29,"left_children":[1,3,5,7,9,11,-1,13,15,-1,-1,17,19,21,23,-1,-1,25,27,29,31,33,35,37,39,41,43,45,47,49,51,53,55,-1,-1,-1,-1,-1,-1,-1,-1,-1,-1,-1,-1,-1,-1,-1,-1,-1,-1,-1,-1,-1,-1,-1,-1],"loss_changes":[7.750583E3,1.3735038E4,1.4610084E4,1.7943156E4,8.1544775E3,1.1954253E4,0E0,1.2893457E4,6.713242E2,0E0,0E0,3.4585305E4,1.2513941E4,1.4112552E4,2.3010344E4,0E0,0E0,1.9434455E4,1.4936117E4,9.681109E3,1.529695E4,1.9539305E4,1.4106091E4,9.394071E3,1.0325445E4,2.4551434E4,2.036521E4,1.6399562E4,6.03491E3,4.4616353E3,9.170408E3,9.537686E3,1.0779112E4,0E0,0E0,0E0,0E0,0E0,0E0,0E0,0E0,0E0,0E0,0E0,0E0,0E0,0E0,0E0,0E0,0E0,0E0,0E0,0E0,0E0,0E0,0E0,0E0],"parents":[2147483647,0,0,1,1,2,2,3,3,4,4,5,5,7,7,8,8,11,11,12,12,13,13,14,14,17,17,18,18,19,19,20,20,21,21,22,22,23,23,24,24,25,25,26,26,27,27,28,28,29,29,30,30,31,31,32,32],"right_children":[2,4,6,8,10,12,-1,14,16,-1,-1,18,20,22,24,-1,-1,26,28,30,32,34,36,38,40,42,44,46,48,50,52,54,56,-1,-1,-1,-1,-1,-1,-1,-1,-1,-1,-1,-1,-1,-1,-1,-1,-1,-1,-1,-1,-1,-1,-1,-1],"split_conditions":[4.975E2,1.5E0,1.315E3,4E0,3.4E1,8.825E2,1.976272E1,3.8E2,6.8E2,2.5953102E1,-2.834546E0,5.45E1,4.6535E3,6.2565E3,6.5E0,-4.324951E0,-1.9708246E1,6.741E3,6.296E3,4.574E3,6.6615E3,5.364E3,3E2,6.45E2,9E0,1.8E1,9.05E2,6.6955E3,3.005E3,6.5E0,4.25E2,4.6175E3,6.6875E3,3.9314914E-1,7.7373548E0,-3.7129881E0,2.1855726E1,-3.8639455E0,6.953577E0,2.8251974E1,6.9791265E0,-4.281787E0,1.9950733E1,6.258907E0,-1.6132526E1,-2.2409592E1,-7.5276394E0,-2.5849123E0,1.2646821E1,9.860181E-1,-9.6813545E0,-1.3314534E1,7.45731E-1,2.046742E1,4.3538013E0,-8.058306E0,1.8164321E0],"split_indices":[13,74,55,66,1,13,0,13,4,0,0,1,10,8,80,0,0,5,8,10,5,10,30,4,65,65,4,5,19,78,55,7,5,0,0,0,0,0,0,0,0,0,0,0,0,0,0,0,0,0,0,0,0,0,0,0,0],"split_type":[0,0,0,0,0,0,0,0,0,0,0,0,0,0,0,0,0,0,0,0,0,0,0,0,0,0,0,0,0,0,0,0,0,0,0,0,0,0,0,0,0,0,0,0,0,0,0,0,0,0,0,0,0,0,0,0,0],"sum_hessian":[1.341E3,9.66E2,3.75E2,9.63E2,3E0,3.73E2,2E0,9.59E2,4E0,2E0,1E0,1.95E2,1.78E2,9.23E2,3.6E1,1E0,3E0,1.21E2,7.4E1,5E1,1.28E2,8.31E2,9.2E1,2.7E1,9E0,7E1,5.1E1,6.6E1,8E0,3.2E1,1.8E1,1.4E1,1.14E2,7.98E2,3.3E1,9.1E1,1E0,1.4E1,1.3E1,4E0,5E0,6.7E1,3E0,4.8E1,3E0,7E0,5.9E1,5E0,3E0,2.9E1,3E0,1.2E1,6E0,5E0,9E0,1E1,1.04E2],"tree_param":{"num_deleted":"0","num_feature":"82","num_nodes":"57","size_leaf_vector":"0"}},{"base_weights":[1.752404E-1,-1.3581654E0,3.5918074E0,2.4800211E-1,-9.813925E0,4.3955097E0,-2.6398638E1,-1.5984756E0,1.0620602E1,-1.6174948E1,1.2843425E1,3.0219064E0,3.7688217E1,-4.1962524E1,1.1328796E1,-7.082795E0,5.700316E0,-2.4589412E0,2.0274073E1,3.7555692E0,-3.2427174E1,-5.4292908E1,2.1366821E1,1.2198287E1,8.0536586E-1,9.053945E1,1.2526184E1,-4.5424908E1,-8.862915E0,1.4586751E1,7.774658E-1,-5.0327644E0,-2.7087877E1,-1.1559185E1,1.0161155E1,9.206884E0,-2.6332174E1,2.7740557E1,-5.7257843E0,-1.2397396E1,9.871951E0,1.3493354E1,-3.9228203E1,-6.239958E1,-1.498645E1,3.5817345E1,-6.8492985E0,5.6965585E0,3.1403654E1,-3.4368835E1,2.1866283E0,2.3009277E1,1.0166968E2,2.676421E1,-3.9109295E1,-3.8766763E0,-4.776264E1,-4.8339233E1,1.1693115E0,-1.434122E1,7.4899414E1,1.2345286E1,-2.6742657E1,-2.1186948E0,2.8536226E1,1.514563E1,-3.6302105E1,3.263341E1,-9.074393E0,-2.7512085E1,6.6781783E0,8.764257E0,-2.0889294E1,1.5556434E1,-1.83366E1,3.5831474E1,-4.312671E1,3.899728E0,-4.448155E1,5.3712666E1,2.2602844E0,-3.401421E1,1.353268E1,1.9703068E1,-8.9893675E0,1.5884888E1,8.562781E1,-5.408444E1,-5.63916E0,4.4520745E0,-1.0035701E1,5.228516E-1,4.4171307E1],"categories":[],"categories_nodes":[],"categories_segments":[],"categories_sizes":[],"default_left":[1,1,1,1,1,1,1,1,1,1,1,1,1,1,1,1,1,1,1,1,1,1,1,1,1,1,1,0,0,0,0,1,1,1,1,1,1,1,1,1,1,1,1,0,0,1,1,1,1,1,1,0,0,1,0,0,0,0,0,0,0,0,0,0,0,0,0,0,0,0,0,0,0,0,0,0,0,0,0,0,0,0,0,0,0,0,0,0,0,0,0,0,0],"id":30,"left_children":[1,3,5,7,9,11,13,15,17,19,21,23,25,27,29,31,33,35,37,39,41,43,45,47,49,51,53,-1,-1,-1,-1,55,57,59,61,63,65,67,69,71,73,75,77,-1,-1,79,81,83,85,87,89,-1,-1,91,-1,-1,-1,-1,-1,-1,-1,-1,-1,-1,-1,-1,-1,-1,-1,-1,-1,-1,-1,-1,-1,-1,-1,-1,-1,-1,-1,-1,-1,-1,-1,-1,-1,-1,-1,-1,-1,-1,-1],"loss_changes":[7.035594E3,1.259236E4,1.0143044E4,1.495614E4,2.1538082E4,1.8452883E4,6.934426E3,2.657954E4,1.4948885E4,3.7695957E4,2.0043643E4,7.943046E3,2.0143396E4,5.1423047E2,1.2616235E2,1.5406857E4,2.2060129E4,1.4445987E4,1.3359512E4,5.358665E3,2.0516953E4,3.394297E2,1.2477454E4,9.31108E3,1.5427949E4,1.4187891E3,9.868977E3,0E0,0E0,0E0,0E0,1.6857668E4,2.107415E4,1.5265467E4,1.8626984E4,7.722519E3,7.579843E3,9.843023E3,4.5075137E3,2.8786182E3,6.5389404E3,1.2928364E4,1.2861148E4,0E0,0E0,1.1888883E4,6.550724E3,1.2107635E4,1.4628162E4,6.492084E3,8.489834E3,0E0,0E0,4.544763E3,0E0,0E0,0E0,0E0,0E0,0E0,0E0,0E0,0E0,0E0,0E0,0E0,0E0,0E0,0E0,0E0,0E0,0E0,0E0,0E0,0E0,0E0,0E0,0E0,0E0,0E0,0E0,0E0,0E0,0E0,0E0,0E0,0E0,0E0,0E0,0E0,0E0,0E0,0E0],"parents":[2147483647,0,0,1,1,2,2,3,3,4,4,5,5,6,6,7,7,8,8,9,9,10,10,11,11,12,12,13,13,14,14,15,15,16,16,17,17,18,18,19,19,20,20,21,21,22,22,23,23,24,24,25,25,26,26,31,31,32,32,33,33,34,34,35,35,36,36,37,37,38,38,39,39,40,40,41,41,42,42,45,45,46,46,47,47,48,48,49,49,50,50,53,53],"right_children":[2,4,6,8,10,12,14,16,18,20,22,24,26,28,30,32,34,36,38,40,42,44,46,48,50,52,54,-1,-1,-1,-1,56,58,60,62,64,66,68,70,72,74,76,78,-1,-1,80,82,84,86,88,90,-1,-1,92,-1,-1,-1,-1,-1,-1,-1,-1,-1,-1,-1,-1,-1,-1,-1,-1,-1,-1,-1,-1,-1,-1,-1,-1,-1,-1,-1,-1,-1,-1,-1,-1,-1,-1,-1,-1,-1,-1,-1],"split_conditions":[1.5205E3,5.5E0,6.925E2,1.55E1,7.3545E3,5.475E2,4.6485E3,5.841E3,6.842E3,6.8475E3,6.6145E3,4.9125E3,5.85E2,1.265E2,1.145E2,8.15E2,1.25E1,3.5E0,1.11E2,4.35E1,1.5E0,6.5585E3,1.725E2,4.847E3,4.9555E3,4.55E1,9.7795E3,-1.3627473E1,-2.6588745E0,4.3760257E0,2.3323976E-1,5.799E3,4.5E0,9E2,3.5E0,6.699E3,4.272E3,8.15E2,6.95E2,3.71E2,1.1825E3,5.695E3,6.6495E3,-1.8719873E1,-4.4959354E0,3.525E2,1.3E1,3.415E2,5.17E3,6.25E1,5.2455E3,6.9027834E0,3.0500904E1,6.9905E3,-1.1732789E1,-1.163003E0,-1.4328794E1,-1.4501771E1,3.5079348E-1,-4.3023663E0,2.2469826E1,3.703586E0,-8.022798E0,-6.3560843E-1,8.560868E0,4.5436893E0,-1.0890632E1,9.790024E0,-2.7223182E0,-8.253626E0,2.0034535E0,2.6292772E0,-6.2667885E0,4.66693E0,-5.50098E0,1.0749443E1,-1.2938013E1,1.1699184E0,-1.3344465E1,1.61138E1,6.780853E-1,-1.0204264E1,4.059804E0,5.9109206E0,-2.6968102E0,4.7654667E0,2.5688343E1,-1.6225332E1,-1.6917481E0,1.3356224E0,-3.0107105E0,1.5685548E-1,1.3251392E1],"split_indices":[6,64,55,65,9,55,7,3,2,9,5,3,55,1,1,4,1,73,1,1,73,3,55,3,3,1,9,0,0,0,0,3,73,4,76,2,7,4,4,63,13,8,5,0,0,13,65,63,10,1,10,0,0,2,0,0,0,0,0,0,0,0,0,0,0,0,0,0,0,0,0,0,0,0,0,0,0,0,0,0,0,0,0,0,0,0,0,0,0,0,0,0,0],"split_type":[0,0,0,0,0,0,0,0,0,0,0,0,0,0,0,0,0,0,0,0,0,0,0,0,0,0,0,0,0,0,0,0,0,0,0,0,0,0,0,0,0,0,0,0,0,0,0,0,0,0,0,0,0,0,0,0,0,0,0,0,0,0,0,0,0,0,0,0,0,0,0,0,0,0,0,0,0,0,0,0,0,0,0,0,0,0,0,0,0,0,0,0,0],"sum_hessian":[1.341E3,9.26E2,4.15E2,7.79E2,1.47E2,4.05E2,1E1,6.62E2,1.17E2,1.15E2,3.2E1,3.9E2,1.5E1,7E0,3E0,3.78E2,2.84E2,5E1,6.7E1,5.2E1,6.3E1,3E0,2.9E1,7.5E1,3.15E2,4E0,1.1E1,6E0,1E0,2E0,1E0,3.44E2,3.4E1,5.8E1,2.26E2,3.4E1,1.6E1,5.2E1,1.5E1,1.4E1,3.8E1,8E0,5.5E1,2E0,1E0,1.9E1,1E1,5.7E1,1.8E1,1.1E1,3.04E2,1E0,3E0,9E0,2E0,3.36E2,8E0,1.9E1,1.5E1,5.7E1,1E0,2.14E2,1.2E1,2.2E1,1.2E1,3E0,1.3E1,4.6E1,6E0,5E0,1E1,4E0,1E1,3.2E1,6E0,6E0,2E0,6E0,4.9E1,1.2E1,7E0,4E0,6E0,2.9E1,2.8E1,1.5E1,3E0,6E0,5E0,2.57E2,4.7E1,4E0,5E0],"tree_param":{"num_deleted":"0","num_feature":"82","num_nodes":"93","size_leaf_vector":"0"}},{"base_weights":[1.2018868E-1,9.731451E-1,-6.142636E0,1.9024601E0,-7.3442016E0,-8.842196E0,1.8874771E1,3.831636E0,-2.9554093E0,-1.3241029E1,2.080485E1,-1.6923225E1,4.0724497E0,-5.76947E0,3.8683567E1,-1.849147E1,4.8036027E0,-6.971712E0,1.2768795E1,-1.5522433E1,4.4822937E1,1.4633092E0,2.8443913E1,-2.8028488E1,2.1921601E0,1.3211858E1,-1.4901727E1,-1.9414795E1,1.2729553E1,2.2410318E1,5.3422546E1,-5.5094166E1,-1.7732782E0,1.132688E1,2.442414E0,-1.736072E1,-1.2365116E0,2.247784E1,-2.9558716E1,-2.4304157E1,2.8005219E0,5.8217854E1,2.3190918E0,1.6828125E1,-8.048243E0,3.605806E1,6.004004E0,-7.0760765E0,-4.09964E1,5.379773E1,-4.537338E0,9.893163E0,6.966113E1,-2.6549282E1,1.47595215E1,-7.432454E-1,-3.1614746E1,-1.3160889E1,-8.08562E1,1.2718003E1,-3.6713066E1,-1.7125633E0,2.2627481E1,9.125617E0,-1.7976822E0,6.7875686E0,-2.6817923E1,-4.1662697E1,9.268727E-2,3.2613705E1,-6.639352E0,-5.9527588E1,2.4303223E1,1.1127991E1,-2.8772314E1,-9.514027E0,2.7175026E1,-1.0750366E1,1.380127E0,1.1054199E1,4.038623E1,1.4555501E1,-4.548828E0,-1.4851721E1,3.3571167E1,-4.6359398E1,4.534668E-1,-2.537446E1,1.1921387E1,3.887873E0,4.1273396E1,-7.0815346E1,-1.3270325E1,3.0447693E1,-1.1077881E1,-4.3812256E0,3.2663574E0],"categories":[],"categories_nodes":[],"categories_segments":[],"categories_sizes":[],"default_left":[1,1,1,1,1,1,1,1,1,1,1,1,1,1,1,1,1,1,1,1,1,1,1,1,1,1,1,1,0,0,0,1,1,1,1,1,1,1,1,1,1,0,0,0,1,1,1,1,1,0,1,1,0,1,1,1,0,0,0,0,0,0,0,0,0,0,0,0,0,0,0,0,0,0,0,0,0,0,0,0,0,0,0,0,0,0,0,0,0,0,0,0,0,0,0,0,0],"id":31,"left_children":[1,3,5,7,9,11,13,15,17,19,21,23,25,27,29,31,33,35,37,39,41,43,45,47,49,51,53,55,-1,-1,-1,57,59,61,63,65,67,69,71,73,75,-1,-1,-1,77,79,81,83,85,-1,87,89,-1,91,93,95,-1,-1,-1,-1,-1,-1,-1,-1,-1,-1,-1,-1,-1,-1,-1,-1,-1,-1,-1,-1,-1,-1,-1,-1,-1,-1,-1,-1,-1,-1,-1,-1,-1,-1,-1,-1,-1,-1,-1,-1,-1],"loss_changes":[7.1748296E3,9.150163E3,1.1040191E4,9.982796E3,2.0028299E4,1.5306012E4,8.033947E3,1.6622182E4,1.9224428E4,1.3810035E4,3.0611543E3,1.9166764E4,1.0081406E4,2.2665432E3,9.6144336E2,1.948409E4,1.1231703E4,1.4397629E4,2.6143918E4,1.5515146E4,2.14233E3,1.1584396E3,2.346419E3,1.5197324E4,1.20516045E4,6.6170093E3,6.955993E3,1.1154625E3,0E0,0E0,0E0,9.73873E3,1.2112329E4,2.862534E4,1.5261938E4,1.9822303E4,8.440168E3,1.5268057E4,2.081689E4,1.0610742E4,9.863696E3,0E0,0E0,0E0,1.4221997E2,7.4399316E2,5.17423E2,7.7679346E3,7.801367E3,0E0,1.0934025E4,7.000536E3,0E0,7.2895576E3,2.7693452E3,5.8071213E1,0E0,0E0,0E0,0E0,0E0,0E0,0E0,0E0,0E0,0E0,0E0,0E0,0E0,0E0,0E0,0E0,0E0,0E0,0E0,0E0,0E0,0E0,0E0,0E0,0E0,0E0,0E0,0E0,0E0,0E0,0E0,0E0,0E0,0E0,0E0,0E0,0E0,0E0,0E0,0E0,0E0],"parents":[2147483647,0,0,1,1,2,2,3,3,4,4,5,5,6,6,7,7,8,8,9,9,10,10,11,11,12,12,13,13,14,14,15,15,16,16,17,17,18,18,19,19,20,20,21,21,22,22,23,23,24,24,25,25,26,26,27,27,31,31,32,32,33,33,34,34,35,35,36,36,37,37,38,38,39,39,40,40,44,44,45,45,46,46,47,47,48,48,50,50,51,51,53,53,54,54,55,55],"right_children":[2,4,6,8,10,12,14,16,18,20,22,24,26,28,30,32,34,36,38,40,42,44,46,48,50,52,54,56,-1,-1,-1,58,60,62,64,66,68,70,72,74,76,-1,-1,-1,78,80,82,84,86,-1,88,90,-1,92,94,96,-1,-1,-1,-1,-1,-1,-1,-1,-1,-1,-1,-1,-1,-1,-1,-1,-1,-1,-1,-1,-1,-1,-1,-1,-1,-1,-1,-1,-1,-1,-1,-1,-1,-1,-1,-1,-1,-1,-1,-1,-1],"split_conditions":[1.925E2,8.5E0,6.3395E3,6.9975E3,8.0055E3,1.15E1,5.591E3,6.5275E3,5.5E0,7.0725E3,4.7935E3,4.95E1,4.939E3,5.85E2,1.023E3,5.95E2,5.75E2,6.7645E3,2.05E2,6.95E2,3.15E1,3.5075E3,5.4995E3,6.6875E3,6.226E3,6.1925E3,1.585E3,6.7025E3,3.818866E0,6.723096E0,1.6026764E1,1.51E3,4E0,4.762E3,5.4665E3,4.432E3,2.495E3,4.575E2,5.8785E3,6.638E3,6.993E3,1.7465357E1,6.957276E-1,5.0484376E0,6.7085E3,6.698E3,7.15E2,6.6865E3,5E0,1.613932E1,6.696E3,5.79E3,2.089834E1,5E-1,1.6005E3,2.5E0,-9.484425E0,-3.9482667E0,-2.425686E1,3.815401E0,-1.101392E1,-5.1376903E-1,6.7882447E0,2.7376852E0,-5.393047E-1,2.0362706E0,-8.045377E0,-1.249881E1,2.7806183E-2,9.784112E0,-1.9918057E0,-1.7858276E1,7.290967E0,3.3383973E0,-8.631695E0,-2.854208E0,8.152508E0,-3.22511E0,4.140381E-1,3.3162599E0,1.21158695E1,4.3666506E0,-1.3646485E0,-4.4555163E0,1.007135E1,-1.390782E1,1.3604005E-1,-7.6123385E0,3.5764163E0,1.1663619E0,1.2382019E1,-2.1244604E1,-3.9810975E0,9.134308E0,-3.3233645E0,-1.3143678E0,9.799073E-1],"split_indices":[53,80,3,2,9,65,8,5,80,3,10,1,10,4,53,4,4,5,14,4,1,19,10,2,2,3,6,2,0,0,0,6,0,10,8,7,19,13,8,5,2,0,0,0,3,2,4,2,64,0,2,8,0,73,6,0,0,0,0,0,0,0,0,0,0,0,0,0,0,0,0,0,0,0,0,0,0,0,0,0,0,0,0,0,0,0,0,0,0,0,0,0,0,0,0,0,0],"split_type":[0,0,0,0,0,0,0,0,0,0,0,0,0,0,0,0,0,0,0,0,0,0,0,0,0,0,0,0,0,0,0,0,0,0,0,0,0,0,0,0,0,0,0,0,0,0,0,0,0,0,0,0,0,0,0,0,0,0,0,0,0,0,0,0,0,0,0,0,0,0,0,0,0,0,0,0,0,0,0,0,0,0,0,0,0,0,0,0,0,0,0,0,0,0,0,0,0],"sum_hessian":[1.341E3,1.181E3,1.6E2,1.063E3,1.18E2,1.45E2,1.5E1,7.61E2,3.02E2,9.8E1,2E1,8.9E1,5.6E1,7E0,8E0,3.1E1,7.3E2,2.41E2,6.1E1,9.5E1,3E0,6E0,1.4E1,5.6E1,3.3E1,3.8E1,1.8E1,4E0,3E0,5E0,3E0,9E0,2.2E1,1.93E2,5.37E2,8.5E1,1.56E2,5E1,1.1E1,6.4E1,3.1E1,2E0,1E0,2E0,4E0,1E1,4E0,2.2E1,3.4E1,3E0,3E1,3.7E1,1E0,1.3E1,5E0,2E0,2E0,4E0,5E0,1.6E1,6E0,9E1,1.03E2,2.08E2,3.29E2,2.4E1,6.1E1,4E0,1.52E2,3.7E1,1.3E1,7E0,4E0,7E0,5.7E1,2.1E1,1E1,3E0,1E0,2E0,8E0,2E0,2E0,1.9E1,3E0,3E1,4E0,1.3E1,1.7E1,3.2E1,5E0,2E0,1.1E1,3E0,2E0,1E0,1E0],"tree_param":{"num_deleted":"0",